{"learner":{"attributes":{"scikit_learn":"{\"n_estimators\": 100, \"objective\": \"binary:logistic\", \"max_depth\": 4, \"learning_rate\": 0.5, \"verbosity\": null, \"booster\": null, \"tree_method\": null, \"gamma\": null, \"min_child_weight\": 4, \"max_delta_step\": null, \"subsample\": 0.9, \"colsample_bytree\": null, \"colsample_bylevel\": null, \"colsample_bynode\": null, \"reg_alpha\": null, \"reg_lambda\": null, \"scale_pos_weight\": null, \"base_score\": null, \"missing\": NaN, \"num_parallel_tree\": null, \"kwargs\": {}, \"random_state\": 42, \"n_jobs\": null, \"monotone_constraints\": null, \"interaction_constraints\": null, \"importance_type\": \"gain\", \"gpu_id\": null, \"validate_parameters\": false, \"classes_\": [false, true], \"n_classes_\": 2, \"_le\": {\"classes_\": [false, true]}, \"_features_count\": 13, \"type\": \"XGBClassifier\"}"},"gradient_booster":{"model":{"gbtree_model_param":{"num_trees":"100","size_leaf_vector":"0"},"tree_info":[0,0,0,0,0,0,0,0,0,0,0,0,0,0,0,0,0,0,0,0,0,0,0,0,0,0,0,0,0,0,0,0,0,0,0,0,0,0,0,0,0,0,0,0,0,0,0,0,0,0,0,0,0,0,0,0,0,0,0,0,0,0,0,0,0,0,0,0,0,0,0,0,0,0,0,0,0,0,0,0,0,0,0,0,0,0,0,0,0,0,0,0,0,0,0,0,0,0,0,0],"trees":[{"base_weights":[2.10045665502548218e-01,9.93710696697235107e-01,-1.75000000000000000e+00,-8.99999976158142090e-01,1.57723581790924072e+00,-1.65217387676239014e+00,9.52380970120429993e-02,9.67741906642913818e-01,1.70833337306976318e+00,1.84615385532379150e+00,9.09090936183929443e-01],"default_left":[true,true,false,false,true,false,false,false,true,false,false],"id":0,"leaf_child_counts":[1,0,0,2,1,0,0,0,2,0,0],"left_children":[1,3,-1,5,7,-1,-1,-1,9,-1,-1],"loss_changes":[8.58360443115234375e+01,4.53443603515625000e+01,0.00000000000000000e+00,7.64327049255371094e+00,8.03794860839843750e-01,0.00000000000000000e+00,0.00000000000000000e+00,0.00000000000000000e+00,9.65332031250000000e-01,0.00000000000000000e+00,0.00000000000000000e+00],"parents":[2147483647,0,0,1,1,3,3,4,4,8,8],"right_children":[2,4,-1,6,8,-1,-1,-1,10,-1,-1],"split_conditions":[1.96758270263671875e+01,1.86241493225097656e+01,-8.75000000000000000e-01,7.42847299575805664e+00,1.84080009460449219e+01,-8.26086938381195068e-01,4.76190485060214996e-02,4.83870953321456909e-01,2.13105010986328125e+01,9.23076927661895752e-01,4.54545468091964722e-01],"split_indices":[1,0,0,11,7,0,0,0,7,0,0],"sum_hessian":[5.37500000000000000e+01,3.87500000000000000e+01,1.50000000000000000e+01,9.00000000000000000e+00,2.97500000000000000e+01,4.75000000000000000e+00,4.25000000000000000e+00,6.75000000000000000e+00,2.30000000000000000e+01,1.85000000000000000e+01,4.50000000000000000e+00],"tree_param":{"num_feature":"13","num_nodes":"11","size_leaf_vector":"0"}},{"base_weights":[1.40306308865547180e-01,6.15061104297637939e-01,-1.00641858577728271e+00,-6.30041360855102539e-01,1.12979125976562500e+00,-1.93069934844970703e-01,-1.31716251373291016e+00,-1.30318331718444824e+00,9.37998443841934204e-02,1.23571181297302246e+00,5.00709831714630127e-01],"default_left":[true,true,true,false,true,false,false,false,false,false,false],"id":1,"leaf_child_counts":[0,0,2,2,2,0,0,0,0,0,0],"left_children":[1,3,5,7,9,-1,-1,-1,-1,-1,-1],"loss_changes":[2.58598785400390625e+01,2.21235733032226562e+01,3.27250480651855469e+00,5.19634866714477539e+00,9.80152130126953125e-01,0.00000000000000000e+00,0.00000000000000000e+00,0.00000000000000000e+00,0.00000000000000000e+00,0.00000000000000000e+00,0.00000000000000000e+00],"parents":[2147483647,0,0,1,1,2,2,3,3,4,4],"right_children":[2,4,6,8,10,-1,-1,-1,-1,-1,-1],"split_conditions":[1.95919151306152344e+01,1.87685012817382812e+01,3.03625011444091797e+00,7.42847299575805664e+00,2.10102500915527344e+01,-9.65349674224853516e-02,-6.58581256866455078e-01,-6.51591658592224121e-01,4.68999221920967102e-02,6.17855906486511230e-01,2.50354915857315063e-01],"split_indices":[1,0,2,11,7,0,0,0,0,0,0],"sum_hessian":[4.53634452819824219e+01,3.24093208312988281e+01,1.29541254043579102e+01,9.41381740570068359e+00,2.29955043792724609e+01,4.02923202514648438e+00,8.92489337921142578e+00,4.46302223205566406e+00,4.95079517364501953e+00,1.88562927246093750e+01,4.13921117782592773e+00],"tree_param":{"num_feature":"13","num_nodes":"11","size_leaf_vector":"0"}},{"base_weights":[1.54651291668415070e-02,3.32314491271972656e-01,-1.02727854251861572e+00,-4.47580188512802124e-01,7.83870577812194824e-01,-1.20629310607910156e+00,2.09719642996788025e-01,1.03797805309295654e+00,2.33518958091735840e-01],"default_left":[true,true,false,false,true,false,false,false,false],"id":2,"leaf_child_counts":[1,0,0,2,2,0,0,0,0],"left_children":[1,3,-1,5,7,-1,-1,-1,-1],"loss_changes":[1.27600307464599609e+01,1.07691373825073242e+01,0.00000000000000000e+00,5.98026943206787109e+00,2.42858791351318359e+00,0.00000000000000000e+00,0.00000000000000000e+00,0.00000000000000000e+00,0.00000000000000000e+00],"parents":[2147483647,0,0,1,1,3,3,4,4],"right_children":[2,4,-1,6,8,-1,-1,-1,-1],"split_conditions":[1.98646602630615234e+01,1.92062492370605469e+01,-5.13639271259307861e-01,1.17011487483978271e+00,1.92970924377441406e+01,-6.03146553039550781e-01,1.04859821498394012e-01,5.18989026546478271e-01,1.16759479045867920e-01],"split_indices":[1,0,0,10,1,0,0,0,0],"sum_hessian":[3.65875549316406250e+01,2.85834560394287109e+01,8.00409603118896484e+00,1.04843893051147461e+01,1.80990676879882812e+01,4.47905158996582031e+00,6.00533771514892578e+00,1.17758922576904297e+01,6.32317543029785156e+00],"tree_param":{"num_feature":"13","num_nodes":"9","size_leaf_vector":"0"}},{"base_weights":[-5.87141374126076698e-03,-9.57057952880859375e-01,2.20746248960494995e-01,4.82698798179626465e-01,-8.74365806579589844e-01,7.04692959785461426e-01,-3.53359282016754150e-01,9.20227050781250000e-01,4.55087702721357346e-03],"default_left":[true,false,true,true,false,true,false,false,false],"id":3,"leaf_child_counts":[1,0,1,1,0,2,0,0,0],"left_children":[1,-1,3,5,-1,7,-1,-1,-1],"loss_changes":[6.96382236480712891e+00,0.00000000000000000e+00,7.91258144378662109e+00,4.27940750122070312e+00,0.00000000000000000e+00,2.63562297821044922e+00,0.00000000000000000e+00,0.00000000000000000e+00,0.00000000000000000e+00],"parents":[2147483647,0,0,2,2,3,3,5,5],"right_children":[2,-1,4,6,-1,8,-1,-1,-1],"split_conditions":[7.75749981403350830e-01,-4.78528976440429688e-01,5.12354016304016113e-01,2.14570007324218750e+01,-4.37182903289794922e-01,1.93783912658691406e+01,-1.76679641008377075e-01,4.60113525390625000e-01,2.27543851360678673e-03],"split_indices":[8,0,9,7,0,1,0,0,0],"sum_hessian":[3.03262729644775391e+01,5.21481323242187500e+00,2.51114597320556641e+01,2.07155017852783203e+01,4.39595651626586914e+00,1.64932575225830078e+01,4.22224473953247070e+00,1.23706827163696289e+01,4.12257575988769531e+00],"tree_param":{"num_feature":"13","num_nodes":"9","size_leaf_vector":"0"}},{"base_weights":[-1.87157653272151947e-02,-8.28343272209167480e-01,1.85375601053237915e-01,4.24563556909561157e-01,-5.78416168689727783e-01,2.02716570347547531e-02,9.94582056999206543e-01,-3.93712520599365234e-01,4.09808874130249023e-01],"default_left":[true,false,true,false,false,true,false,false,false],"id":4,"leaf_child_counts":[1,0,1,1,0,2,0,0,0],"left_children":[1,-1,3,5,-1,7,-1,-1,-1],"loss_changes":[4.54617547988891602e+00,0.00000000000000000e+00,4.27364253997802734e+00,3.98219084739685059e+00,0.00000000000000000e+00,1.96449923515319824e+00,0.00000000000000000e+00,0.00000000000000000e+00,0.00000000000000000e+00],"parents":[2147483647,0,0,2,2,3,3,5,5],"right_children":[2,-1,4,6,-1,8,-1,-1,-1],"split_conditions":[7.90250003337860107e-01,-4.14171636104583740e-01,4.70649766921997070e+00,3.01859426498413086e+00,-2.89208084344863892e-01,1.95905494689941406e+01,4.97291028499603271e-01,-1.96856260299682617e-01,2.04904437065124512e-01],"split_indices":[8,0,6,10,0,0,0,0,0],"sum_hessian":[2.55836029052734375e+01,4.53492641448974609e+00,2.10486755371093750e+01,1.63672637939453125e+01,4.68141269683837891e+00,1.01814918518066406e+01,6.18577194213867188e+00,4.93066501617431641e+00,5.25082683563232422e+00],"tree_param":{"num_feature":"13","num_nodes":"9","size_leaf_vector":"0"}},{"base_weights":[9.79722514748573303e-02,4.53669399023056030e-01,-3.57492655515670776e-01,7.96601831912994385e-01,-1.82970196008682251e-01,6.56888261437416077e-02,-8.47173511981964111e-01],"default_left":[true,true,true,false,false,false,false],"id":5,"leaf_child_counts":[0,2,2,0,0,0,0],"left_children":[1,3,5,-1,-1,-1,-1],"loss_changes":[4.24460506439208984e+00,3.33107423782348633e+00,2.46133375167846680e+00,0.00000000000000000e+00,0.00000000000000000e+00,0.00000000000000000e+00,0.00000000000000000e+00],"parents":[2147483647,0,0,1,1,2,2],"right_children":[2,4,6,-1,-1,-1,-1],"split_conditions":[1.65455013513565063e-01,1.95822639465332031e+01,2.03007507324218750e+01,3.98300915956497192e-01,-9.14850980043411255e-02,3.28444130718708038e-02,-4.23586755990982056e-01],"split_indices":[9,1,7,0,0,0,0],"sum_hessian":[2.41989555358886719e+01,1.35898494720458984e+01,1.06091051101684570e+01,8.66896343231201172e+00,4.92088651657104492e+00,6.15543842315673828e+00,4.45366716384887695e+00],"tree_param":{"num_feature":"13","num_nodes":"7","size_leaf_vector":"0"}},{"base_weights":[-1.70770790427923203e-02,7.29227662086486816e-01,-2.52863317728042603e-01,1.05709455907344818e-01,-9.98705983161926270e-01,-3.07335197925567627e-01,6.92322611808776855e-01],"default_left":[true,false,true,true,false,false,false],"id":6,"leaf_child_counts":[1,0,1,2,0,0,0],"left_children":[1,-1,3,5,-1,-1,-1],"loss_changes":[4.13383483886718750e+00,0.00000000000000000e+00,4.86546516418457031e+00,3.34418177604675293e+00,0.00000000000000000e+00,0.00000000000000000e+00,0.00000000000000000e+00],"parents":[2147483647,0,0,2,2,3,3],"right_children":[2,-1,4,6,-1,-1,-1],"split_conditions":[3.01336240768432617e+00,3.64613831043243408e-01,1.95110130310058594e+01,1.96628456115722656e+01,-4.99352991580963135e-01,-1.53667598962783813e-01,3.46161305904388428e-01],"split_indices":[2,0,1,0,0,0,0],"sum_hessian":[2.14440307617187500e+01,4.64597082138061523e+00,1.67980594635009766e+01,1.19238128662109375e+01,4.87424755096435547e+00,7.27643299102783203e+00,4.64737939834594727e+00],"tree_param":{"num_feature":"13","num_nodes":"7","size_leaf_vector":"0"}},{"base_weights":[7.51861855387687683e-02,-5.30345737934112549e-01,2.92249053716659546e-01,5.27170062065124512e-01,-2.64223068952560425e-01,8.82332772016525269e-02,1.00988650321960449e+00],"default_left":[false,false,true,true,false,false,false],"id":7,"leaf_child_counts":[1,0,1,2,0,0,0],"left_children":[1,-1,3,5,-1,-1,-1],"loss_changes":[2.87501859664916992e+00,0.00000000000000000e+00,2.21501064300537109e+00,2.34727644920349121e+00,0.00000000000000000e+00,0.00000000000000000e+00,0.00000000000000000e+00],"parents":[2147483647,0,0,2,2,3,3],"right_children":[2,-1,4,6,-1,-1,-1],"split_conditions":[7.16474592685699463e-01,-2.65172868967056274e-01,4.17128372192382812e+00,9.76750016212463379e-01,-1.32111534476280212e-01,4.41166386008262634e-02,5.04943251609802246e-01],"split_indices":[10,0,6,8,0,0,0],"sum_hessian":[1.96942825317382812e+01,4.81599712371826172e+00,1.48782844543457031e+01,1.04987678527832031e+01,4.37951707839965820e+00,6.11822032928466797e+00,4.38054752349853516e+00],"tree_param":{"num_feature":"13","num_nodes":"7","size_leaf_vector":"0"}},{"base_weights":[-2.17150133103132248e-02,3.23538154363632202e-01,-3.81594866514205933e-01,-3.28017696738243103e-02,6.03380680084228516e-01,3.82958054542541504e-02,-7.87011981010437012e-01],"default_left":[true,false,true,false,false,false,false],"id":8,"leaf_child_counts":[0,2,2,0,0,0,0],"left_children":[1,3,5,-1,-1,-1,-1],"loss_changes":[2.53096103668212891e+00,1.05989050865173340e+00,1.72326004505157471e+00,0.00000000000000000e+00,0.00000000000000000e+00,0.00000000000000000e+00,0.00000000000000000e+00],"parents":[2147483647,0,0,1,1,2,2],"right_children":[2,4,6,-1,-1,-1,-1],"split_conditions":[1.27726495265960693e-01,2.98666238784790039e+00,2.24931621551513672e+00,-1.64008848369121552e-02,3.01690340042114258e-01,1.91479027271270752e-02,-3.93505990505218506e-01],"split_indices":[9,10,6,0,0,0,0],"sum_hessian":[1.83763141632080078e+01,9.43028640747070312e+00,8.94602680206298828e+00,4.53649091720581055e+00,4.89379596710205078e+00,4.83939886093139648e+00,4.10662746429443359e+00],"tree_param":{"num_feature":"13","num_nodes":"7","size_leaf_vector":"0"}},{"base_weights":[-4.51339744031429291e-02,-2.82154381275177002e-01,3.51950198411941528e-01,1.13444492220878601e-01,-7.89291679859161377e-01],"default_left":[true,true,false,false,false],"id":9,"leaf_child_counts":[1,2,0,0,0],"left_children":[1,3,-1,-1,-1],"loss_changes":[1.84727334976196289e+00,2.53417825698852539e+00,0.00000000000000000e+00,0.00000000000000000e+00,0.00000000000000000e+00],"parents":[2147483647,0,0,1,1],"right_children":[2,4,-1,-1,-1],"split_conditions":[7.14523792266845703e-01,-3.65333557128906250e-02,1.75975099205970764e-01,5.67222461104393005e-02,-3.94645839929580688e-01],"split_indices":[3,4,0,0,0],"sum_hessian":[1.75722885131835938e+01,1.11852331161499023e+01,6.38705539703369141e+00,6.71972846984863281e+00,4.46550464630126953e+00],"tree_param":{"num_feature":"13","num_nodes":"5","size_leaf_vector":"0"}},{"base_weights":[-1.32389795035123825e-02,-4.59957003593444824e-01,2.26565241813659668e-01,6.34121775627136230e-01,-3.97636830806732178e-01],"default_left":[true,false,true,false,false],"id":10,"leaf_child_counts":[1,0,2,0,0],"left_children":[1,-1,3,-1,-1],"loss_changes":[2.05691623687744141e+00,0.00000000000000000e+00,3.44003057479858398e+00,0.00000000000000000e+00,0.00000000000000000e+00],"parents":[2147483647,0,0,2,2],"right_children":[2,-1,4,-1,-1],"split_conditions":[1.92062492370605469e+01,-2.29978501796722412e-01,1.95919151306152344e+01,3.17060887813568115e-01,-1.98818415403366089e-01],"split_indices":[0,0,1,0,0],"sum_hessian":[1.72283153533935547e+01,5.69722223281860352e+00,1.15310935974121094e+01,6.96656417846679688e+00,4.56452941894531250e+00],"tree_param":{"num_feature":"13","num_nodes":"5","size_leaf_vector":"0"}},{"base_weights":[-1.74380280077457428e-02,2.19593375921249390e-01,-4.11647498607635498e-01,-3.27490657567977905e-01,5.98321557044982910e-01],"default_left":[true,true,false,false,false],"id":11,"leaf_child_counts":[1,2,0,0,0],"left_children":[1,3,-1,-1,-1],"loss_changes":[1.59433388710021973e+00,2.41368603706359863e+00,0.00000000000000000e+00,0.00000000000000000e+00,0.00000000000000000e+00],"parents":[2147483647,0,0,1,1],"right_children":[2,4,-1,-1,-1],"split_conditions":[1.89469451904296875e+01,1.94337501525878906e+01,-2.05823749303817749e-01,-1.63745328783988953e-01,2.99160778522491455e-01],"split_indices":[12,0,0,0,0],"sum_hessian":[1.50952310562133789e+01,9.70358467102050781e+00,5.39164638519287109e+00,4.02485322952270508e+00,5.67873096466064453e+00],"tree_param":{"num_feature":"13","num_nodes":"5","size_leaf_vector":"0"}},{"base_weights":[1.15921042859554291e-01,5.32933056354522705e-01,-3.63151937723159790e-01],"default_left":[true,false,false],"id":12,"leaf_child_counts":[2,0,0],"left_children":[1,-1,-1],"loss_changes":[3.39996504783630371e+00,0.00000000000000000e+00,0.00000000000000000e+00],"parents":[2147483647,0,0],"right_children":[2,-1,-1],"split_conditions":[2.00649986267089844e+01,2.66466528177261353e-01,-1.81575968861579895e-01],"split_indices":[7,0,0],"sum_hessian":[1.50498695373535156e+01,7.98599004745483398e+00,7.06387901306152344e+00],"tree_param":{"num_feature":"13","num_nodes":"3","size_leaf_vector":"0"}},{"base_weights":[-4.84851710498332977e-02,-3.04045200347900391e-01,3.36359918117523193e-01,-7.23694503307342529e-01,9.20393615961074829e-02],"default_left":[false,false,false,false,false],"id":13,"leaf_child_counts":[1,2,0,0,0],"left_children":[1,3,-1,-1,-1],"loss_changes":[1.69261217117309570e+00,1.76907801628112793e+00,0.00000000000000000e+00,0.00000000000000000e+00,0.00000000000000000e+00],"parents":[2147483647,0,0,1,1],"right_children":[2,4,-1,-1,-1],"split_conditions":[1.99223098754882812e+01,7.04736709594726562e-02,1.68179959058761597e-01,-3.61847251653671265e-01,4.60196807980537415e-02],"split_indices":[12,4,0,0,0],"sum_hessian":[1.51700754165649414e+01,9.24247646331787109e+00,5.92759943008422852e+00,4.08612728118896484e+00,5.15634870529174805e+00],"tree_param":{"num_feature":"13","num_nodes":"5","size_leaf_vector":"0"}},{"base_weights":[-2.58067231625318527e-02,-2.80676513910293579e-01,3.31879466772079468e-01,-6.51741027832031250e-01,1.15902163088321686e-01],"default_left":[true,true,false,false,false],"id":14,"leaf_child_counts":[1,2,0,0,0],"left_children":[1,3,-1,-1,-1],"loss_changes":[1.55490326881408691e+00,1.53307402133941650e+00,0.00000000000000000e+00,0.00000000000000000e+00,0.00000000000000000e+00],"parents":[2147483647,0,0,1,1],"right_children":[2,4,-1,-1,-1],"split_conditions":[3.02903771400451660e+00,1.73723793029785156e+01,1.65939733386039734e-01,-3.25870513916015625e-01,5.79510815441608429e-02],"split_indices":[10,12,0,0,0],"sum_hessian":[1.50344228744506836e+01,8.90467929840087891e+00,6.12974262237548828e+00,4.26792526245117188e+00,4.63675451278686523e+00],"tree_param":{"num_feature":"13","num_nodes":"5","size_leaf_vector":"0"}},{"base_weights":[-6.22177422046661377e-02,-2.19140544533729553e-01,1.92584261298179626e-01,-4.82082396745681763e-01,4.77907694876194000e-02],"default_left":[false,true,false,false,false],"id":15,"leaf_child_counts":[1,2,0,0,0],"left_children":[1,3,-1,-1,-1],"loss_changes":[6.45417273044586182e-01,7.11165666580200195e-01,0.00000000000000000e+00,0.00000000000000000e+00,0.00000000000000000e+00],"parents":[2147483647,0,0,1,1],"right_children":[2,4,-1,-1,-1],"split_conditions":[1.99006690979003906e+01,1.96008491516113281e+01,9.62921306490898132e-02,-2.41041198372840881e-01,2.38953847438097000e-02],"split_indices":[12,0,0,0,0],"sum_hessian":[1.40862989425659180e+01,8.80412960052490234e+00,5.28216934204101562e+00,4.02916574478149414e+00,4.77496385574340820e+00],"tree_param":{"num_feature":"13","num_nodes":"5","size_leaf_vector":"0"}},{"base_weights":[-3.04233878850936890e-02,-3.59702378511428833e-01,2.78881818056106567e-01],"default_left":[true,false,false],"id":16,"leaf_child_counts":[2,0,0],"left_children":[1,-1,-1],"loss_changes":[1.62810933589935303e+00,0.00000000000000000e+00,0.00000000000000000e+00],"parents":[2147483647,0,0],"right_children":[2,-1,-1],"split_conditions":[9.68500018119812012e-01,-1.79851189255714417e-01,1.39440909028053284e-01],"split_indices":[8,0,0],"sum_hessian":[1.40007781982421875e+01,6.70250940322875977e+00,7.29826927185058594e+00],"tree_param":{"num_feature":"13","num_nodes":"3","size_leaf_vector":"0"}},{"base_weights":[-3.07321199215948582e-03,-2.13469713926315308e-01,3.28703343868255615e-01,1.09831288456916809e-01,-5.24587690830230713e-01],"default_left":[true,true,false,false,false],"id":17,"leaf_child_counts":[1,2,0,0,0],"left_children":[1,3,-1,-1,-1],"loss_changes":[1.11281788349151611e+00,1.03797578811645508e+00,0.00000000000000000e+00,0.00000000000000000e+00,0.00000000000000000e+00],"parents":[2147483647,0,0,1,1],"right_children":[2,4,-1,-1,-1],"split_conditions":[1.80523529052734375e+01,1.97397499084472656e+01,1.64351671934127808e-01,5.49156442284584045e-02,-2.62293845415115356e-01],"split_indices":[11,7,0,0,0],"sum_hessian":[1.39366836547851562e+01,8.74660205841064453e+00,5.19008207321166992e+00,4.60659599304199219e+00,4.14000606536865234e+00],"tree_param":{"num_feature":"13","num_nodes":"5","size_leaf_vector":"0"}},{"base_weights":[-1.93235278129577637e-02,1.76752611994743347e-01,-4.08756077289581299e-01,-1.98205292224884033e-01,4.48798596858978271e-01],"default_left":[true,true,false,false,false],"id":18,"leaf_child_counts":[1,2,0,0,0],"left_children":[1,3,-1,-1,-1],"loss_changes":[1.17895328998565674e+00,1.14349484443664551e+00,0.00000000000000000e+00,0.00000000000000000e+00,0.00000000000000000e+00],"parents":[2147483647,0,0,1,1],"right_children":[2,4,-1,-1,-1],"split_conditions":[2.97002315521240234e+00,8.05662155151367188e+00,-2.04378038644790649e-01,-9.91026461124420166e-02,2.24399298429489136e-01],"split_indices":[5,11,0,0,0],"sum_hessian":[1.34935483932495117e+01,9.33804607391357422e+00,4.15550279617309570e+00,4.04049921035766602e+00,5.29754686355590820e+00],"tree_param":{"num_feature":"13","num_nodes":"5","size_leaf_vector":"0"}},{"base_weights":[2.32338402420282364e-02,2.56572097539901733e-01,-2.30198368430137634e-01],"default_left":[true,false,false],"id":19,"leaf_child_counts":[2,0,0],"left_children":[1,-1,-1],"loss_changes":[9.13318514823913574e-01,0.00000000000000000e+00,0.00000000000000000e+00],"parents":[2147483647,0,0],"right_children":[2,-1,-1],"split_conditions":[2.16801548004150391e+00,1.28286048769950867e-01,-1.15099184215068817e-01],"split_indices":[6,0,0],"sum_hessian":[1.34457550048828125e+01,6.99394845962524414e+00,6.45180654525756836e+00],"tree_param":{"num_feature":"13","num_nodes":"3","size_leaf_vector":"0"}},{"base_weights":[1.51312008500099182e-01,-2.23180085420608521e-01,4.81785535812377930e-01],"default_left":[false,false,false],"id":20,"leaf_child_counts":[2,0,0],"left_children":[1,-1,-1],"loss_changes":[1.81936323642730713e+00,0.00000000000000000e+00,0.00000000000000000e+00],"parents":[2147483647,0,0],"right_children":[2,-1,-1],"split_conditions":[1.80523529052734375e+01,-1.11590042710304260e-01,2.40892767906188965e-01],"split_indices":[11,0,0],"sum_hessian":[1.28319501876831055e+01,6.16755342483520508e+00,6.66439628601074219e+00],"tree_param":{"num_feature":"13","num_nodes":"3","size_leaf_vector":"0"}},{"base_weights":[-3.93606163561344147e-02,1.31143659353256226e-01,-3.17998498678207397e-01,-1.52316808700561523e-01,3.91276687383651733e-01],"default_left":[true,true,false,false,false],"id":21,"leaf_child_counts":[1,2,0,0,0],"left_children":[1,3,-1,-1,-1],"loss_changes":[7.76003301143646240e-01,8.18842351436614990e-01,0.00000000000000000e+00,0.00000000000000000e+00,0.00000000000000000e+00],"parents":[2147483647,0,0,1,1],"right_children":[2,4,-1,-1,-1],"split_conditions":[1.95176124572753906e+01,2.95818281173706055e+00,-1.58999249339103699e-01,-7.61584043502807617e-02,1.95638343691825867e-01],"split_indices":[1,5,0,0,0],"sum_hessian":[1.44560308456420898e+01,9.29659366607666016e+00,5.15943717956542969e+00,4.64716243743896484e+00,4.64943122863769531e+00],"tree_param":{"num_feature":"13","num_nodes":"5","size_leaf_vector":"0"}},{"base_weights":[-5.39185330271720886e-02,1.71789556741714478e-01,-3.64757955074310303e-01],"default_left":[true,false,false],"id":22,"leaf_child_counts":[2,0,0],"left_children":[1,-1,-1],"loss_changes":[1.01896286010742188e+00,0.00000000000000000e+00,0.00000000000000000e+00],"parents":[2147483647,0,0],"right_children":[2,-1,-1],"split_conditions":[2.02864990234375000e+01,8.58947783708572388e-02,-1.82378977537155151e-01],"split_indices":[7,0,0],"sum_hessian":[1.26304912567138672e+01,7.57641077041625977e+00,5.05408048629760742e+00],"tree_param":{"num_feature":"13","num_nodes":"3","size_leaf_vector":"0"}},{"base_weights":[8.89645423740148544e-03,4.09093946218490601e-01,-2.19180211424827576e-01,-4.48704630136489868e-01,6.14286139607429504e-02],"default_left":[false,false,true,false,false],"id":23,"leaf_child_counts":[1,0,2,0,0],"left_children":[1,-1,3,-1,-1],"loss_changes":[1.32753396034240723e+00,0.00000000000000000e+00,6.25885128974914551e-01,0.00000000000000000e+00,0.00000000000000000e+00],"parents":[2147483647,0,0,2,2],"right_children":[2,-1,4,-1,-1],"split_conditions":[-3.46612930297851562e-02,2.04546973109245300e-01,1.47729501128196716e-01,-2.24352315068244934e-01,3.07143069803714752e-02],"split_indices":[4,0,9,0,0],"sum_hessian":[1.25618638992309570e+01,4.27210092544555664e+00,8.28976249694824219e+00,4.23043346405029297e+00,4.05932950973510742e+00],"tree_param":{"num_feature":"13","num_nodes":"5","size_leaf_vector":"0"}},{"base_weights":[1.12660586833953857e-01,3.89629483222961426e-01,-1.28060892224311829e-01],"default_left":[true,false,false],"id":24,"leaf_child_counts":[2,0,0],"left_children":[1,-1,-1],"loss_changes":[9.17843759059906006e-01,0.00000000000000000e+00,0.00000000000000000e+00],"parents":[2147483647,0,0],"right_children":[2,-1,-1],"split_conditions":[3.04723978042602539e+00,1.94814741611480713e-01,-6.40304461121559143e-02],"split_indices":[2,0,0],"sum_hessian":[1.20180997848510742e+01,5.30067205429077148e+00,6.71742820739746094e+00],"tree_param":{"num_feature":"13","num_nodes":"3","size_leaf_vector":"0"}},{"base_weights":[-3.36144454777240753e-02,-2.58928775787353516e-01,2.06283435225486755e-01],"default_left":[false,false,false],"id":25,"leaf_child_counts":[2,0,0],"left_children":[1,-1,-1],"loss_changes":[8.23903918266296387e-01,0.00000000000000000e+00,0.00000000000000000e+00],"parents":[2147483647,0,0],"right_children":[2,-1,-1],"split_conditions":[3.01859426498413086e+00,-1.29464387893676758e-01,1.03141717612743378e-01],"split_indices":[10,0,0],"sum_hessian":[1.32545156478881836e+01,6.79410266876220703e+00,6.46041297912597656e+00],"tree_param":{"num_feature":"13","num_nodes":"3","size_leaf_vector":"0"}},{"base_weights":[3.07892654091119766e-02,3.73702228069305420e-01,-1.54121756553649902e-01,1.84922471642494202e-01,-4.82715964317321777e-01],"default_left":[true,false,true,false,false],"id":26,"leaf_child_counts":[1,0,2,0,0],"left_children":[1,-1,3,-1,-1],"loss_changes":[9.34835016727447510e-01,0.00000000000000000e+00,1.16948449611663818e+00,0.00000000000000000e+00,0.00000000000000000e+00],"parents":[2147483647,0,0,2,2],"right_children":[2,-1,4,-1,-1],"split_conditions":[2.89098358154296875e+00,1.86851114034652710e-01,1.86851806640625000e+01,9.24612358212471008e-02,-2.41357982158660889e-01],"split_indices":[5,0,12,0,0],"sum_hessian":[1.28347539901733398e+01,4.13868331909179688e+00,8.69607067108154297e+00,4.49517250061035156e+00,4.20089769363403320e+00],"tree_param":{"num_feature":"13","num_nodes":"5","size_leaf_vector":"0"}},{"base_weights":[-3.31027843058109283e-02,-2.32987821102142334e-01,1.62459179759025574e-01],"default_left":[true,false,false],"id":27,"leaf_child_counts":[2,0,0],"left_children":[1,-1,-1],"loss_changes":[5.78038573265075684e-01,0.00000000000000000e+00,0.00000000000000000e+00],"parents":[2147483647,0,0],"right_children":[2,-1,-1],"split_conditions":[9.68500018119812012e-01,-1.16493910551071167e-01,8.12295898795127869e-02],"split_indices":[8,0,0],"sum_hessian":[1.28191061019897461e+01,6.24484109878540039e+00,6.57426452636718750e+00],"tree_param":{"num_feature":"13","num_nodes":"3","size_leaf_vector":"0"}},{"base_weights":[-3.26508022844791412e-02,-1.94664418697357178e-01,2.64973402023315430e-01,-5.85476402193307877e-03,-3.45964938402175903e-01],"default_left":[true,true,false,false,false],"id":28,"leaf_child_counts":[1,2,0,0,0],"left_children":[1,3,-1,-1,-1],"loss_changes":[6.82019710540771484e-01,2.56289571523666382e-01,0.00000000000000000e+00,0.00000000000000000e+00,0.00000000000000000e+00],"parents":[2147483647,0,0,1,1],"right_children":[2,4,-1,-1,-1],"split_conditions":[2.00733489990234375e+01,1.04788913726806641e+01,1.32486701011657715e-01,-2.92738201096653938e-03,-1.72982469201087952e-01],"split_indices":[0,11,0,0,0],"sum_hessian":[1.20744409561157227e+01,8.04243087768554688e+00,4.03200960159301758e+00,4.03980636596679688e+00,4.00262498855590820e+00],"tree_param":{"num_feature":"13","num_nodes":"5","size_leaf_vector":"0"}},{"base_weights":[-1.12054385244846344e-02,1.20625548064708710e-01,-2.58921265602111816e-01,-2.31394544243812561e-01,4.09673631191253662e-01],"default_left":[true,true,false,false,false],"id":29,"leaf_child_counts":[1,2,0,0,0],"left_children":[1,3,-1,-1,-1],"loss_changes":[4.97856646776199341e-01,1.11311233043670654e+00,0.00000000000000000e+00,0.00000000000000000e+00,0.00000000000000000e+00],"parents":[2147483647,0,0,1,1],"right_children":[2,4,-1,-1,-1],"split_conditions":[1.95176124572753906e+01,1.90658493041992188e+01,-1.29460632801055908e-01,-1.15697272121906281e-01,2.04836815595626831e-01],"split_indices":[1,0,0,0,0],"sum_hessian":[1.32888059616088867e+01,9.00794792175292969e+00,4.28085803985595703e+00,4.15148305892944336e+00,4.85646486282348633e+00],"tree_param":{"num_feature":"13","num_nodes":"5","size_leaf_vector":"0"}},{"base_weights":[-3.91942486166954041e-02,1.19564957916736603e-01,-2.80241012573242188e-01],"default_left":[false,false,false],"id":30,"leaf_child_counts":[2,0,0],"left_children":[1,-1,-1],"loss_changes":[5.31864523887634277e-01,0.00000000000000000e+00,0.00000000000000000e+00],"parents":[2147483647,0,0],"right_children":[2,-1,-1],"split_conditions":[2.84683456420898438e+01,5.97824789583683014e-02,-1.40120506286621094e-01],"split_indices":[11,0,0],"sum_hessian":[1.20226926803588867e+01,7.55244588851928711e+00,4.47024631500244141e+00],"tree_param":{"num_feature":"13","num_nodes":"3","size_leaf_vector":"0"}},{"base_weights":[2.62467395514249802e-02,-1.41780361533164978e-01,2.66084432601928711e-01],"default_left":[false,false,false],"id":31,"leaf_child_counts":[2,0,0],"left_children":[1,-1,-1],"loss_changes":[5.83396315574645996e-01,0.00000000000000000e+00,0.00000000000000000e+00],"parents":[2147483647,0,0],"right_children":[2,-1,-1],"split_conditions":[1.99006690979003906e+01,-7.08901807665824890e-02,1.33042216300964355e-01],"split_indices":[12,0,0],"sum_hessian":[1.25404748916625977e+01,7.61462116241455078e+00,4.92585420608520508e+00],"tree_param":{"num_feature":"13","num_nodes":"3","size_leaf_vector":"0"}},{"base_weights":[-2.79128979891538620e-02,-2.18486979603767395e-01,2.56929636001586914e-01],"default_left":[true,false,false],"id":32,"leaf_child_counts":[2,0,0],"left_children":[1,-1,-1],"loss_changes":[7.45698630809783936e-01,0.00000000000000000e+00,0.00000000000000000e+00],"parents":[2147483647,0,0],"right_children":[2,-1,-1],"split_conditions":[1.99688987731933594e+01,-1.09243489801883698e-01,1.28464818000793457e-01],"split_indices":[0,0,0],"sum_hessian":[1.17029666900634766e+01,7.15132379531860352e+00,4.55164241790771484e+00],"tree_param":{"num_feature":"13","num_nodes":"3","size_leaf_vector":"0"}},{"base_weights":[6.15524612367153168e-02,-1.82564646005630493e-01,2.84945458173751831e-01],"default_left":[true,false,false],"id":33,"leaf_child_counts":[2,0,0],"left_children":[1,-1,-1],"loss_changes":[7.66223669052124023e-01,0.00000000000000000e+00,0.00000000000000000e+00],"parents":[2147483647,0,0],"right_children":[2,-1,-1],"split_conditions":[9.68500018119812012e-01,-9.12823230028152466e-02,1.42472729086875916e-01],"split_indices":[8,0,0],"sum_hessian":[1.20964546203613281e+01,5.86744832992553711e+00,6.22900581359863281e+00],"tree_param":{"num_feature":"13","num_nodes":"3","size_leaf_vector":"0"}},{"base_weights":[2.34586633741855621e-02,2.37817466259002686e-01,-2.09035664796829224e-01],"default_left":[true,false,false],"id":34,"leaf_child_counts":[2,0,0],"left_children":[1,-1,-1],"loss_changes":[7.03974127769470215e-01,0.00000000000000000e+00,0.00000000000000000e+00],"parents":[2147483647,0,0],"right_children":[2,-1,-1],"split_conditions":[2.24931621551513672e+00,1.18908733129501343e-01,-1.04517832398414612e-01],"split_indices":[6,0,0],"sum_hessian":[1.21279792785644531e+01,6.29818439483642578e+00,5.82979536056518555e+00],"tree_param":{"num_feature":"13","num_nodes":"3","size_leaf_vector":"0"}},{"base_weights":[-9.24880616366863251e-03,1.75760388374328613e-01,-2.86595344543457031e-01],"default_left":[true,false,false],"id":35,"leaf_child_counts":[2,0,0],"left_children":[1,-1,-1],"loss_changes":[7.03549563884735107e-01,0.00000000000000000e+00,0.00000000000000000e+00],"parents":[2147483647,0,0],"right_children":[2,-1,-1],"split_conditions":[2.03924999237060547e+01,8.78801941871643066e-02,-1.43297672271728516e-01],"split_indices":[7,0,0],"sum_hessian":[1.17296123504638672e+01,7.25578451156616211e+00,4.47382736206054688e+00],"tree_param":{"num_feature":"13","num_nodes":"3","size_leaf_vector":"0"}},{"base_weights":[-6.87846764922142029e-02,-4.29659694433212280e-01,1.61784127354621887e-01],"default_left":[true,false,false],"id":36,"leaf_child_counts":[2,0,0],"left_children":[1,-1,-1],"loss_changes":[1.10005676746368408e+00,0.00000000000000000e+00,0.00000000000000000e+00],"parents":[2147483647,0,0],"right_children":[2,-1,-1],"split_conditions":[3.27799415588378906e+00,-2.14829847216606140e-01,8.08920636773109436e-02],"split_indices":[11,0,0],"sum_hessian":[1.13853816986083984e+01,4.10186529159545898e+00,7.28351640701293945e+00],"tree_param":{"num_feature":"13","num_nodes":"3","size_leaf_vector":"0"}},{"base_weights":[-2.79946085065603256e-02,1.58603787422180176e-01,-2.44908273220062256e-01],"default_left":[false,false,false],"id":37,"leaf_child_counts":[2,0,0],"left_children":[1,-1,-1],"loss_changes":[5.30201852321624756e-01,0.00000000000000000e+00,0.00000000000000000e+00],"parents":[2147483647,0,0],"right_children":[2,-1,-1],"split_conditions":[4.31861490011215210e-01,7.93018937110900879e-02,-1.22454136610031128e-01],"split_indices":[9,0,0],"sum_hessian":[1.11395807266235352e+01,6.13274669647216797e+00,5.00683450698852539e+00],"tree_param":{"num_feature":"13","num_nodes":"3","size_leaf_vector":"0"}},{"base_weights":[2.71804202347993851e-02,2.28799104690551758e-01,-2.41217598319053650e-01],"default_left":[false,false,false],"id":38,"leaf_child_counts":[2,0,0],"left_children":[1,-1,-1],"loss_changes":[7.31884598731994629e-01,0.00000000000000000e+00,0.00000000000000000e+00],"parents":[2147483647,0,0],"right_children":[2,-1,-1],"split_conditions":[2.42186546325683594e-01,1.14399552345275879e-01,-1.20608799159526825e-01],"split_indices":[4,0,0],"sum_hessian":[1.15049619674682617e+01,6.65403556823730469e+00,4.85092639923095703e+00],"tree_param":{"num_feature":"13","num_nodes":"3","size_leaf_vector":"0"}},{"base_weights":[-2.51294914633035660e-02,-2.40925595164299011e-01,1.85121595859527588e-01],"default_left":[false,false,false],"id":39,"leaf_child_counts":[2,0,0],"left_children":[1,-1,-1],"loss_changes":[6.21736884117126465e-01,0.00000000000000000e+00,0.00000000000000000e+00],"parents":[2147483647,0,0],"right_children":[2,-1,-1],"split_conditions":[3.01118874549865723e+00,-1.20462797582149506e-01,9.25607979297637939e-02],"split_indices":[10,0,0],"sum_hessian":[1.17202777862548828e+01,5.71187114715576172e+00,6.00840663909912109e+00],"tree_param":{"num_feature":"13","num_nodes":"3","size_leaf_vector":"0"}},{"base_weights":[6.22498840093612671e-02,3.01590263843536377e-01,-9.53700244426727295e-02],"default_left":[true,false,false],"id":40,"leaf_child_counts":[2,0,0],"left_children":[1,-1,-1],"loss_changes":[5.04030227661132812e-01,0.00000000000000000e+00,0.00000000000000000e+00],"parents":[2147483647,0,0],"right_children":[2,-1,-1],"split_conditions":[2.35207993537187576e-02,1.50795131921768188e-01,-4.76850122213363647e-02],"split_indices":[9,0,0],"sum_hessian":[1.15982770919799805e+01,4.24261331558227539e+00,7.35566377639770508e+00],"tree_param":{"num_feature":"13","num_nodes":"3","size_leaf_vector":"0"}},{"base_weights":[-3.28695774078369141e-02,1.05691507458686829e-01,-2.48167708516120911e-01],"default_left":[true,false,false],"id":41,"leaf_child_counts":[2,0,0],"left_children":[1,-1,-1],"loss_changes":[3.91298919916152954e-01,0.00000000000000000e+00,0.00000000000000000e+00],"parents":[2147483647,0,0],"right_children":[2,-1,-1],"split_conditions":[1.89469451904296875e+01,5.28457537293434143e-02,-1.24083854258060455e-01],"split_indices":[12,0,0],"sum_hessian":[1.12375440597534180e+01,7.14699125289916992e+00,4.09055233001708984e+00],"tree_param":{"num_feature":"13","num_nodes":"3","size_leaf_vector":"0"}},{"base_weights":[8.22129473090171814e-02,-1.12206630408763885e-01,3.55699330568313599e-01],"default_left":[false,false,false],"id":42,"leaf_child_counts":[2,0,0],"left_children":[1,-1,-1],"loss_changes":[6.89665675163269043e-01,0.00000000000000000e+00,0.00000000000000000e+00],"parents":[2147483647,0,0],"right_children":[2,-1,-1],"split_conditions":[1.99006690979003906e+01,-5.61033152043819427e-02,1.77849665284156799e-01],"split_indices":[12,0,0],"sum_hessian":[1.12200555801391602e+01,6.90269517898559570e+00,4.31736087799072266e+00],"tree_param":{"num_feature":"13","num_nodes":"3","size_leaf_vector":"0"}},{"base_weights":[1.85741651803255081e-02,-2.48753756284713745e-01,2.00970977544784546e-01],"default_left":[true,false,false],"id":43,"leaf_child_counts":[2,0,0],"left_children":[1,-1,-1],"loss_changes":[6.41654014587402344e-01,0.00000000000000000e+00,0.00000000000000000e+00],"parents":[2147483647,0,0],"right_children":[2,-1,-1],"split_conditions":[9.50999975204467773e-01,-1.24376878142356873e-01,1.00485488772392273e-01],"split_indices":[8,0,0],"sum_hessian":[1.11342201232910156e+01,4.36820411682128906e+00,6.76601648330688477e+00],"tree_param":{"num_feature":"13","num_nodes":"3","size_leaf_vector":"0"}},{"base_weights":[-2.95309703797101974e-02,-3.38712453842163086e-01,2.20720022916793823e-01],"default_left":[true,false,false],"id":44,"leaf_child_counts":[2,0,0],"left_children":[1,-1,-1],"loss_changes":[9.74600911140441895e-01,0.00000000000000000e+00,0.00000000000000000e+00],"parents":[2147483647,0,0],"right_children":[2,-1,-1],"split_conditions":[4.33958508074283600e-02,-1.69356226921081543e-01,1.10360011458396912e-01],"split_indices":[9,0,0],"sum_hessian":[1.06299047470092773e+01,4.59694910049438477e+00,6.03295516967773438e+00],"tree_param":{"num_feature":"13","num_nodes":"3","size_leaf_vector":"0"}},{"base_weights":[2.85538285970687866e-02,2.33495339751243591e-01,-2.13292628526687622e-01],"default_left":[false,false,false],"id":45,"leaf_child_counts":[2,0,0],"left_children":[1,-1,-1],"loss_changes":[6.25269472599029541e-01,0.00000000000000000e+00,0.00000000000000000e+00],"parents":[2147483647,0,0],"right_children":[2,-1,-1],"split_conditions":[1.94344825744628906e+01,1.16747669875621796e-01,-1.06646314263343811e-01],"split_indices":[12,0,0],"sum_hessian":[1.06104888916015625e+01,5.76215171813964844e+00,4.84833669662475586e+00],"tree_param":{"num_feature":"13","num_nodes":"3","size_leaf_vector":"0"}},{"base_weights":[3.22849792428314686e-03,-2.25405350327491760e-01,2.13125854730606079e-01],"default_left":[true,false,false],"id":46,"leaf_child_counts":[2,0,0],"left_children":[1,-1,-1],"loss_changes":[6.28411829471588135e-01,0.00000000000000000e+00,0.00000000000000000e+00],"parents":[2147483647,0,0],"right_children":[2,-1,-1],"split_conditions":[1.96628456115722656e+01,-1.12702675163745880e-01,1.06562927365303040e-01],"split_indices":[0,0,0],"sum_hessian":[1.10936946868896484e+01,5.27449178695678711e+00,5.81920289993286133e+00],"tree_param":{"num_feature":"13","num_nodes":"3","size_leaf_vector":"0"}},{"base_weights":[9.55251455307006836e-02,2.57533341646194458e-01,-1.51799291372299194e-01],"default_left":[true,false,false],"id":47,"leaf_child_counts":[2,0,0],"left_children":[1,-1,-1],"loss_changes":[5.04064798355102539e-01,0.00000000000000000e+00,0.00000000000000000e+00],"parents":[2147483647,0,0],"right_children":[2,-1,-1],"split_conditions":[1.89469451904296875e+01,1.28766670823097229e-01,-7.58996456861495972e-02],"split_indices":[12,0,0],"sum_hessian":[1.06043882369995117e+01,6.38237762451171875e+00,4.22201061248779297e+00],"tree_param":{"num_feature":"13","num_nodes":"3","size_leaf_vector":"0"}},{"base_weights":[-5.81224560737609863e-02,-2.20843002200126648e-01,1.85444638133049011e-01],"default_left":[false,false,false],"id":48,"leaf_child_counts":[2,0,0],"left_children":[1,-1,-1],"loss_changes":[5.13457953929901123e-01,0.00000000000000000e+00,0.00000000000000000e+00],"parents":[2147483647,0,0],"right_children":[2,-1,-1],"split_conditions":[1.99006690979003906e+01,-1.10421501100063324e-01,9.27223190665245056e-02],"split_indices":[12,0,0],"sum_hessian":[1.09218683242797852e+01,6.60352754592895508e+00,4.31834030151367188e+00],"tree_param":{"num_feature":"13","num_nodes":"3","size_leaf_vector":"0"}},{"base_weights":[-1.00493244826793671e-01,-3.33079785108566284e-01,1.21791444718837738e-01],"default_left":[true,false,false],"id":49,"leaf_child_counts":[2,0,0],"left_children":[1,-1,-1],"loss_changes":[6.53076946735382080e-01,0.00000000000000000e+00,0.00000000000000000e+00],"parents":[2147483647,0,0],"right_children":[2,-1,-1],"split_conditions":[1.76018066406250000e+01,-1.66539892554283142e-01,6.08957223594188690e-02],"split_indices":[12,0,0],"sum_hessian":[1.08473033905029297e+01,5.05724334716796875e+00,5.79006052017211914e+00],"tree_param":{"num_feature":"13","num_nodes":"3","size_leaf_vector":"0"}},{"base_weights":[2.55394726991653442e-02,2.64829307794570923e-01,-2.33834639191627502e-01],"default_left":[true,false,false],"id":50,"leaf_child_counts":[2,0,0],"left_children":[1,-1,-1],"loss_changes":[7.59291589260101318e-01,0.00000000000000000e+00,0.00000000000000000e+00],"parents":[2147483647,0,0],"right_children":[2,-1,-1],"split_conditions":[2.24931621551513672e+00,1.32414653897285461e-01,-1.16917319595813751e-01],"split_indices":[6,0,0],"sum_hessian":[1.02359418869018555e+01,5.31316375732421875e+00,4.92277860641479492e+00],"tree_param":{"num_feature":"13","num_nodes":"3","size_leaf_vector":"0"}},{"base_weights":[-4.92557957768440247e-02,9.02284607291221619e-02,-2.45868563652038574e-01],"default_left":[true,false,false],"id":51,"leaf_child_counts":[2,0,0],"left_children":[1,-1,-1],"loss_changes":[3.44872355461120605e-01,0.00000000000000000e+00,0.00000000000000000e+00],"parents":[2147483647,0,0],"right_children":[2,-1,-1],"split_conditions":[2.03924999237060547e+01,4.51142303645610809e-02,-1.22934281826019287e-01],"split_indices":[7,0,0],"sum_hessian":[1.07664623260498047e+01,6.61478137969970703e+00,4.15168142318725586e+00],"tree_param":{"num_feature":"13","num_nodes":"3","size_leaf_vector":"0"}},{"base_weights":[1.54439583420753479e-02,2.35131233930587769e-01,-1.30035534501075745e-01],"default_left":[true,false,false],"id":52,"leaf_child_counts":[2,0,0],"left_children":[1,-1,-1],"loss_changes":[4.06199872493743896e-01,0.00000000000000000e+00,0.00000000000000000e+00],"parents":[2147483647,0,0],"right_children":[2,-1,-1],"split_conditions":[2.95833013951778412e-02,1.17565616965293884e-01,-6.50177672505378723e-02],"split_indices":[9,0,0],"sum_hessian":[1.07529573440551758e+01,4.03838253021240234e+00,6.71457481384277344e+00],"tree_param":{"num_feature":"13","num_nodes":"3","size_leaf_vector":"0"}},{"base_weights":[5.26226125657558441e-02,2.19601839780807495e-01,-2.33619511127471924e-01],"default_left":[true,false,false],"id":53,"leaf_child_counts":[2,0,0],"left_children":[1,-1,-1],"loss_changes":[6.40532493591308594e-01,0.00000000000000000e+00,0.00000000000000000e+00],"parents":[2147483647,0,0],"right_children":[2,-1,-1],"split_conditions":[1.95069999694824219e+01,1.09800919890403748e-01,-1.16809755563735962e-01],"split_indices":[1,0,0],"sum_hessian":[1.13278760910034180e+01,7.30141162872314453e+00,4.02646446228027344e+00],"tree_param":{"num_feature":"13","num_nodes":"3","size_leaf_vector":"0"}},{"base_weights":[-9.25803110003471375e-02,8.67043137550354004e-02,-2.49498590826988220e-01],"default_left":[true,false,false],"id":54,"leaf_child_counts":[2,0,0],"left_children":[1,-1,-1],"loss_changes":[3.44497203826904297e-01,0.00000000000000000e+00,0.00000000000000000e+00],"parents":[2147483647,0,0],"right_children":[2,-1,-1],"split_conditions":[6.23214304447174072e-01,4.33521568775177002e-02,-1.24749295413494110e-01],"split_indices":[3,0,0],"sum_hessian":[1.04763517379760742e+01,5.09854316711425781e+00,5.37780809402465820e+00],"tree_param":{"num_feature":"13","num_nodes":"3","size_leaf_vector":"0"}},{"base_weights":[-1.21883591637015343e-02,-1.72175347805023193e-01,1.22737653553485870e-01],"default_left":[true,false,false],"id":55,"leaf_child_counts":[2,0,0],"left_children":[1,-1,-1],"loss_changes":[2.71525710821151733e-01,0.00000000000000000e+00,0.00000000000000000e+00],"parents":[2147483647,0,0],"right_children":[2,-1,-1],"split_conditions":[5.21041527390480042e-02,-8.60876739025115967e-02,6.13688267767429352e-02],"split_indices":[9,0,0],"sum_hessian":[1.05995836257934570e+01,4.72312211990356445e+00,5.87646102905273438e+00],"tree_param":{"num_feature":"13","num_nodes":"3","size_leaf_vector":"0"}},{"base_weights":[5.40995486080646515e-02,1.80620267987251282e-01,-1.42948582768440247e-01],"default_left":[true,false,false],"id":56,"leaf_child_counts":[2,0,0],"left_children":[1,-1,-1],"loss_changes":[3.25218111276626587e-01,0.00000000000000000e+00,0.00000000000000000e+00],"parents":[2147483647,0,0],"right_children":[2,-1,-1],"split_conditions":[-3.46612930297851562e-02,9.03101339936256409e-02,-7.14742913842201233e-02],"split_indices":[4,0,0],"sum_hessian":[1.10092515945434570e+01,6.75522470474243164e+00,4.25402688980102539e+00],"tree_param":{"num_feature":"13","num_nodes":"3","size_leaf_vector":"0"}},{"base_weights":[6.14709779620170593e-03,-1.73756286501884460e-01,2.26505547761917114e-01],"default_left":[true,false,false],"id":57,"leaf_child_counts":[2,0,0],"left_children":[1,-1,-1],"loss_changes":[4.81816142797470093e-01,0.00000000000000000e+00,0.00000000000000000e+00],"parents":[2147483647,0,0],"right_children":[2,-1,-1],"split_conditions":[6.78571343421936035e-01,-8.68781432509422302e-02,1.13252773880958557e-01],"split_indices":[3,0,0],"sum_hessian":[1.01610317230224609e+01,5.71044063568115234e+00,4.45059156417846680e+00],"tree_param":{"num_feature":"13","num_nodes":"3","size_leaf_vector":"0"}},{"base_weights":[1.47883426398038864e-02,-2.41854295134544373e-01,2.66511589288711548e-01],"default_left":[false,false,false],"id":58,"leaf_child_counts":[2,0,0],"left_children":[1,-1,-1],"loss_changes":[8.02723944187164307e-01,0.00000000000000000e+00,0.00000000000000000e+00],"parents":[2147483647,0,0],"right_children":[2,-1,-1],"split_conditions":[3.01859426498413086e+00,-1.20927147567272186e-01,1.33255794644355774e-01],"split_indices":[10,0,0],"sum_hessian":[1.04277648925781250e+01,5.18284177780151367e+00,5.24492359161376953e+00],"tree_param":{"num_feature":"13","num_nodes":"3","size_leaf_vector":"0"}},{"base_weights":[-2.51069683581590652e-02,1.51538550853729248e-01,-2.24431738257408142e-01],"default_left":[true,false,false],"id":59,"leaf_child_counts":[2,0,0],"left_children":[1,-1,-1],"loss_changes":[4.31685954332351685e-01,0.00000000000000000e+00,0.00000000000000000e+00],"parents":[2147483647,0,0],"right_children":[2,-1,-1],"split_conditions":[2.24931621551513672e+00,7.57692754268646240e-02,-1.12215869128704071e-01],"split_indices":[6,0,0],"sum_hessian":[1.02944574356079102e+01,5.58482074737548828e+00,4.70963668823242188e+00],"tree_param":{"num_feature":"13","num_nodes":"3","size_leaf_vector":"0"}},{"base_weights":[5.77462948858737946e-02,2.13165029883384705e-01,-1.35357603430747986e-01],"default_left":[false,false,false],"id":60,"leaf_child_counts":[2,0,0],"left_children":[1,-1,-1],"loss_changes":[3.70786249637603760e-01,0.00000000000000000e+00,0.00000000000000000e+00],"parents":[2147483647,0,0],"right_children":[2,-1,-1],"split_conditions":[2.42186546325683594e-01,1.06582514941692352e-01,-6.76788017153739929e-02],"split_indices":[4,0,0],"sum_hessian":[1.03932151794433594e+01,5.70094728469848633e+00,4.69226741790771484e+00],"tree_param":{"num_feature":"13","num_nodes":"3","size_leaf_vector":"0"}},{"base_weights":[-7.16005042195320129e-02,4.79024313390254974e-02,-2.30753436684608459e-01],"default_left":[true,false,false],"id":61,"leaf_child_counts":[2,0,0],"left_children":[1,-1,-1],"loss_changes":[2.25812524557113647e-01,0.00000000000000000e+00,0.00000000000000000e+00],"parents":[2147483647,0,0],"right_children":[2,-1,-1],"split_conditions":[1.86057033538818359e+01,2.39512156695127487e-02,-1.15376718342304230e-01],"split_indices":[12,0,0],"sum_hessian":[1.02916622161865234e+01,6.27727222442626953e+00,4.01438999176025391e+00],"tree_param":{"num_feature":"13","num_nodes":"3","size_leaf_vector":"0"}},{"base_weights":[7.80946984887123108e-02,-1.13080710172653198e-01,2.49330237507820129e-01],"default_left":[true,false,false],"id":62,"leaf_child_counts":[2,0,0],"left_children":[1,-1,-1],"loss_changes":[4.07495081424713135e-01,0.00000000000000000e+00,0.00000000000000000e+00],"parents":[2147483647,0,0],"right_children":[2,-1,-1],"split_conditions":[1.76018066406250000e+01,-5.65403550863265991e-02,1.24665118753910065e-01],"split_indices":[12,0,0],"sum_hessian":[1.05866432189941406e+01,5.16254949569702148e+00,5.42409372329711914e+00],"tree_param":{"num_feature":"13","num_nodes":"3","size_leaf_vector":"0"}},{"base_weights":[2.41254270076751709e-02,2.61957049369812012e-01,-1.84300675988197327e-01],"default_left":[true,false,false],"id":63,"leaf_child_counts":[2,0,0],"left_children":[1,-1,-1],"loss_changes":[6.07101380825042725e-01,0.00000000000000000e+00,0.00000000000000000e+00],"parents":[2147483647,0,0],"right_children":[2,-1,-1],"split_conditions":[3.04723978042602539e+00,1.30978524684906006e-01,-9.21503379940986633e-02],"split_indices":[2,0,0],"sum_hessian":[1.02733278274536133e+01,4.67823553085327148e+00,5.59509229660034180e+00],"tree_param":{"num_feature":"13","num_nodes":"3","size_leaf_vector":"0"}},{"base_weights":[-7.32122138142585754e-02,1.48297548294067383e-01,-3.15794289112091064e-01],"default_left":[true,false,false],"id":64,"leaf_child_counts":[2,0,0],"left_children":[1,-1,-1],"loss_changes":[5.92826187610626221e-01,0.00000000000000000e+00,0.00000000000000000e+00],"parents":[2147483647,0,0],"right_children":[2,-1,-1],"split_conditions":[2.02265014648437500e+01,7.41487741470336914e-02,-1.57897144556045532e-01],"split_indices":[7,0,0],"sum_hessian":[9.16100978851318359e+00,4.99164390563964844e+00,4.16936588287353516e+00],"tree_param":{"num_feature":"13","num_nodes":"3","size_leaf_vector":"0"}},{"base_weights":[-4.44262288510799408e-02,-1.92487373948097229e-01,9.55251529812812805e-02],"default_left":[true,false,false],"id":65,"leaf_child_counts":[2,0,0],"left_children":[1,-1,-1],"loss_changes":[2.54584252834320068e-01,0.00000000000000000e+00,0.00000000000000000e+00],"parents":[2147483647,0,0],"right_children":[2,-1,-1],"split_conditions":[9.68500018119812012e-01,-9.62436869740486145e-02,4.77625764906406403e-02],"split_indices":[8,0,0],"sum_hessian":[1.03987140655517578e+01,4.87054634094238281e+00,5.52816724777221680e+00],"tree_param":{"num_feature":"13","num_nodes":"3","size_leaf_vector":"0"}},{"base_weights":[3.10247782617807388e-02,-2.27125719189643860e-01,2.11030319333076477e-01],"default_left":[false,false,false],"id":66,"leaf_child_counts":[2,0,0],"left_children":[1,-1,-1],"loss_changes":[5.68702101707458496e-01,0.00000000000000000e+00,0.00000000000000000e+00],"parents":[2147483647,0,0],"right_children":[2,-1,-1],"split_conditions":[2.06142568588256836e+00,-1.13562859594821930e-01,1.05515159666538239e-01],"split_indices":[10,0,0],"sum_hessian":[1.02069778442382812e+01,4.08574151992797852e+00,6.12123632431030273e+00],"tree_param":{"num_feature":"13","num_nodes":"3","size_leaf_vector":"0"}},{"base_weights":[2.71895322948694229e-02,-1.92361742258071899e-01,2.22160756587982178e-01],"default_left":[true,false,false],"id":67,"leaf_child_counts":[2,0,0],"left_children":[1,-1,-1],"loss_changes":[5.18211185932159424e-01,0.00000000000000000e+00,0.00000000000000000e+00],"parents":[2147483647,0,0],"right_children":[2,-1,-1],"split_conditions":[1.96628456115722656e+01,-9.61808711290359497e-02,1.11080378293991089e-01],"split_indices":[0,0,0],"sum_hessian":[1.01076469421386719e+01,4.76044082641601562e+00,5.34720611572265625e+00],"tree_param":{"num_feature":"13","num_nodes":"3","size_leaf_vector":"0"}},{"base_weights":[-3.28911989927291870e-02,2.02926009893417358e-01,-2.36826434731483459e-01],"default_left":[true,false,false],"id":68,"leaf_child_counts":[2,0,0],"left_children":[1,-1,-1],"loss_changes":[5.64875364303588867e-01,0.00000000000000000e+00,0.00000000000000000e+00],"parents":[2147483647,0,0],"right_children":[2,-1,-1],"split_conditions":[2.16801548004150391e+00,1.01463004946708679e-01,-1.18413217365741730e-01],"split_indices":[6,0,0],"sum_hessian":[9.74655151367187500e+00,4.52225923538208008e+00,5.22429227828979492e+00],"tree_param":{"num_feature":"13","num_nodes":"3","size_leaf_vector":"0"}},{"base_weights":[-3.49525595083832741e-03,1.52814939618110657e-01,-1.44268751144409180e-01],"default_left":[true,false,false],"id":69,"leaf_child_counts":[2,0,0],"left_children":[1,-1,-1],"loss_changes":[2.77844756841659546e-01,0.00000000000000000e+00,0.00000000000000000e+00],"parents":[2147483647,0,0],"right_children":[2,-1,-1],"split_conditions":[6.23214304447174072e-01,7.64074698090553284e-02,-7.21343755722045898e-02],"split_indices":[3,0,0],"sum_hessian":[1.06249074935913086e+01,4.99409389495849609e+00,5.63081312179565430e+00],"tree_param":{"num_feature":"13","num_nodes":"3","size_leaf_vector":"0"}},{"base_weights":[-4.64017465710639954e-02,-2.19236940145492554e-01,1.47730603814125061e-01],"default_left":[true,false,false],"id":70,"leaf_child_counts":[2,0,0],"left_children":[1,-1,-1],"loss_changes":[3.88043880462646484e-01,0.00000000000000000e+00,0.00000000000000000e+00],"parents":[2147483647,0,0],"right_children":[2,-1,-1],"split_conditions":[1.37635593414306641e+01,-1.09618470072746277e-01,7.38653019070625305e-02],"split_indices":[11,0,0],"sum_hessian":[9.59985351562500000e+00,5.01008224487304688e+00,4.58977127075195312e+00],"tree_param":{"num_feature":"13","num_nodes":"3","size_leaf_vector":"0"}},{"base_weights":[4.29964214563369751e-02,2.04257175326347351e-01,-1.70952200889587402e-01],"default_left":[true,false,false],"id":71,"leaf_child_counts":[2,0,0],"left_children":[1,-1,-1],"loss_changes":[3.99772405624389648e-01,0.00000000000000000e+00,0.00000000000000000e+00],"parents":[2147483647,0,0],"right_children":[2,-1,-1],"split_conditions":[1.92853031158447266e+01,1.02128587663173676e-01,-8.54761004447937012e-02],"split_indices":[1,0,0],"sum_hessian":[9.57501983642578125e+00,5.48561382293701172e+00,4.08940601348876953e+00],"tree_param":{"num_feature":"13","num_nodes":"3","size_leaf_vector":"0"}},{"base_weights":[7.16931223869323730e-02,-1.34223923087120056e-01,2.61687189340591431e-01],"default_left":[true,false,false],"id":72,"leaf_child_counts":[2,0,0],"left_children":[1,-1,-1],"loss_changes":[4.39090192317962646e-01,0.00000000000000000e+00,0.00000000000000000e+00],"parents":[2147483647,0,0],"right_children":[2,-1,-1],"split_conditions":[9.71750020980834961e-01,-6.71119615435600281e-02,1.30843594670295715e-01],"split_indices":[8,0,0],"sum_hessian":[9.32552146911621094e+00,4.61609601974487305e+00,4.70942497253417969e+00],"tree_param":{"num_feature":"13","num_nodes":"3","size_leaf_vector":"0"}},{"base_weights":[-1.69538911432027817e-02,-2.05662995576858521e-01,1.22729472815990448e-01],"default_left":[true,false,false],"id":73,"leaf_child_counts":[2,0,0],"left_children":[1,-1,-1],"loss_changes":[3.21199715137481689e-01,0.00000000000000000e+00,0.00000000000000000e+00],"parents":[2147483647,0,0],"right_children":[2,-1,-1],"split_conditions":[1.95905494689941406e+01,-1.02831497788429260e-01,6.13647364079952240e-02],"split_indices":[0,0,0],"sum_hessian":[1.02277765274047852e+01,4.14951848983764648e+00,6.07825803756713867e+00],"tree_param":{"num_feature":"13","num_nodes":"3","size_leaf_vector":"0"}},{"base_weights":[5.35533502697944641e-02,2.73668706417083740e-01,-2.08167567849159241e-01],"default_left":[false,false,false],"id":74,"leaf_child_counts":[2,0,0],"left_children":[1,-1,-1],"loss_changes":[6.47805452346801758e-01,0.00000000000000000e+00,0.00000000000000000e+00],"parents":[2147483647,0,0],"right_children":[2,-1,-1],"split_conditions":[4.31861490011215210e-01,1.36834353208541870e-01,-1.04083783924579620e-01],"split_indices":[9,0,0],"sum_hessian":[9.25601291656494141e+00,5.00282907485961914e+00,4.25318431854248047e+00],"tree_param":{"num_feature":"13","num_nodes":"3","size_leaf_vector":"0"}},{"base_weights":[-1.67764667421579361e-02,-1.91882327198982239e-01,1.51036798954010010e-01],"default_left":[true,false,false],"id":75,"leaf_child_counts":[2,0,0],"left_children":[1,-1,-1],"loss_changes":[3.33527982234954834e-01,0.00000000000000000e+00,0.00000000000000000e+00],"parents":[2147483647,0,0],"right_children":[2,-1,-1],"split_conditions":[1.96645507812500000e+01,-9.59411635994911194e-02,7.55183994770050049e-02],"split_indices":[0,0,0],"sum_hessian":[9.36398792266845703e+00,4.51223707199096680e+00,4.85175132751464844e+00],"tree_param":{"num_feature":"13","num_nodes":"3","size_leaf_vector":"0"}},{"base_weights":[-2.75495424866676331e-02,-1.84542417526245117e-01,1.36464565992355347e-01],"default_left":[false,false,false],"id":76,"leaf_child_counts":[2,0,0],"left_children":[1,-1,-1],"loss_changes":[2.81901627779006958e-01,0.00000000000000000e+00,0.00000000000000000e+00],"parents":[2147483647,0,0],"right_children":[2,-1,-1],"split_conditions":[1.92434654235839844e+01,-9.22712087631225586e-02,6.82322829961776733e-02],"split_indices":[12,0,0],"sum_hessian":[8.97000694274902344e+00,4.51915216445922852e+00,4.45085477828979492e+00],"tree_param":{"num_feature":"13","num_nodes":"3","size_leaf_vector":"0"}},{"base_weights":[-3.98857817053794861e-02,-2.41659045219421387e-01,1.55386909842491150e-01],"default_left":[true,false,false],"id":77,"leaf_child_counts":[2,0,0],"left_children":[1,-1,-1],"loss_changes":[4.37515288591384888e-01,0.00000000000000000e+00,0.00000000000000000e+00],"parents":[2147483647,0,0],"right_children":[2,-1,-1],"split_conditions":[9.68500018119812012e-01,-1.20829522609710693e-01,7.76934549212455750e-02],"split_indices":[8,0,0],"sum_hessian":[9.15117740631103516e+00,4.38384723663330078e+00,4.76733064651489258e+00],"tree_param":{"num_feature":"13","num_nodes":"3","size_leaf_vector":"0"}},{"base_weights":[4.51124794781208038e-02,1.54433503746986389e-01,-7.14035704731941223e-02],"default_left":[true,false,false],"id":78,"leaf_child_counts":[2,0,0],"left_children":[1,-1,-1],"loss_changes":[1.42103448510169983e-01,0.00000000000000000e+00,0.00000000000000000e+00],"parents":[2147483647,0,0],"right_children":[2,-1,-1],"split_conditions":[6.36666715145111084e-01,7.72167518734931946e-02,-3.57017852365970612e-02],"split_indices":[3,0,0],"sum_hessian":[9.29046249389648438e+00,4.62532806396484375e+00,4.66513442993164062e+00],"tree_param":{"num_feature":"13","num_nodes":"3","size_leaf_vector":"0"}},{"base_weights":[-1.34815480560064316e-02,-1.86280831694602966e-01,1.87085717916488647e-01],"default_left":[true,false,false],"id":79,"leaf_child_counts":[2,0,0],"left_children":[1,-1,-1],"loss_changes":[3.89963567256927490e-01,0.00000000000000000e+00,0.00000000000000000e+00],"parents":[2147483647,0,0],"right_children":[2,-1,-1],"split_conditions":[6.78571343421936035e-01,-9.31404158473014832e-02,9.35428589582443237e-02],"split_indices":[3,0,0],"sum_hessian":[9.24624347686767578e+00,5.00521564483642578e+00,4.24102735519409180e+00],"tree_param":{"num_feature":"13","num_nodes":"3","size_leaf_vector":"0"}},{"base_weights":[-1.15066766738891602e-02,1.36332690715789795e-01,-1.51653230190277100e-01],"default_left":[true,false,false],"id":80,"leaf_child_counts":[2,0,0],"left_children":[1,-1,-1],"loss_changes":[2.35833123326301575e-01,0.00000000000000000e+00,0.00000000000000000e+00],"parents":[2147483647,0,0],"right_children":[2,-1,-1],"split_conditions":[2.24931621551513672e+00,6.81663453578948975e-02,-7.58266150951385498e-02],"split_indices":[6,0,0],"sum_hessian":[9.38447761535644531e+00,4.58014106750488281e+00,4.80433654785156250e+00],"tree_param":{"num_feature":"13","num_nodes":"3","size_leaf_vector":"0"}},{"base_weights":[-3.73552329838275909e-02,-1.97133198380470276e-01,1.05926319956779480e-01],"default_left":[true,false,false],"id":81,"leaf_child_counts":[2,0,0],"left_children":[1,-1,-1],"loss_changes":[2.60459303855895996e-01,0.00000000000000000e+00,0.00000000000000000e+00],"parents":[2147483647,0,0],"right_children":[2,-1,-1],"split_conditions":[1.96628456115722656e+01,-9.85665991902351379e-02,5.29631599783897400e-02],"split_indices":[0,0,0],"sum_hessian":[9.46500110626220703e+00,4.29720354080200195e+00,5.16779804229736328e+00],"tree_param":{"num_feature":"13","num_nodes":"3","size_leaf_vector":"0"}},{"base_weights":[9.48839932680130005e-02,-7.94441998004913330e-02,2.44743645191192627e-01],"default_left":[true,false,false],"id":82,"leaf_child_counts":[2,0,0],"left_children":[1,-1,-1],"loss_changes":[2.82885938882827759e-01,0.00000000000000000e+00,0.00000000000000000e+00],"parents":[2147483647,0,0],"right_children":[2,-1,-1],"split_conditions":[1.76018066406250000e+01,-3.97220999002456665e-02,1.22371822595596313e-01],"split_indices":[12,0,0],"sum_hessian":[9.08401393890380859e+00,4.41639804840087891e+00,4.66761589050292969e+00],"tree_param":{"num_feature":"13","num_nodes":"3","size_leaf_vector":"0"}},{"base_weights":[-5.05709983408451080e-02,1.30769565701484680e-01,-2.64345794916152954e-01],"default_left":[true,false,false],"id":83,"leaf_child_counts":[2,0,0],"left_children":[1,-1,-1],"loss_changes":[4.40333545207977295e-01,0.00000000000000000e+00,0.00000000000000000e+00],"parents":[2147483647,0,0],"right_children":[2,-1,-1],"split_conditions":[1.84905643463134766e+01,6.53847828507423401e-02,-1.32172897458076477e-01],"split_indices":[12,0,0],"sum_hessian":[9.46702480316162109e+00,5.33215570449829102e+00,4.13486957550048828e+00],"tree_param":{"num_feature":"13","num_nodes":"3","size_leaf_vector":"0"}},{"base_weights":[-5.76513558626174927e-02,1.62587359547615051e-01,-2.35286831855773926e-01],"default_left":[false,false,false],"id":84,"leaf_child_counts":[2,0,0],"left_children":[1,-1,-1],"loss_changes":[4.25025522708892822e-01,0.00000000000000000e+00,0.00000000000000000e+00],"parents":[2147483647,0,0],"right_children":[2,-1,-1],"split_conditions":[1.90464553833007812e+01,8.12936797738075256e-02,-1.17643415927886963e-01],"split_indices":[12,0,0],"sum_hessian":[8.88622283935546875e+00,4.00517702102661133e+00,4.88104629516601562e+00],"tree_param":{"num_feature":"13","num_nodes":"3","size_leaf_vector":"0"}},{"base_weights":[-2.08390690386295319e-02,-1.73169523477554321e-01,1.30501225590705872e-01],"default_left":[false,false,false],"id":85,"leaf_child_counts":[2,0,0],"left_children":[1,-1,-1],"loss_changes":[2.63246148824691772e-01,0.00000000000000000e+00,0.00000000000000000e+00],"parents":[2147483647,0,0],"right_children":[2,-1,-1],"split_conditions":[3.01859426498413086e+00,-8.65847617387771606e-02,6.52506127953529358e-02],"split_indices":[10,0,0],"sum_hessian":[9.43853950500488281e+00,4.63199710845947266e+00,4.80654191970825195e+00],"tree_param":{"num_feature":"13","num_nodes":"3","size_leaf_vector":"0"}},{"base_weights":[3.96158695220947266e-02,1.60612046718597412e-01,-1.22339062392711639e-01],"default_left":[true,false,false],"id":86,"leaf_child_counts":[2,0,0],"left_children":[1,-1,-1],"loss_changes":[2.25342705845832825e-01,0.00000000000000000e+00,0.00000000000000000e+00],"parents":[2147483647,0,0],"right_children":[2,-1,-1],"split_conditions":[9.76250052452087402e-01,8.03060233592987061e-02,-6.11695311963558197e-02],"split_indices":[8,0,0],"sum_hessian":[9.49675178527832031e+00,5.44047641754150391e+00,4.05627584457397461e+00],"tree_param":{"num_feature":"13","num_nodes":"3","size_leaf_vector":"0"}},{"base_weights":[-1.34847350418567657e-02,-1.73372626304626465e-01,1.71513602137565613e-01],"default_left":[true,false,false],"id":87,"leaf_child_counts":[2,0,0],"left_children":[1,-1,-1],"loss_changes":[3.39810699224472046e-01,0.00000000000000000e+00,0.00000000000000000e+00],"parents":[2147483647,0,0],"right_children":[2,-1,-1],"split_conditions":[2.95818281173706055e+00,-8.66863131523132324e-02,8.57568010687828064e-02],"split_indices":[5,0,0],"sum_hessian":[9.48294353485107422e+00,5.12039756774902344e+00,4.36254644393920898e+00],"tree_param":{"num_feature":"13","num_nodes":"3","size_leaf_vector":"0"}},{"base_weights":[-2.52331085503101349e-02,1.44342184066772461e-01,-1.76772966980934143e-01],"default_left":[true,false,false],"id":88,"leaf_child_counts":[2,0,0],"left_children":[1,-1,-1],"loss_changes":[2.89563894271850586e-01,0.00000000000000000e+00,0.00000000000000000e+00],"parents":[2147483647,0,0],"right_children":[2,-1,-1],"split_conditions":[1.15251407623291016e+01,7.21710920333862305e-02,-8.83864834904670715e-02],"split_indices":[11,0,0],"sum_hessian":[9.27527904510498047e+00,4.39958095550537109e+00,4.87569761276245117e+00],"tree_param":{"num_feature":"13","num_nodes":"3","size_leaf_vector":"0"}},{"base_weights":[6.27239421010017395e-02,2.37609520554542542e-01,-1.15269407629966736e-01],"default_left":[true,false,false],"id":89,"leaf_child_counts":[2,0,0],"left_children":[1,-1,-1],"loss_changes":[3.34438592195510864e-01,0.00000000000000000e+00,0.00000000000000000e+00],"parents":[2147483647,0,0],"right_children":[2,-1,-1],"split_conditions":[2.24931621551513672e+00,1.18804760277271271e-01,-5.76347038149833679e-02],"split_indices":[6,0,0],"sum_hessian":[8.86394405364990234e+00,4.30206155776977539e+00,4.56188249588012695e+00],"tree_param":{"num_feature":"13","num_nodes":"3","size_leaf_vector":"0"}},{"base_weights":[-1.60736516118049622e-02,1.61342620849609375e-01,-2.11485221982002258e-01],"default_left":[true,false,false],"id":90,"leaf_child_counts":[2,0,0],"left_children":[1,-1,-1],"loss_changes":[3.84432286024093628e-01,0.00000000000000000e+00,0.00000000000000000e+00],"parents":[2147483647,0,0],"right_children":[2,-1,-1],"split_conditions":[1.92970924377441406e+01,8.06713104248046875e-02,-1.05742610991001129e-01],"split_indices":[1,0,0],"sum_hessian":[9.10438156127929688e+00,4.86329126358032227e+00,4.24108982086181641e+00],"tree_param":{"num_feature":"13","num_nodes":"3","size_leaf_vector":"0"}},{"base_weights":[6.85109570622444153e-02,-8.56860280036926270e-02,2.01887473464012146e-01],"default_left":[false,false,false],"id":91,"leaf_child_counts":[2,0,0],"left_children":[1,-1,-1],"loss_changes":[2.20482587814331055e-01,0.00000000000000000e+00,0.00000000000000000e+00],"parents":[2147483647,0,0],"right_children":[2,-1,-1],"split_conditions":[1.80523529052734375e+01,-4.28430140018463135e-02,1.00943736732006073e-01],"split_indices":[11,0,0],"sum_hessian":[8.87946701049804688e+00,4.28413200378417969e+00,4.59533500671386719e+00],"tree_param":{"num_feature":"13","num_nodes":"3","size_leaf_vector":"0"}},{"base_weights":[-7.74353668093681335e-02,8.25304314494132996e-02,-2.18361362814903259e-01],"default_left":[true,false,false],"id":92,"leaf_child_counts":[2,0,0],"left_children":[1,-1,-1],"loss_changes":[2.48006314039230347e-01,0.00000000000000000e+00,0.00000000000000000e+00],"parents":[2147483647,0,0],"right_children":[2,-1,-1],"split_conditions":[6.23214304447174072e-01,4.12652157247066498e-02,-1.09180681407451630e-01],"split_indices":[3,0,0],"sum_hessian":[9.20189857482910156e+00,4.50388574600219727e+00,4.69801235198974609e+00],"tree_param":{"num_feature":"13","num_nodes":"3","size_leaf_vector":"0"}},{"base_weights":[3.54971624910831451e-02,-9.37231406569480896e-02,1.48995712399482727e-01],"default_left":[true,false,false],"id":93,"leaf_child_counts":[2,0,0],"left_children":[1,-1,-1],"loss_changes":[1.61389276385307312e-01,0.00000000000000000e+00,0.00000000000000000e+00],"parents":[2147483647,0,0],"right_children":[2,-1,-1],"split_conditions":[5.21041527390480042e-02,-4.68615703284740448e-02,7.44978561997413635e-02],"split_indices":[9,0,0],"sum_hessian":[9.05193996429443359e+00,4.31428146362304688e+00,4.73765802383422852e+00],"tree_param":{"num_feature":"13","num_nodes":"3","size_leaf_vector":"0"}},{"base_weights":[-5.72208222001791000e-03,1.27527773380279541e-01,-1.29879161715507507e-01],"default_left":[true,false,false],"id":94,"leaf_child_counts":[2,0,0],"left_children":[1,-1,-1],"loss_changes":[1.85642778873443604e-01,0.00000000000000000e+00,0.00000000000000000e+00],"parents":[2147483647,0,0],"right_children":[2,-1,-1],"split_conditions":[3.04723978042602539e+00,6.37638866901397705e-02,-6.49395808577537537e-02],"split_indices":[2,0,0],"sum_hessian":[9.22004795074462891e+00,4.43408250808715820e+00,4.78596591949462891e+00],"tree_param":{"num_feature":"13","num_nodes":"3","size_leaf_vector":"0"}},{"base_weights":[-2.61631328612565994e-02,-1.27524867653846741e-01,8.47628191113471985e-02],"default_left":[true,false,false],"id":95,"leaf_child_counts":[2,0,0],"left_children":[1,-1,-1],"loss_changes":[1.23575121164321899e-01,0.00000000000000000e+00,0.00000000000000000e+00],"parents":[2147483647,0,0],"right_children":[2,-1,-1],"split_conditions":[6.49166584014892578e-01,-6.37624338269233704e-02,4.23814095556735992e-02],"split_indices":[3,0,0],"sum_hessian":[9.02928638458251953e+00,4.63985109329223633e+00,4.38943529129028320e+00],"tree_param":{"num_feature":"13","num_nodes":"3","size_leaf_vector":"0"}},{"base_weights":[4.43450324237346649e-02,-1.08892261981964111e-01,1.89574867486953735e-01],"default_left":[false,false,false],"id":96,"leaf_child_counts":[2,0,0],"left_children":[1,-1,-1],"loss_changes":[2.41625249385833740e-01,0.00000000000000000e+00,0.00000000000000000e+00],"parents":[2147483647,0,0],"right_children":[2,-1,-1],"split_conditions":[3.01859426498413086e+00,-5.44461309909820557e-02,9.47874337434768677e-02],"split_indices":[10,0,0],"sum_hessian":[8.92971038818359375e+00,4.46681690216064453e+00,4.46289396286010742e+00],"tree_param":{"num_feature":"13","num_nodes":"3","size_leaf_vector":"0"}},{"base_weights":[1.61680895835161209e-02,1.43536597490310669e-01,-1.34684160351753235e-01],"default_left":[false,false,false],"id":97,"leaf_child_counts":[2,0,0],"left_children":[1,-1,-1],"loss_changes":[2.08843976259231567e-01,0.00000000000000000e+00,0.00000000000000000e+00],"parents":[2147483647,0,0],"right_children":[2,-1,-1],"split_conditions":[1.94344825744628906e+01,7.17682987451553345e-02,-6.73420801758766174e-02],"split_indices":[12,0,0],"sum_hessian":[8.86330699920654297e+00,4.83201026916503906e+00,4.03129673004150391e+00],"tree_param":{"num_feature":"13","num_nodes":"3","size_leaf_vector":"0"}},{"base_weights":[5.22740520536899567e-02,-9.17046144604682922e-02,1.91489040851593018e-01],"default_left":[true,false,false],"id":98,"leaf_child_counts":[2,0,0],"left_children":[1,-1,-1],"loss_changes":[2.24653661251068115e-01,0.00000000000000000e+00,0.00000000000000000e+00],"parents":[2147483647,0,0],"right_children":[2,-1,-1],"split_conditions":[1.76018066406250000e+01,-4.58523072302341461e-02,9.57445204257965088e-02],"split_indices":[12,0,0],"sum_hessian":[9.33193778991699219e+00,4.75524759292602539e+00,4.57668972015380859e+00],"tree_param":{"num_feature":"13","num_nodes":"3","size_leaf_vector":"0"}},{"base_weights":[-8.32345187664031982e-02,4.84807342290878296e-02,-2.08507359027862549e-01],"default_left":[true,false,false],"id":99,"leaf_child_counts":[2,0,0],"left_children":[1,-1,-1],"loss_changes":[1.65716856718063354e-01,0.00000000000000000e+00,0.00000000000000000e+00],"parents":[2147483647,0,0],"right_children":[2,-1,-1],"split_conditions":[2.95061349868774414e+00,2.42403671145439148e-02,-1.04253679513931274e-01],"split_indices":[5,0,0],"sum_hessian":[8.43060684204101562e+00,4.40844631195068359e+00,4.02216053009033203e+00],"tree_param":{"num_feature":"13","num_nodes":"3","size_leaf_vector":"0"}}]},"name":"gbtree"},"learner_model_param":{"base_score":"0.500000","num_class":"0","num_feature":"13"},"objective":{"name":"binary:logistic","reg_loss_param":{"scale_pos_weight":"1"}}},"version":[1,0,2]}