{"learner":{"attributes":{"scikit_learn":"{\"n_estimators\": 100, \"objective\": \"binary:logistic\", \"max_depth\": 4, \"learning_rate\": 0.5, \"verbosity\": null, \"booster\": null, \"tree_method\": null, \"gamma\": null, \"min_child_weight\": 4, \"max_delta_step\": null, \"subsample\": 0.9, \"colsample_bytree\": null, \"colsample_bylevel\": null, \"colsample_bynode\": null, \"reg_alpha\": null, \"reg_lambda\": null, \"scale_pos_weight\": null, \"base_score\": null, \"missing\": NaN, \"num_parallel_tree\": null, \"kwargs\": {}, \"random_state\": 42, \"n_jobs\": null, \"monotone_constraints\": null, \"interaction_constraints\": null, \"importance_type\": \"gain\", \"gpu_id\": null, \"validate_parameters\": false, \"classes_\": [false, true], \"n_classes_\": 2, \"_le\": {\"classes_\": [false, true]}, \"_features_count\": 13, \"type\": \"XGBClassifier\"}"},"gradient_booster":{"model":{"gbtree_model_param":{"num_trees":"100","size_leaf_vector":"0"},"tree_info":[0,0,0,0,0,0,0,0,0,0,0,0,0,0,0,0,0,0,0,0,0,0,0,0,0,0,0,0,0,0,0,0,0,0,0,0,0,0,0,0,0,0,0,0,0,0,0,0,0,0,0,0,0,0,0,0,0,0,0,0,0,0,0,0,0,0,0,0,0,0,0,0,0,0,0,0,0,0,0,0,0,0,0,0,0,0,0,0,0,0,0,0,0,0,0,0,0,0,0,0],"trees":[{"base_weights":[-1.52657687664031982e+00,-1.73962259292602539e+00,-8.73239457607269287e-01,-1.15068495273590088e+00,-1.82570803165435791e+00,-1.25396823883056641e+00,5.60747645795345306e-02,-1.54285717010498047e+00,-1.33333340287208557e-01,-1.59272730350494385e+00,-1.91344666481018066e+00,-4.61538463830947876e-01,-1.49738216400146484e+00,1.00000000000000000e+00,-1.23404252529144287e+00,-1.68181812763214111e+00,-6.66666686534881592e-01,-1.23809528350830078e+00,7.14285731315612793e-01,-8.49315047264099121e-01,-1.82524275779724121e+00,-1.47826087474822998e+00,8.69565233588218689e-02,-8.20512831211090088e-01,-1.89743590354919434e+00,-9.52380970120429993e-02,1.40425527095794678e+00,-7.14285731315612793e-01,-1.65217387676239014e+00],"default_left":[true,false,true,true,true,false,false,true,true,false,false,false,true,true,true,false,false,false,false,false,false,false,false,false,false,false,false,false,false],"id":0,"leaf_child_counts":[0,0,0,0,1,0,0,2,2,2,0,2,2,2,2,0,0,0,0,0,0,0,0,0,0,0,0,0,0],"left_children":[1,3,5,7,9,11,13,15,17,19,-1,21,23,25,27,-1,-1,-1,-1,-1,-1,-1,-1,-1,-1,-1,-1,-1,-1],"loss_changes":[4.75804443359375000e+01,1.13343505859375000e+01,3.14715499877929688e+01,1.43569488525390625e+01,1.64367675781250000e+00,1.14608764648437500e+01,3.38095054626464844e+01,2.07489395141601562e+00,1.14190473556518555e+01,1.03335571289062500e+01,0.00000000000000000e+00,9.19063568115234375e+00,1.13730697631835938e+01,7.21783256530761719e+00,1.37346267700195312e+00,0.00000000000000000e+00,0.00000000000000000e+00,0.00000000000000000e+00,0.00000000000000000e+00,0.00000000000000000e+00,0.00000000000000000e+00,0.00000000000000000e+00,0.00000000000000000e+00,0.00000000000000000e+00,0.00000000000000000e+00,0.00000000000000000e+00,0.00000000000000000e+00,0.00000000000000000e+00,0.00000000000000000e+00],"parents":[2147483647,0,0,1,1,2,2,3,3,4,4,5,5,6,6,7,7,8,8,9,9,11,11,12,12,13,13,14,14],"right_children":[2,4,6,8,10,12,14,16,18,20,-1,22,24,26,28,-1,-1,-1,-1,-1,-1,-1,-1,-1,-1,-1,-1,-1,-1],"split_conditions":[6.36547565460205078e-01,2.84943580627441406e-01,9.70250010490417480e-01,9.32000041007995605e-01,9.85625013709068298e-02,6.57653808593750000e-01,2.06720008850097656e+01,2.98017930984497070e+00,1.90471992492675781e+01,1.97255001068115234e+01,-9.56723332405090332e-01,5.25118947029113770e-01,1.97675170898437500e+01,1.88221015930175781e+01,1.35627260208129883e+01,-8.40909063816070557e-01,-3.33333343267440796e-01,-6.19047641754150391e-01,3.57142865657806396e-01,-4.24657523632049561e-01,-9.12621378898620605e-01,-7.39130437374114990e-01,4.34782616794109344e-02,-4.10256415605545044e-01,-9.48717951774597168e-01,-4.76190485060214996e-02,7.02127635478973389e-01,-3.57142865657806396e-01,-8.26086938381195068e-01],"split_indices":[3,4,8,8,9,4,7,5,0,7,0,10,1,0,11,0,0,0,0,0,0,0,0,0,0,0,0,0,0],"sum_hessian":[3.51750000000000000e+02,2.64000000000000000e+02,8.77500000000000000e+01,3.55000000000000000e+01,2.28500000000000000e+02,6.20000000000000000e+01,2.57500000000000000e+01,2.52500000000000000e+01,1.02500000000000000e+01,6.77500000000000000e+01,1.60750000000000000e+02,1.52500000000000000e+01,4.67500000000000000e+01,1.50000000000000000e+01,1.07500000000000000e+01,2.10000000000000000e+01,4.25000000000000000e+00,4.25000000000000000e+00,6.00000000000000000e+00,1.72500000000000000e+01,5.05000000000000000e+01,4.75000000000000000e+00,1.05000000000000000e+01,1.85000000000000000e+01,2.82500000000000000e+01,4.25000000000000000e+00,1.07500000000000000e+01,6.00000000000000000e+00,4.75000000000000000e+00],"tree_param":{"num_feature":"13","num_nodes":"29","size_leaf_vector":"0"}},{"base_weights":[-1.00049340724945068e+00,-7.98003673553466797e-01,-1.40436208248138428e+00,-9.69029784202575684e-01,-1.08941063284873962e-01,-1.44195270538330078e+00,-8.14142227172851562e-01,-1.33942055702209473e+00,4.16778326034545898e-01,1.47469952702522278e-01,-1.11821496486663818e+00,1.04711818695068359e+00,-8.65976214408874512e-01],"default_left":[true,true,false,true,false,false,true,false,false,false,false,false,false],"id":1,"leaf_child_counts":[1,0,0,1,1,0,2,0,2,0,0,0,0],"left_children":[1,3,-1,5,7,-1,9,-1,11,-1,-1,-1,-1],"loss_changes":[2.34476318359375000e+01,2.37484741210937500e+01,0.00000000000000000e+00,1.06953125000000000e+01,2.73239250183105469e+01,0.00000000000000000e+00,3.65272750854492188e+01,0.00000000000000000e+00,2.49640731811523438e+01,0.00000000000000000e+00,0.00000000000000000e+00,0.00000000000000000e+00,0.00000000000000000e+00],"parents":[2147483647,0,0,1,1,3,3,4,4,6,6,8,8],"right_children":[2,4,-1,6,8,-1,10,-1,12,-1,-1,-1,-1],"split_conditions":[5.83467006683349609e-01,9.66499984264373779e-01,-7.02181041240692139e-01,1.70219993591308594e+01,1.48159999847412109e+01,-7.20976352691650391e-01,1.97921867370605469e+01,-6.69710278511047363e-01,2.14032497406005859e+01,7.37349763512611389e-02,-5.59107482433319092e-01,5.23559093475341797e-01,-4.32988107204437256e-01],"split_indices":[9,8,0,7,7,0,1,0,7,0,0,0,0],"sum_hessian":[2.99422424316406250e+02,2.01414199829101562e+02,9.80082244873046875e+01,1.61038055419921875e+02,4.03761367797851562e+01,3.76797218322753906e+01,1.23358337402343750e+02,1.16232938766479492e+01,2.87528400421142578e+01,2.97597770690917969e+01,9.35985565185546875e+01,1.94023227691650391e+01,9.35051918029785156e+00],"tree_param":{"num_feature":"13","num_nodes":"13","size_leaf_vector":"0"}},{"base_weights":[-7.24663853645324707e-01,-1.15977561473846436e+00,-5.29773175716400146e-01,-8.61591100692749023e-01,-1.21190154552459717e+00,-1.12567925453186035e+00,-1.38063311576843262e-01,-1.08349287509918213e+00,-2.45631635189056396e-01,-1.17775201797485352e+00,-2.87789285182952881e-01,4.32136893272399902e-01,-8.70800256729125977e-01,8.86443316936492920e-01,-5.69141030311584473e-01,-2.19483882188796997e-01,-1.17298126220703125e+00],"default_left":[true,false,false,true,false,true,true,false,false,false,false,false,true,false,false,false,false],"id":2,"leaf_child_counts":[0,1,0,2,0,2,0,0,0,0,0,2,2,0,0,0,0],"left_children":[1,3,5,7,-1,9,11,-1,-1,-1,-1,13,15,-1,-1,-1,-1],"loss_changes":[1.91378936767578125e+01,6.27517700195312500e-02,3.78257637023925781e+01,1.65511703491210938e+00,0.00000000000000000e+00,2.47074890136718750e+00,4.18721122741699219e+01,0.00000000000000000e+00,0.00000000000000000e+00,0.00000000000000000e+00,0.00000000000000000e+00,2.62157325744628906e+01,8.36227035522460938e+00,0.00000000000000000e+00,0.00000000000000000e+00,0.00000000000000000e+00,0.00000000000000000e+00],"parents":[2147483647,0,0,1,1,2,2,3,3,5,5,6,6,11,11,12,12],"right_children":[2,4,6,8,-1,10,12,-1,-1,-1,-1,14,16,-1,-1,-1,-1],"split_conditions":[2.08101496100425720e-02,2.03032493591308594e+01,1.73284988403320312e+01,6.13928437232971191e-01,-6.05950772762298584e-01,6.73333287239074707e-01,2.00587081909179688e+01,-5.41746437549591064e-01,-1.22815817594528198e-01,-5.88876008987426758e-01,-1.43894642591476440e-01,2.14044990539550781e+01,6.93576484918594360e-02,4.43221658468246460e-01,-2.84570515155792236e-01,-1.09741941094398499e-01,-5.86490631103515625e-01],"split_indices":[2,7,7,3,0,3,1,0,0,0,0,7,2,0,0,0,0],"sum_hessian":[2.31930328369140625e+02,7.02158737182617188e+01,1.61714447021484375e+02,1.30563564300537109e+01,5.71595153808593750e+01,6.33962745666503906e+01,9.83181762695312500e+01,9.04046249389648438e+00,4.01589441299438477e+00,5.93050003051757812e+01,4.09127473831176758e+00,5.55222167968750000e+01,4.27959594726562500e+01,3.82719192504882812e+01,1.72502975463867188e+01,1.41099405288696289e+01,2.86860179901123047e+01],"tree_param":{"num_feature":"13","num_nodes":"17","size_leaf_vector":"0"}},{"base_weights":[-5.99469125270843506e-01,-4.31408017873764038e-01,-1.04329264163970947e+00,-9.56571102142333984e-01,-2.09039002656936646e-01,-1.08478045463562012e+00,-5.33264219760894775e-01,-4.28072452545166016e-01,-1.05198514461517334e+00,-1.01013422012329102e+00,7.16738775372505188e-02,-1.15626215934753418e+00,-7.33174800872802734e-01,-4.87899810075759888e-01,-1.13289368152618408e+00,-7.04524457454681396e-01,6.11869215965270996e-01],"default_left":[true,true,true,false,true,false,false,false,true,false,false,false,false,false,false,false,false],"id":3,"leaf_child_counts":[0,0,2,1,0,0,0,0,2,2,2,0,0,0,0,0,0],"left_children":[1,3,5,7,9,-1,-1,-1,11,13,15,-1,-1,-1,-1,-1,-1],"loss_changes":[1.27859687805175781e+01,1.50302295684814453e+01,4.37927246093750000e-01,1.49188232421875000e+00,2.09639797210693359e+01,0.00000000000000000e+00,0.00000000000000000e+00,0.00000000000000000e+00,2.14076995849609375e-01,9.96967315673828125e-01,2.96683750152587891e+01,0.00000000000000000e+00,0.00000000000000000e+00,0.00000000000000000e+00,0.00000000000000000e+00,0.00000000000000000e+00,0.00000000000000000e+00],"parents":[2147483647,0,0,1,1,2,2,3,3,4,4,8,8,9,9,10,10],"right_children":[2,4,6,8,10,-1,-1,-1,12,14,16,-1,-1,-1,-1,-1,-1],"split_conditions":[5.03312468528747559e-01,7.25749969482421875e-01,7.16666460037231445e-01,1.37089729309082031e-01,1.64988487958908081e-02,-5.42390227317810059e-01,-2.66632109880447388e-01,-2.14036226272583008e-01,2.47023653984069824e+00,5.95832988619804382e-03,9.64918851852416992e-01,-5.78131079673767090e-01,-3.66587400436401367e-01,-2.43949905037879944e-01,-5.66446840763092041e-01,-3.52262228727340698e-01,3.05934607982635498e-01],"split_indices":[9,8,3,4,2,0,0,0,10,9,6,0,0,0,0,0,0],"sum_hessian":[1.76451980590820312e+02,1.29417816162109375e+02,4.70341644287109375e+01,3.75158615112304688e+01,9.19019470214843750e+01,4.24538917541503906e+01,4.58027505874633789e+00,6.57628345489501953e+00,3.09395771026611328e+01,2.31729087829589844e+01,6.87290420532226562e+01,2.13346118927001953e+01,9.60496520996093750e+00,5.35718679428100586e+00,1.78157215118408203e+01,2.80788173675537109e+01,4.06502227783203125e+01],"tree_param":{"num_feature":"13","num_nodes":"17","size_leaf_vector":"0"}},{"base_weights":[-4.80045378208160400e-01,-3.01300376653671265e-01,-9.35200810432434082e-01,-1.04087758064270020e+00,3.53532074950635433e-03,-1.26057708263397217e+00,-7.80982851982116699e-01,3.43992829322814941e-01,-6.32379353046417236e-01,1.25484913587570190e-01,-9.31016147136688232e-01,-6.08098506927490234e-01,6.85536742210388184e-01,9.50187444686889648e-03,-8.62924158573150635e-01,-1.00648081302642822e+00,-4.64673548936843872e-01],"default_left":[false,false,true,false,true,false,true,false,false,false,true,false,false,false,false,false,false],"id":4,"leaf_child_counts":[0,1,1,0,0,0,1,2,2,0,2,0,0,0,0,0,0],"left_children":[1,3,5,-1,7,-1,9,11,13,-1,15,-1,-1,-1,-1,-1,-1],"loss_changes":[1.11850891113281250e+01,2.31522636413574219e+01,9.85935211181640625e-01,0.00000000000000000e+00,1.61748752593994141e+01,0.00000000000000000e+00,4.09747886657714844e+00,1.62376518249511719e+01,3.86359882354736328e+00,0.00000000000000000e+00,4.20278549194335938e-01,0.00000000000000000e+00,0.00000000000000000e+00,0.00000000000000000e+00,0.00000000000000000e+00,0.00000000000000000e+00,0.00000000000000000e+00],"parents":[2147483647,0,0,1,1,2,2,4,4,6,6,7,7,8,8,10,10],"right_children":[2,4,6,-1,8,-1,10,12,14,-1,16,-1,-1,-1,-1,-1,-1],"split_conditions":[5.08217096328735352e+00,1.65545005798339844e+01,6.06834697723388672e+00,-5.20438790321350098e-01,2.00437984466552734e+01,-6.30288541316986084e-01,9.94207572937011719e+00,5.15370368957519531e-01,1.46915435791015625e-01,6.27424567937850952e-02,2.90869212150573730e+00,-3.04049253463745117e-01,3.42768371105194092e-01,4.75093722343444824e-03,-4.31462079286575317e-01,-5.03240406513214111e-01,-2.32336774468421936e-01],"split_indices":[6,7,10,0,1,0,11,10,4,0,2,0,0,0,0,0,0],"sum_hessian":[1.39945449829101562e+02,1.01677459716796875e+02,3.82679862976074219e+01,2.89721393585205078e+01,7.27053146362304688e+01,9.99856090545654297e+00,2.82694263458251953e+01,4.76522178649902344e+01,2.50530986785888672e+01,4.03776550292968750e+00,2.42316608428955078e+01,1.23750276565551758e+01,3.52771911621093750e+01,6.87382650375366211e+00,1.81792716979980469e+01,1.98596782684326172e+01,4.37198209762573242e+00],"tree_param":{"num_feature":"13","num_nodes":"17","size_leaf_vector":"0"}},{"base_weights":[-4.18894916772842407e-01,-2.73771166801452637e-01,-9.08646404743194580e-01,-7.57059097290039062e-01,-1.13988116383552551e-01,-9.74912106990814209e-01,-4.53972309827804565e-01,-7.63433501124382019e-02,-9.32423651218414307e-01,-5.88310480117797852e-01,1.66617125272750854e-01,-1.07033503055572510e+00,-6.08163475990295410e-01,-5.39030916988849640e-02,-8.83543133735656738e-01,-6.04200661182403564e-01,4.39251393079757690e-01],"default_left":[true,true,true,true,true,false,false,false,false,false,true,false,false,false,false,false,false],"id":5,"leaf_child_counts":[0,0,2,1,0,0,0,0,2,2,2,0,0,0,0,0,0],"left_children":[1,3,5,7,9,-1,-1,-1,11,13,15,-1,-1,-1,-1,-1,-1],"loss_changes":[7.70060539245605469e+00,6.68680286407470703e+00,3.14720153808593750e-01,2.50919342041015625e+00,9.02809810638427734e+00,0.00000000000000000e+00,0.00000000000000000e+00,0.00000000000000000e+00,1.13709449768066406e-01,3.92190837860107422e+00,9.28819465637207031e+00,0.00000000000000000e+00,0.00000000000000000e+00,0.00000000000000000e+00,0.00000000000000000e+00,0.00000000000000000e+00,0.00000000000000000e+00],"parents":[2147483647,0,0,1,1,2,2,3,3,4,4,8,8,9,9,10,10],"right_children":[2,4,6,8,10,-1,-1,-1,12,14,16,-1,-1,-1,-1,-1,-1],"split_conditions":[5.03312468528747559e-01,7.25749969482421875e-01,6.99166476726531982e-01,2.34722495079040527e-02,4.06192019581794739e-02,-4.87456053495407104e-01,-2.26986154913902283e-01,-3.81716750562191010e-02,2.47023653984069824e+00,2.03202476501464844e+01,1.90238990783691406e+01,-5.35167515277862549e-01,-3.04081737995147705e-01,-2.69515458494424820e-02,-4.41771566867828369e-01,-3.02100330591201782e-01,2.19625696539878845e-01],"split_indices":[9,8,3,2,2,0,0,0,10,7,0,0,0,0,0,0,0],"sum_hessian":[1.10845443725585938e+02,8.67103347778320312e+01,2.41351108551025391e+01,2.06160202026367188e+01,6.60943145751953125e+01,2.00663700103759766e+01,4.06874084472656250e+00,4.51713085174560547e+00,1.60988883972167969e+01,2.41595420837402344e+01,4.19347686767578125e+01,9.68072032928466797e+00,6.41816806793212891e+00,9.01815223693847656e+00,1.51413888931274414e+01,1.06390018463134766e+01,3.12957687377929688e+01],"tree_param":{"num_feature":"13","num_nodes":"17","size_leaf_vector":"0"}},{"base_weights":[-2.66823023557662964e-01,-8.24783861637115479e-01,-1.05942524969577789e-01,-1.40829429030418396e-01,-9.71868753433227539e-01,3.63293170928955078e-01,-6.21799409389495850e-01,-7.15439915657043457e-01,5.09589910507202148e-01,-1.01256394386291504e+00,-3.23745936155319214e-01,6.45190715789794922e-01,-3.92248839139938354e-01,-6.15237593650817871e-01,2.60144501924514771e-01],"default_left":[false,false,false,false,false,true,true,false,false,false,true,false,false,false,false],"id":6,"leaf_child_counts":[0,2,0,0,0,1,1,0,2,0,2,0,0,0,0],"left_children":[1,3,5,-1,-1,7,9,-1,11,-1,13,-1,-1,-1,-1],"loss_changes":[8.71315002441406250e+00,2.05563640594482422e+00,1.89237537384033203e+01,0.00000000000000000e+00,0.00000000000000000e+00,6.84789562225341797e+00,4.00057506561279297e+00,0.00000000000000000e+00,4.74841117858886719e+00,0.00000000000000000e+00,3.99851346015930176e+00,0.00000000000000000e+00,0.00000000000000000e+00,0.00000000000000000e+00,0.00000000000000000e+00],"parents":[2147483647,0,0,1,1,2,2,5,5,6,6,8,8,10,10],"right_children":[2,4,6,-1,-1,8,10,-1,12,-1,14,-1,-1,-1,-1],"split_conditions":[1.84929347038269043e+00,3.82256567478179932e-01,2.08090000152587891e+01,-7.04147145152091980e-02,-4.85934376716613770e-01,1.82811508178710938e+01,2.90914513170719147e-02,-3.57719957828521729e-01,5.08041048049926758e+00,-5.06281971931457520e-01,9.58249986171722412e-01,3.22595357894897461e-01,-1.96124419569969177e-01,-3.07618796825408936e-01,1.30072250962257385e-01],"split_indices":[11,6,7,0,0,0,2,0,6,0,8,0,0,0,0],"sum_hessian":[9.70396270751953125e+01,2.07944087982177734e+01,7.62452239990234375e+01,4.02683353424072266e+00,1.67675762176513672e+01,4.00816993713378906e+01,3.61635208129882812e+01,4.32208156585693359e+00,3.57596168518066406e+01,1.46107549667358398e+01,2.15527667999267578e+01,3.13329658508300781e+01,4.42665338516235352e+00,1.43401460647583008e+01,7.21262025833129883e+00],"tree_param":{"num_feature":"13","num_nodes":"15","size_leaf_vector":"0"}},{"base_weights":[-2.01451376080513000e-01,-6.77699685096740723e-01,-7.84994214773178101e-02,-2.21132248640060425e-01,-9.27016198635101318e-01,-7.98587381839752197e-01,7.41803124547004700e-02,-4.95206266641616821e-01,-1.11108171939849854e+00,-9.40652251243591309e-01,-4.23164427280426025e-01,5.64340710639953613e-01,-2.50026434659957886e-01,8.70064735412597656e-01,-4.65762019157409668e-01,-9.29552018642425537e-01,2.30460882186889648e-01],"default_left":[false,true,true,false,true,true,true,false,false,false,false,false,true,false,false,false,false],"id":7,"leaf_child_counts":[0,1,0,0,2,2,0,0,0,0,0,2,2,0,0,0,0],"left_children":[1,3,5,-1,7,9,11,-1,-1,-1,-1,13,15,-1,-1,-1,-1],"loss_changes":[4.84890365600585938e+00,1.73548173904418945e+00,7.49905014038085938e+00,0.00000000000000000e+00,3.01259040832519531e-01,2.37854480743408203e-01,9.15892791748046875e+00,0.00000000000000000e+00,0.00000000000000000e+00,0.00000000000000000e+00,0.00000000000000000e+00,7.61658096313476562e+00,1.15923461914062500e+01,0.00000000000000000e+00,0.00000000000000000e+00,0.00000000000000000e+00,0.00000000000000000e+00],"parents":[2147483647,0,0,1,1,2,2,4,4,5,5,6,6,11,11,12,12],"right_children":[2,4,6,-1,8,10,12,-1,-1,-1,-1,14,16,-1,-1,-1,-1],"split_conditions":[5.10087966918945312e-01,1.91241683959960938e+01,1.73974990844726562e+01,-1.10566124320030212e-01,5.93482479453086853e-02,9.17000055313110352e-01,1.96973915100097656e+01,-2.47603133320808411e-01,-5.55540859699249268e-01,-4.70326125621795654e-01,-2.11582213640213013e-01,8.73729467391967773e-01,2.80428266525268555e+00,4.35032367706298828e-01,-2.32881009578704834e-01,-4.64776009321212769e-01,1.15230441093444824e-01],"split_indices":[10,1,7,0,9,8,1,0,0,0,0,9,5,0,0,0,0],"sum_hessian":[8.27169723510742188e+01,1.60471668243408203e+01,6.66698074340820312e+01,6.33428812026977539e+00,9.71287822723388672e+00,1.09229764938354492e+01,5.57468338012695312e+01,4.00580596923828125e+00,5.70707225799560547e+00,6.83205842971801758e+00,4.09091806411743164e+00,2.18984336853027344e+01,3.38484001159667969e+01,1.70064525604248047e+01,4.89198017120361328e+00,1.36331777572631836e+01,2.02152214050292969e+01],"tree_param":{"num_feature":"13","num_nodes":"17","size_leaf_vector":"0"}},{"base_weights":[-1.42182484269142151e-01,-3.12140643596649170e-01,2.45574936270713806e-01,-4.43613499402999878e-01,7.37926959991455078e-01,-5.75335860252380371e-01,5.53179562091827393e-01,-1.98012724518775940e-01,-7.98722743988037109e-01,1.49349123239517212e-01,1.05415856838226318e+00,-5.74065864086151123e-01,1.00010335445404053e+00,-1.14474557340145111e-01,-1.00768554210662842e+00,-4.06614869832992554e-01,7.14095771312713623e-01],"default_left":[true,true,true,true,false,false,false,true,true,false,false,false,false,false,false,false,false],"id":8,"leaf_child_counts":[0,1,1,0,0,0,1,2,2,2,0,0,0,0,0,0,0],"left_children":[1,3,5,7,-1,-1,9,11,13,15,-1,-1,-1,-1,-1,-1,-1],"loss_changes":[4.86680984497070312e+00,7.36481142044067383e+00,6.05285835266113281e+00,3.84745693206787109e+00,0.00000000000000000e+00,0.00000000000000000e+00,3.28781509399414062e+00,1.34059047698974609e+01,2.52239418029785156e+00,3.61666774749755859e+00,0.00000000000000000e+00,0.00000000000000000e+00,0.00000000000000000e+00,0.00000000000000000e+00,0.00000000000000000e+00,0.00000000000000000e+00,0.00000000000000000e+00],"parents":[2147483647,0,0,1,1,2,2,3,3,6,6,7,7,8,8,9,9],"right_children":[2,4,6,8,-1,-1,10,12,14,16,-1,-1,-1,-1,-1,-1,-1],"split_conditions":[-1.13627433776855469e-01,3.02225685119628906e+00,1.46014919281005859e+01,1.97778892517089844e+01,3.68963479995727539e-01,-2.87667930126190186e-01,2.26821231842041016e+01,2.00554504394531250e+01,1.35416490957140923e-03,1.87908244132995605e+00,5.27079284191131592e-01,-2.87032932043075562e-01,5.00051677227020264e-01,-5.72372786700725555e-02,-5.03842771053314209e-01,-2.03307434916496277e-01,3.57047885656356812e-01],"split_indices":[4,5,12,1,0,0,11,0,9,10,0,0,0,0,0,0,0],"sum_hessian":[7.16854476928710938e+01,4.99756164550781250e+01,2.17098312377929688e+01,4.49279823303222656e+01,5.04763221740722656e+00,5.68030643463134766e+00,1.60295238494873047e+01,2.74799232482910156e+01,1.74480609893798828e+01,9.59404563903808594e+00,6.43547868728637695e+00,2.13116779327392578e+01,6.16824483871459961e+00,4.44400405883789062e+00,1.30040569305419922e+01,4.97571563720703125e+00,4.61833047866821289e+00],"tree_param":{"num_feature":"13","num_nodes":"17","size_leaf_vector":"0"}},{"base_weights":[-4.39741984009742737e-02,-8.05381059646606445e-01,5.89213185012340546e-02,-8.27434957027435303e-01,1.40835031867027283e-01,4.10800486803054810e-01,-1.77192777395248413e-01,6.99215352535247803e-01,-3.23134958744049072e-01,-6.73222839832305908e-01,1.46484002470970154e-01],"default_left":[true,false,true,false,false,true,true,false,false,false,false],"id":9,"leaf_child_counts":[1,0,1,0,0,2,2,0,0,0,0],"left_children":[1,-1,3,-1,5,7,9,-1,-1,-1,-1],"loss_changes":[5.28596115112304688e+00,0.00000000000000000e+00,4.46090173721313477e+00,0.00000000000000000e+00,4.84885692596435547e+00,6.65864133834838867e+00,4.31143426895141602e+00,0.00000000000000000e+00,0.00000000000000000e+00,0.00000000000000000e+00,0.00000000000000000e+00],"parents":[2147483647,0,0,2,2,4,4,5,5,6,6],"right_children":[2,-1,4,-1,6,8,10,-1,-1,-1,-1],"split_conditions":[6.04749977588653564e-01,-4.02690529823303223e-01,1.55282497406005859e+01,-4.13717478513717651e-01,2.03287506103515625e+01,2.94625568389892578e+00,4.06192019581794739e-02,3.49607676267623901e-01,-1.61567479372024536e-01,-3.36611419916152954e-01,7.32420012354850769e-02],"split_indices":[8,0,7,0,7,2,2,0,0,0,0],"sum_hessian":[6.58642959594726562e+01,7.02839088439941406e+00,5.88359069824218750e+01,4.20744848251342773e+00,5.46284561157226562e+01,2.93891048431396484e+01,2.52393531799316406e+01,2.11321163177490234e+01,8.25698757171630859e+00,9.53980827331542969e+00,1.56995439529418945e+01],"tree_param":{"num_feature":"13","num_nodes":"11","size_leaf_vector":"0"}},{"base_weights":[-6.62991702556610107e-02,3.28052765689790249e-03,-8.60253214836120605e-01,-7.61156558990478516e-01,7.67659246921539307e-02,2.39011108875274658e-01,-2.76799917221069336e-01,-1.65973052382469177e-01,4.37503784894943237e-01,-4.97568726539611816e-01,3.20769250392913818e-01],"default_left":[true,true,false,false,true,true,false,false,false,false,false],"id":10,"leaf_child_counts":[1,1,0,0,0,2,2,0,0,0,0],"left_children":[1,3,-1,-1,5,7,9,-1,-1,-1,-1],"loss_changes":[3.43771290779113770e+00,3.32578897476196289e+00,0.00000000000000000e+00,0.00000000000000000e+00,3.16219210624694824e+00,3.08964753150939941e+00,2.46033573150634766e+00,0.00000000000000000e+00,0.00000000000000000e+00,0.00000000000000000e+00,0.00000000000000000e+00],"parents":[2147483647,0,0,1,1,4,4,5,5,6,6],"right_children":[2,4,-1,-1,6,8,10,-1,-1,-1,-1],"split_conditions":[2.02845153808593750e+01,6.05250000953674316e-01,-4.30126607418060303e-01,-3.80578279495239258e-01,2.97341442108154297e+00,1.55717601776123047e+01,2.08772506713867188e+01,-8.29865261912345886e-02,2.18751892447471619e-01,-2.48784363269805908e-01,1.60384625196456909e-01],"split_indices":[12,8,0,0,5,12,7,0,0,0,0],"sum_hessian":[6.11777572631835938e+01,5.71639518737792969e+01,4.01380538940429688e+00,4.19256544113159180e+00,5.29713897705078125e+01,3.65316505432128906e+01,1.64397373199462891e+01,1.20697011947631836e+01,2.44619503021240234e+01,1.21268720626831055e+01,4.31286478042602539e+00],"tree_param":{"num_feature":"13","num_nodes":"11","size_leaf_vector":"0"}},{"base_weights":[-1.02185390889644623e-01,3.28980050981044769e-02,-4.44319844245910645e-01,-1.24296933412551880e-01,6.36509954929351807e-01,-7.13320434093475342e-01,1.98217675089836121e-01,-3.51513832807540894e-01,3.30888330936431885e-01,1.05760896205902100e+00,7.55939334630966187e-02,-1.16449832916259766e+00,-9.30465236306190491e-02,-6.97042107582092285e-01,2.41337984800338745e-01,7.75714993476867676e-01,-1.10632069408893585e-01],"default_left":[false,true,true,true,true,true,false,false,true,false,false,false,false,false,false,false,false],"id":11,"leaf_child_counts":[0,0,1,0,2,2,0,2,2,0,0,0,0,0,0,0,0],"left_children":[1,3,5,7,9,11,-1,13,15,-1,-1,-1,-1,-1,-1,-1,-1],"loss_changes":[2.80827379226684570e+00,4.27943754196166992e+00,3.11071562767028809e+00,3.83527970314025879e+00,2.11903142929077148e+00,3.34141874313354492e+00,0.00000000000000000e+00,5.18082666397094727e+00,2.53843498229980469e+00,0.00000000000000000e+00,0.00000000000000000e+00,0.00000000000000000e+00,0.00000000000000000e+00,0.00000000000000000e+00,0.00000000000000000e+00,0.00000000000000000e+00,0.00000000000000000e+00],"parents":[2147483647,0,0,1,1,2,2,3,3,4,4,5,5,7,7,8,8],"right_children":[2,4,6,8,10,12,-1,14,16,-1,-1,-1,-1,-1,-1,-1,-1],"split_conditions":[4.15944480895996094e+00,9.81250047683715820e-01,1.00771999359130859e+00,2.24197616577148438e+01,2.93633699417114258e+00,8.48143768310546875e+00,9.91088375449180603e-02,4.20224857330322266e+00,1.99076118469238281e+01,5.28804481029510498e-01,3.77969667315483093e-02,-5.82249164581298828e-01,-4.65232618153095245e-02,-3.48521053791046143e-01,1.20668992400169373e-01,3.87857496738433838e-01,-5.53160347044467926e-02],"split_indices":[6,8,2,11,5,10,0,10,1,0,0,0,0,0,0,0,0],"sum_hessian":[5.94469261169433594e+01,4.32676162719726562e+01,1.61793117523193359e+01,3.49578399658203125e+01,8.30977630615234375e+00,1.13270435333251953e+01,4.85226774215698242e+00,2.34699783325195312e+01,1.14878597259521484e+01,4.24066162109375000e+00,4.06911420822143555e+00,6.04940414428710938e+00,5.27763891220092773e+00,1.47168827056884766e+01,8.75309658050537109e+00,5.34545660018920898e+00,6.14240312576293945e+00],"tree_param":{"num_feature":"13","num_nodes":"17","size_leaf_vector":"0"}},{"base_weights":[-1.68294422328472137e-02,1.55798196792602539e-01,-2.25310891866683960e-01,-9.20021161437034607e-02,7.70756900310516357e-01,-7.13021218776702881e-01,-7.71059244871139526e-02,-5.78728914260864258e-01,6.31503611803054810e-02,3.51296573877334595e-01,1.05101871490478516e+00,2.80314207077026367e-01,-3.61083537340164185e-01,-3.38350743055343628e-01,3.95786732435226440e-01,8.18247258663177490e-01,-3.08274686336517334e-01,-7.89591193199157715e-01,1.71202465891838074e-01],"default_left":[false,false,true,true,true,false,true,false,false,false,false,true,true,false,false,false,false,false,false],"id":12,"leaf_child_counts":[0,0,1,1,2,0,0,0,2,0,0,2,2,0,0,0,0,0,0],"left_children":[1,3,5,7,9,-1,11,-1,13,-1,-1,15,17,-1,-1,-1,-1,-1,-1],"loss_changes":[2.11395215988159180e+00,4.97616672515869141e+00,1.86574220657348633e+00,1.83667457103729248e+00,7.30195522308349609e-01,0.00000000000000000e+00,2.28356933593750000e+00,0.00000000000000000e+00,2.66838741302490234e+00,0.00000000000000000e+00,0.00000000000000000e+00,3.44459867477416992e+00,2.96772050857543945e+00,0.00000000000000000e+00,0.00000000000000000e+00,0.00000000000000000e+00,0.00000000000000000e+00,0.00000000000000000e+00,0.00000000000000000e+00],"parents":[2147483647,0,0,1,1,2,2,3,3,4,4,6,6,8,8,11,11,12,12],"right_children":[2,4,6,8,10,-1,12,-1,14,-1,-1,16,18,-1,-1,-1,-1,-1,-1],"split_conditions":[2.03287506103515625e+01,5.92040157318115234e+00,2.90914513170719147e-02,7.83332996070384979e-03,5.75000047683715820e-01,-3.56510609388351440e-01,7.28529542684555054e-02,-2.89364457130432129e-01,9.41988706588745117e-01,1.75648286938667297e-01,5.25509357452392578e-01,6.23928546905517578e-01,5.65833270549774170e-01,-1.69175371527671814e-01,1.97893366217613220e-01,4.09123629331588745e-01,-1.54137343168258667e-01,-3.94795596599578857e-01,8.56012329459190369e-02],"split_indices":[7,10,2,9,3,0,2,0,6,0,0,3,3,0,0,0,0,0,0],"sum_hessian":[5.67624015808105469e+01,3.11894721984863281e+01,2.55729293823242188e+01,2.28374252319335938e+01,8.35204696655273438e+00,5.07177448272705078e+00,2.05011558532714844e+01,4.86027002334594727e+00,1.79771537780761719e+01,4.24785470962524414e+00,4.10419225692749023e+00,9.08255863189697266e+00,1.14185972213745117e+01,8.13763236999511719e+00,9.83952140808105469e+00,4.54162025451660156e+00,4.54093885421752930e+00,6.05817317962646484e+00,5.36042404174804688e+00],"tree_param":{"num_feature":"13","num_nodes":"19","size_leaf_vector":"0"}},{"base_weights":[-4.75312722846865654e-03,2.31255173683166504e-01,-2.59842216968536377e-01,-2.42256164550781250e-01,5.61575174331665039e-01,-3.96861396729946136e-02,-9.89857137203216553e-01,-7.38287746906280518e-01,1.56805917620658875e-01,7.88775920867919922e-01,-1.25883087515830994e-01,3.89926224946975708e-01,-3.98954451084136963e-01,1.04276609420776367e+00,3.67838978767395020e-01,-3.77712249755859375e-02,7.97675728797912598e-01,-7.70952284336090088e-01,8.85670855641365051e-02],"default_left":[true,true,true,true,false,false,false,false,false,true,false,false,true,false,false,false,false,false,false],"id":13,"leaf_child_counts":[0,0,1,2,1,0,0,0,0,2,0,2,2,0,0,0,0,0,0],"left_children":[1,3,5,7,9,11,-1,-1,-1,13,-1,15,17,-1,-1,-1,-1,-1,-1],"loss_changes":[3.42191839218139648e+00,4.75556278228759766e+00,4.34938716888427734e+00,2.65649104118347168e+00,2.86376237869262695e+00,3.55450057983398438e+00,0.00000000000000000e+00,0.00000000000000000e+00,0.00000000000000000e+00,1.05339717864990234e+00,0.00000000000000000e+00,1.86730539798736572e+00,2.33286166191101074e+00,0.00000000000000000e+00,0.00000000000000000e+00,0.00000000000000000e+00,0.00000000000000000e+00,0.00000000000000000e+00,0.00000000000000000e+00],"parents":[2147483647,0,0,1,1,2,2,3,3,4,4,5,5,9,9,11,11,12,12],"right_children":[2,4,6,8,10,12,-1,-1,-1,14,-1,16,18,-1,-1,-1,-1,-1,-1],"split_conditions":[1.96987838745117188e+01,5.85000038146972656e-01,2.91369795799255371e+00,1.90697994232177734e+01,2.11492500305175781e+01,2.07793378829956055e+00,-4.94928568601608276e-01,-3.69143873453140259e-01,7.84029588103294373e-02,1.81569271087646484e+01,-6.29415437579154968e-02,8.67868006229400635e-01,-3.31315994262695312e-02,5.21383047103881836e-01,1.83919489383697510e-01,-1.88856124877929688e-02,3.98837864398956299e-01,-3.85476142168045044e-01,4.42835427820682526e-02],"split_indices":[1,3,2,0,7,6,0,0,0,12,0,6,4,0,0,0,0,0,0],"sum_hessian":[5.48414154052734375e+01,2.85346260070800781e+01,2.63067893981933594e+01,1.18353452682495117e+01,1.66992816925048828e+01,2.10215320587158203e+01,5.28525733947753906e+00,4.89760112762451172e+00,6.93774414062500000e+00,1.24404191970825195e+01,4.25886249542236328e+00,9.53466415405273438e+00,1.14868679046630859e+01,6.83748292922973633e+00,5.60293579101562500e+00,5.09635305404663086e+00,4.43831062316894531e+00,6.18562507629394531e+00,5.30124235153198242e+00],"tree_param":{"num_feature":"13","num_nodes":"19","size_leaf_vector":"0"}},{"base_weights":[-7.55521059036254883e-02,1.68275390751659870e-03,-5.62488019466400146e-01,-1.28926798701286316e-01,3.80170673131942749e-01,1.28514608368277550e-02,-4.77289468050003052e-01,7.56399810314178467e-01,-1.42114296555519104e-01,-2.10772082209587097e-01,5.28352916240692139e-01,-8.28569233417510986e-01,-7.18878954648971558e-02],"default_left":[true,false,false,false,true,false,true,false,false,false,false,false,false],"id":14,"leaf_child_counts":[1,0,0,0,2,2,2,0,0,0,0,0,0],"left_children":[1,3,-1,5,7,9,11,-1,-1,-1,-1,-1,-1],"loss_changes":[1.98219525814056396e+00,2.34601974487304688e+00,0.00000000000000000e+00,1.74920654296875000e+00,2.49970102310180664e+00,3.11517786979675293e+00,1.39795923233032227e+00,0.00000000000000000e+00,0.00000000000000000e+00,0.00000000000000000e+00,0.00000000000000000e+00,0.00000000000000000e+00,0.00000000000000000e+00],"parents":[2147483647,0,0,1,1,3,3,4,4,5,5,6,6],"right_children":[2,4,-1,6,8,10,12,-1,-1,-1,-1,-1,-1],"split_conditions":[2.05319004058837891e+01,5.28749618530273438e+01,-2.81244009733200073e-01,4.16465854644775391e+00,7.52199441194534302e-02,1.86423897743225098e+00,8.05100727081298828e+00,3.78199905157089233e-01,-7.10571482777595520e-02,-1.05386041104793549e-01,2.64176458120346069e-01,-4.14284616708755493e-01,-3.59439477324485779e-02],"split_indices":[0,11,0,6,2,6,10,0,0,0,0,0,0],"sum_hessian":[5.16809768676757812e+01,4.54659805297851562e+01,6.21499729156494141e+00,3.42918319702148438e+01,1.11741485595703125e+01,2.50570907592773438e+01,9.23474216461181641e+00,6.23470973968505859e+00,4.93943881988525391e+00,1.78883075714111328e+01,7.16878175735473633e+00,4.38838815689086914e+00,4.84635400772094727e+00],"tree_param":{"num_feature":"13","num_nodes":"13","size_leaf_vector":"0"}},{"base_weights":[-6.00976385176181793e-02,1.74569264054298401e-02,-5.89163661003112793e-01,-2.88076251745223999e-01,1.37908518314361572e-01,-8.43977749347686768e-01,4.07641261816024780e-01,5.19983291625976562e-01,-4.67446818947792053e-02,9.05352115631103516e-01,4.89869900047779083e-02,-5.78382730484008789e-01,2.52507150173187256e-01],"default_left":[true,true,false,true,true,false,false,true,true,false,false,false,false],"id":15,"leaf_child_counts":[1,0,0,2,0,0,0,2,2,0,0,0,0],"left_children":[1,3,-1,5,7,-1,-1,9,11,-1,-1,-1,-1],"loss_changes":[2.01915502548217773e+00,1.64691281318664551e+00,0.00000000000000000e+00,5.24502420425415039e+00,2.28187513351440430e+00,0.00000000000000000e+00,0.00000000000000000e+00,1.86301684379577637e+00,3.72413659095764160e+00,0.00000000000000000e+00,0.00000000000000000e+00,0.00000000000000000e+00,0.00000000000000000e+00],"parents":[2147483647,0,0,1,1,3,3,4,4,7,7,8,8],"right_children":[2,4,-1,6,8,-1,-1,10,12,-1,-1,-1,-1],"split_conditions":[5.83467006683349609e-01,5.10833203792572021e-01,-2.94581830501556396e-01,1.99945602416992188e+01,2.85845470428466797e+00,-4.21988874673843384e-01,2.03820630908012390e-01,1.79576930999755859e+01,4.07602638006210327e-01,4.52676057815551758e-01,2.44934950023889542e-02,-2.89191365242004395e-01,1.26253575086593628e-01],"split_indices":[9,3,0,1,5,0,0,12,10,0,0,0,0],"sum_hessian":[4.79592323303222656e+01,4.26711692810058594e+01,5.28806352615356445e+00,1.16722154617309570e+01,3.09989547729492188e+01,6.36959362030029297e+00,5.30262184143066406e+00,9.50848865509033203e+00,2.14904670715332031e+01,4.72240972518920898e+00,4.78607892990112305e+00,7.40402650833129883e+00,1.40864400863647461e+01],"tree_param":{"num_feature":"13","num_nodes":"13","size_leaf_vector":"0"}},{"base_weights":[-6.04046918451786041e-02,-1.31262615323066711e-01,5.66306948661804199e-01,-7.96012394130229950e-03,-3.88038605451583862e-01,1.33328512310981750e-01,-4.53015714883804321e-01,-8.73890072107315063e-02,-8.96420001983642578e-01,-3.26985836029052734e-01,3.35701078176498413e-01,-3.34376692771911621e-01,1.43097758293151855e-01],"default_left":[true,false,false,true,true,true,false,false,false,false,false,false,false],"id":16,"leaf_child_counts":[1,0,0,1,1,2,0,2,0,0,0,0,0],"left_children":[1,3,-1,5,7,9,-1,11,-1,-1,-1,-1,-1],"loss_changes":[2.20290613174438477e+00,1.38606238365173340e+00,0.00000000000000000e+00,1.98851215839385986e+00,2.09402656555175781e+00,2.34983849525451660e+00,0.00000000000000000e+00,6.19351506233215332e-01,0.00000000000000000e+00,0.00000000000000000e+00,0.00000000000000000e+00,0.00000000000000000e+00,0.00000000000000000e+00],"parents":[2147483647,0,0,1,1,3,3,4,4,5,5,7,7],"right_children":[2,4,-1,6,8,10,-1,12,-1,-1,-1,-1,-1],"split_conditions":[3.02225685119628906e+00,2.03697547912597656e+01,2.83153474330902100e-01,2.97597789764404297e+00,1.50543045997619629e+00,4.07233498990535736e-02,-2.26507857441902161e-01,1.96315002441406250e+01,-4.48210000991821289e-01,-1.63492918014526367e-01,1.67850539088249207e-01,-1.67188346385955811e-01,7.15488791465759277e-02],"split_indices":[5,12,0,5,10,2,0,7,0,0,0,0,0],"sum_hessian":[4.69327125549316406e+01,4.28756179809570312e+01,4.05709457397460938e+00,2.96627311706542969e+01,1.32128887176513672e+01,2.30466861724853516e+01,6.61604452133178711e+00,9.03915596008300781e+00,4.17373323440551758e+00,6.84999752044677734e+00,1.61966876983642578e+01,4.14580488204956055e+00,4.89335107803344727e+00],"tree_param":{"num_feature":"13","num_nodes":"13","size_leaf_vector":"0"}},{"base_weights":[-3.28952260315418243e-02,-1.68169885873794556e-01,1.91012948751449585e-01,-1.16479210555553436e-02,-6.83970749378204346e-01,-4.32392023503780365e-02,7.77865886688232422e-01,-2.67774105072021484e-01,2.04527288675308228e-01,3.73951703310012817e-01,-4.12716984748840332e-01,-5.33803164958953857e-01,1.29805520176887512e-01,-6.61160573363304138e-02,5.72015643119812012e-01],"default_left":[true,true,true,true,false,true,false,true,true,false,false,false,false,false,false],"id":17,"leaf_child_counts":[0,1,1,0,0,2,0,2,2,0,0,0,0,0,0],"left_children":[1,3,5,7,-1,9,-1,11,13,-1,-1,-1,-1,-1,-1],"loss_changes":[1.42892694473266602e+00,2.35589146614074707e+00,2.48560571670532227e+00,1.35483038425445557e+00,0.00000000000000000e+00,2.26533341407775879e+00,0.00000000000000000e+00,1.25178909301757812e+00,1.36063551902770996e+00,0.00000000000000000e+00,0.00000000000000000e+00,0.00000000000000000e+00,0.00000000000000000e+00,0.00000000000000000e+00,0.00000000000000000e+00],"parents":[2147483647,0,0,1,1,2,2,3,3,5,5,7,7,8,8],"right_children":[2,4,6,8,-1,10,-1,12,14,-1,-1,-1,-1,-1,-1],"split_conditions":[2.95854759216308594e+00,1.93205642700195312e+01,1.92493133544921875e+01,1.60730400085449219e+01,-3.41985374689102173e-01,1.97686004638671875e+01,3.88932943344116211e-01,2.02514991760253906e+01,8.97750020027160645e-01,1.86975851655006409e-01,-2.06358492374420166e-01,-2.66901582479476929e-01,6.49027600884437561e-02,-3.30580286681652069e-02,2.86007821559906006e-01],"split_indices":[5,12,12,12,0,0,0,0,8,0,0,0,0,0,0],"sum_hessian":[4.51157379150390625e+01,2.82795276641845703e+01,1.68362102508544922e+01,2.24803524017333984e+01,5.79917573928833008e+00,1.26950778961181641e+01,4.14113235473632812e+00,1.01801433563232422e+01,1.23002090454101562e+01,5.95686054229736328e+00,6.73821783065795898e+00,5.89382600784301758e+00,4.28631734848022461e+00,7.55573797225952148e+00,4.74447059631347656e+00],"tree_param":{"num_feature":"13","num_nodes":"15","size_leaf_vector":"0"}},{"base_weights":[3.88115942478179932e-02,-3.95515799522399902e-01,1.56283766031265259e-01,-6.94324493408203125e-01,1.11816264688968658e-02,8.71627569198608398e-01,3.21782380342483521e-02,-4.79516148567199707e-01,1.29317671060562134e-01,3.19715887308120728e-01,-2.40332707762718201e-01],"default_left":[true,true,false,false,false,false,false,false,false,false,false],"id":18,"leaf_child_counts":[0,2,1,0,0,0,1,0,2,0,0],"left_children":[1,3,5,-1,-1,-1,7,-1,9,-1,-1],"loss_changes":[2.37748193740844727e+00,1.21638393402099609e+00,3.20709633827209473e+00,0.00000000000000000e+00,0.00000000000000000e+00,0.00000000000000000e+00,1.65714788436889648e+00,0.00000000000000000e+00,2.03053975105285645e+00,0.00000000000000000e+00,0.00000000000000000e+00],"parents":[2147483647,0,0,1,1,2,2,6,6,8,8],"right_children":[2,4,6,-1,-1,-1,8,-1,10,-1,-1],"split_conditions":[1.79902496337890625e+01,1.89518470764160156e+01,1.86065006256103516e+01,-3.47162246704101562e-01,5.59081323444843292e-03,4.35813784599304199e-01,4.65762436389923096e-01,-2.39758074283599854e-01,8.73729467391967773e-01,1.59857943654060364e-01,-1.20166353881359100e-01],"split_indices":[7,1,7,0,0,0,10,0,9,0,0],"sum_hessian":[4.43862457275390625e+01,8.94546794891357422e+00,3.54407806396484375e+01,4.74903297424316406e+00,4.19643497467041016e+00,4.34913063049316406e+00,3.10916481018066406e+01,4.33262491226196289e+00,2.67590236663818359e+01,1.77509918212890625e+01,9.00803184509277344e+00],"tree_param":{"num_feature":"13","num_nodes":"11","size_leaf_vector":"0"}},{"base_weights":[-8.13932567834854126e-02,-2.52212822437286377e-01,1.12986557185649872e-01,-6.20151937007904053e-01,-1.23283550143241882e-01,4.34181630611419678e-01,-1.07362717390060425e-01,-6.38733148574829102e-01,5.19225783646106720e-02,6.08530759811401367e-01,1.65537744760513306e-01,-4.66918408870697021e-01,1.45816132426261902e-01,3.40159058570861816e-01,-3.80262613296508789e-01],"default_left":[false,true,false,false,true,true,true,false,true,false,false,false,false,false,false],"id":19,"leaf_child_counts":[0,1,0,0,1,2,2,0,2,0,0,0,0,0,0],"left_children":[1,3,5,-1,7,9,11,-1,13,-1,-1,-1,-1,-1,-1],"loss_changes":[1.55810165405273438e+00,1.10138130187988281e+00,1.62052416801452637e+00,0.00000000000000000e+00,1.80633819103240967e+00,3.32363128662109375e-01,1.34174978733062744e+00,0.00000000000000000e+00,2.06996059417724609e+00,0.00000000000000000e+00,0.00000000000000000e+00,0.00000000000000000e+00,0.00000000000000000e+00,0.00000000000000000e+00,0.00000000000000000e+00],"parents":[2147483647,0,0,1,1,2,2,4,4,5,5,6,6,8,8],"right_children":[2,4,6,-1,8,10,12,-1,14,-1,-1,-1,-1,-1,-1],"split_conditions":[4.79771137237548828e+00,7.69749999046325684e-01,2.03865013122558594e+01,-3.10075968503952026e-01,3.59664484858512878e-02,7.80749976634979248e-01,2.19652500152587891e+01,-3.19366574287414551e-01,7.30833292007446289e-01,3.04265379905700684e-01,8.27688723802566528e-02,-2.33459204435348511e-01,7.29080662131309509e-02,1.70079529285430908e-01,-1.90131306648254395e-01],"split_indices":[10,8,7,0,2,8,7,0,3,0,0,0,0,0,0],"sum_hessian":[4.50670623779296875e+01,2.38288841247558594e+01,2.12381782531738281e+01,5.19457101821899414e+00,1.86343135833740234e+01,8.24675750732421875e+00,1.29914207458496094e+01,4.05602836608886719e+00,1.45782861709594727e+01,4.23382234573364258e+00,4.01293468475341797e+00,5.01916074752807617e+00,7.97225952148437500e+00,8.87333869934082031e+00,5.70494747161865234e+00],"tree_param":{"num_feature":"13","num_nodes":"15","size_leaf_vector":"0"}},{"base_weights":[-8.58397968113422394e-03,1.24792575836181641e-01,-3.43674421310424805e-01,-3.11212211847305298e-01,3.04759830236434937e-01,-1.23475794680416584e-03,-5.41314303874969482e-01,-5.72916924953460693e-01,3.14789311960339546e-03,-1.10758379101753235e-01,4.67968463897705078e-01,7.09091305732727051e-01,1.52412354946136475e-01],"default_left":[true,true,true,true,true,false,false,false,false,false,true,false,false],"id":20,"leaf_child_counts":[0,0,2,2,1,0,0,0,0,0,2,0,0],"left_children":[1,3,5,7,9,-1,-1,-1,-1,-1,11,-1,-1],"loss_changes":[1.97906875610351562e+00,2.58389735221862793e+00,8.52124094963073730e-01,8.04973840713500977e-01,1.60878920555114746e+00,0.00000000000000000e+00,0.00000000000000000e+00,0.00000000000000000e+00,0.00000000000000000e+00,0.00000000000000000e+00,1.16071081161499023e+00,0.00000000000000000e+00,0.00000000000000000e+00],"parents":[2147483647,0,0,1,1,2,2,3,3,4,4,10,10],"right_children":[2,4,6,8,10,-1,-1,-1,-1,-1,12,-1,-1],"split_conditions":[2.00424842834472656e+01,1.91351165771484375e+01,5.33333420753479004e-01,9.82500016689300537e-01,4.24594506621360779e-02,-6.17378973402082920e-04,-2.70657151937484741e-01,-2.86458462476730347e-01,1.57394655980169773e-03,-5.53791895508766174e-02,2.91691541671752930e+00,3.54545652866363525e-01,7.62061774730682373e-02],"split_indices":[1,0,3,8,2,0,0,0,0,0,2,0,0],"sum_hessian":[4.23215866088867188e+01,3.07211742401123047e+01,1.16004104614257812e+01,8.76267147064208984e+00,2.19585037231445312e+01,4.61335468292236328e+00,6.98705530166625977e+00,4.33298015594482422e+00,4.42969131469726562e+00,6.28321933746337891e+00,1.56752843856811523e+01,8.17867565155029297e+00,7.49660825729370117e+00],"tree_param":{"num_feature":"13","num_nodes":"13","size_leaf_vector":"0"}},{"base_weights":[-4.65352684259414673e-02,2.61845756322145462e-02,-3.54497164487838745e-01,2.16569423675537109e-01,-1.41060546040534973e-01,6.05144619941711426e-01,-1.68629899621009827e-01,-4.71115946769714355e-01,3.32856118679046631e-01,-4.32324141263961792e-01,1.34325295686721802e-01,-7.82416343688964844e-01,5.23772388696670532e-02],"default_left":[true,false,false,true,true,false,true,true,false,false,false,false,false],"id":21,"leaf_child_counts":[1,0,0,1,1,0,2,2,0,0,0,0,0],"left_children":[1,3,-1,5,7,-1,9,11,-1,-1,-1,-1,-1],"loss_changes":[9.47911977767944336e-01,1.13980579376220703e+00,0.00000000000000000e+00,2.59960317611694336e+00,3.15244054794311523e+00,0.00000000000000000e+00,7.89963364601135254e-01,1.94816541671752930e+00,0.00000000000000000e+00,0.00000000000000000e+00,0.00000000000000000e+00,0.00000000000000000e+00,0.00000000000000000e+00],"parents":[2147483647,0,0,1,1,3,3,4,4,6,6,7,7],"right_children":[2,4,-1,6,8,-1,10,12,-1,-1,-1,-1,-1],"split_conditions":[2.04100990295410156e+01,6.55822753906250000e-01,-1.77248582243919373e-01,1.97811069488525391e+01,1.98785114288330078e+01,3.02572309970855713e-01,2.01138992309570312e+01,9.81750011444091797e-01,1.66428059339523315e-01,-2.16162070631980896e-01,6.71626478433609009e-02,-3.91208171844482422e-01,2.61886194348335266e-02],"split_indices":[0,4,0,0,0,0,0,8,0,0,0,0,0],"sum_hessian":[4.09125747680664062e+01,3.38374290466308594e+01,7.07514572143554688e+00,1.56861038208007812e+01,1.81513252258300781e+01,7.52458381652832031e+00,8.16152000427246094e+00,1.07031288146972656e+01,7.44819736480712891e+00,4.13519477844238281e+00,4.02632522583007812e+00,6.40169239044189453e+00,4.30143594741821289e+00],"tree_param":{"num_feature":"13","num_nodes":"13","size_leaf_vector":"0"}},{"base_weights":[-1.32575826719403267e-02,2.97158926725387573e-01,-8.68787541985511780e-02,-4.00016009807586670e-01,1.08321279287338257e-01,4.46516759693622589e-02,-6.22246742248535156e-01,2.94796258211135864e-01,-1.84162303805351257e-01,-7.92909741401672363e-01,-3.27852874994277954e-01,5.08786499500274658e-01,-1.20228953659534454e-01,1.01751625537872314e-01,-4.33063507080078125e-01],"default_left":[true,false,true,true,true,false,true,true,false,false,false,false,false,false,false],"id":22,"leaf_child_counts":[1,0,0,1,0,0,2,2,2,0,0,0,0,0,0],"left_children":[1,-1,3,5,7,-1,9,11,13,-1,-1,-1,-1,-1,-1],"loss_changes":[9.79820728302001953e-01,0.00000000000000000e+00,2.15309977531433105e+00,1.35859036445617676e+00,1.25685429573059082e+00,0.00000000000000000e+00,1.94554090499877930e-01,1.29111838340759277e+00,6.98767483234405518e-01,0.00000000000000000e+00,0.00000000000000000e+00,0.00000000000000000e+00,0.00000000000000000e+00,0.00000000000000000e+00,0.00000000000000000e+00],"parents":[2147483647,0,0,2,2,3,3,4,4,6,6,7,7,8,8],"right_children":[2,-1,4,6,8,-1,10,12,14,-1,-1,-1,-1,-1,-1],"split_conditions":[2.91724503040313721e-02,1.48579463362693787e-01,8.63000035285949707e-01,1.96993522644042969e+01,7.31666684150695801e-01,2.23258379846811295e-02,2.94241333007812500e+00,1.83572788238525391e+01,2.01677494049072266e+01,-3.96454870700836182e-01,-1.63926437497138977e-01,2.54393249750137329e-01,-6.01144768297672272e-02,5.08758127689361572e-02,-2.16531753540039062e-01],"split_indices":[2,0,8,1,3,0,5,12,7,0,0,0,0,0,0],"sum_hessian":[4.07448234558105469e+01,7.22883224487304688e+00,3.35159912109375000e+01,1.24671297073364258e+01,2.10488624572753906e+01,4.42070102691650391e+00,8.04642868041992188e+00,1.28489904403686523e+01,8.19987106323242188e+00,4.02166604995727539e+00,4.02476263046264648e+00,8.32872009277343750e+00,4.52027034759521484e+00,4.09133386611938477e+00,4.10853719711303711e+00],"tree_param":{"num_feature":"13","num_nodes":"15","size_leaf_vector":"0"}},{"base_weights":[1.74982324242591858e-02,-3.06055009365081787e-01,1.12002372741699219e-01,-5.89103579521179199e-01,5.59688545763492584e-02,-6.19717799127101898e-02,3.70997101068496704e-01,-2.77668356895446777e-01,2.76867449283599854e-01,5.92799305915832520e-01,-8.96633311640471220e-04,1.39607995748519897e-01,-6.72553837299346924e-01],"default_left":[true,true,true,false,false,true,true,false,false,false,false,false,false],"id":23,"leaf_child_counts":[0,2,0,0,0,1,2,2,0,0,0,0,0],"left_children":[1,3,5,-1,-1,7,9,11,-1,-1,-1,-1,-1],"loss_changes":[1.26169669628143311e+00,9.90265965461730957e-01,1.45582759380340576e+00,0.00000000000000000e+00,0.00000000000000000e+00,1.52975022792816162e+00,1.06632149219512939e+00,2.17763566970825195e+00,0.00000000000000000e+00,0.00000000000000000e+00,0.00000000000000000e+00,0.00000000000000000e+00,0.00000000000000000e+00],"parents":[2147483647,0,0,1,1,2,2,5,5,6,6,7,7],"right_children":[2,4,6,-1,-1,8,10,12,-1,-1,-1,-1,-1],"split_conditions":[1.79917507171630859e+01,6.62500023841857910e-01,2.95854759216308594e+00,-2.94551789760589600e-01,2.79844272881746292e-02,2.02432003021240234e+01,9.40500020980834961e-01,1.94055023193359375e+01,1.38433724641799927e-01,2.96399652957916260e-01,-4.48316655820235610e-04,6.98039978742599487e-02,-3.36276918649673462e-01],"split_indices":[7,3,5,0,0,0,8,12,0,0,0,0,0],"sum_hessian":[3.91417083740234375e+01,8.34216308593750000e+00,3.07995452880859375e+01,4.32971858978271484e+00,4.01244401931762695e+00,1.88788223266601562e+01,1.19207229614257812e+01,1.16458787918090820e+01,7.23294401168823242e+00,7.09510707855224609e+00,4.82561588287353516e+00,5.97672224044799805e+00,5.66915655136108398e+00],"tree_param":{"num_feature":"13","num_nodes":"13","size_leaf_vector":"0"}},{"base_weights":[6.65193609893321991e-03,8.81040170788764954e-02,-3.47246021032333374e-01,1.91211670637130737e-01,-3.49315851926803589e-01,5.98971188068389893e-01,3.61070856451988220e-02,2.73395955562591553e-01,-2.54722505807876587e-01],"default_left":[false,true,false,true,false,false,true,false,false],"id":24,"leaf_child_counts":[1,1,0,1,0,0,2,0,0],"left_children":[1,3,-1,5,-1,-1,7,-1,-1],"loss_changes":[1.15363848209381104e+00,1.53115355968475342e+00,0.00000000000000000e+00,1.68100380897521973e+00,0.00000000000000000e+00,0.00000000000000000e+00,1.48896384239196777e+00,0.00000000000000000e+00,0.00000000000000000e+00],"parents":[2147483647,0,0,1,1,3,3,6,6],"right_children":[2,4,-1,6,-1,-1,8,-1,-1],"split_conditions":[2.20714988708496094e+01,2.03984489440917969e+01,-1.73623010516166687e-01,4.79166489094495773e-03,-1.74657925963401794e-01,2.99485594034194946e-01,1.95266265869140625e+01,1.36697977781295776e-01,-1.27361252903938293e-01],"split_indices":[7,0,0,9,0,0,1,0,0],"sum_hessian":[3.79598083496093750e+01,3.14682235717773438e+01,6.49158382415771484e+00,2.59210376739501953e+01,5.54718542098999023e+00,6.35429668426513672e+00,1.95667419433593750e+01,1.08082208633422852e+01,8.75852012634277344e+00],"tree_param":{"num_feature":"13","num_nodes":"9","size_leaf_vector":"0"}},{"base_weights":[-3.39847467839717865e-02,-1.92863583564758301e-01,8.15366059541702271e-02,4.48501855134963989e-02,-7.22879528999328613e-01,-3.45366656780242920e-01,4.14820104837417603e-01,2.79421627521514893e-01,-2.70522326231002808e-01,-6.85211420059204102e-01,1.28587439656257629e-01,7.33906090259552002e-01,1.45980298519134521e-01],"default_left":[false,false,true,true,false,true,true,false,false,false,false,false,false],"id":25,"leaf_child_counts":[0,1,0,2,0,2,2,0,0,0,0,0,0],"left_children":[1,3,5,7,-1,9,11,-1,-1,-1,-1,-1,-1],"loss_changes":[7.17734932899475098e-01,2.09864282608032227e+00,3.39420270919799805e+00,9.82800126075744629e-01,0.00000000000000000e+00,1.78952801227569580e+00,1.03255438804626465e+00,0.00000000000000000e+00,0.00000000000000000e+00,0.00000000000000000e+00,0.00000000000000000e+00,0.00000000000000000e+00,0.00000000000000000e+00],"parents":[2147483647,0,0,1,1,2,2,3,3,5,5,6,6],"right_children":[2,4,6,8,-1,10,12,-1,-1,-1,-1,-1,-1],"split_conditions":[1.19902998208999634e-01,3.62351499497890472e-02,5.69999933242797852e-01,1.97921867370605469e+01,-3.61439764499664307e-01,2.00276489257812500e+01,2.87390613555908203e+00,1.39710813760757446e-01,-1.35261163115501404e-01,-3.42605710029602051e-01,6.42937198281288147e-02,3.66953045129776001e-01,7.29901492595672607e-02],"split_indices":[9,9,3,1,0,1,5,0,0,0,0,0,0],"sum_hessian":[3.72485198974609375e+01,1.53996133804321289e+01,2.18489055633544922e+01,1.12633476257324219e+01,4.13626623153686523e+00,9.56317138671875000e+00,1.22857332229614258e+01,6.52448511123657227e+00,4.73886251449584961e+00,5.30996942520141602e+00,4.25320196151733398e+00,4.82684707641601562e+00,7.45888662338256836e+00],"tree_param":{"num_feature":"13","num_nodes":"13","size_leaf_vector":"0"}},{"base_weights":[6.46155402064323425e-02,1.66687116026878357e-01,-2.30246618390083313e-01,-1.73635244369506836e-01,3.47077131271362305e-01,5.69229051470756531e-02,-4.58412617444992065e-01,-4.23738718032836914e-01,7.06712454557418823e-02,-1.24219350516796112e-01,6.02118968963623047e-01,1.41681134700775146e-01,8.14221918582916260e-01],"default_left":[false,false,false,false,false,false,false,false,false,false,true,false,false],"id":26,"leaf_child_counts":[0,0,2,2,1,0,0,0,0,0,2,0,0],"left_children":[1,3,5,7,9,-1,-1,-1,-1,-1,11,-1,-1],"loss_changes":[1.14440035820007324e+00,1.77175796031951904e+00,6.72787725925445557e-01,6.60794734954833984e-01,2.30500936508178711e+00,0.00000000000000000e+00,0.00000000000000000e+00,0.00000000000000000e+00,0.00000000000000000e+00,0.00000000000000000e+00,1.07708930969238281e+00,0.00000000000000000e+00,0.00000000000000000e+00],"parents":[2147483647,0,0,1,1,2,2,3,3,4,4,10,10],"right_children":[2,4,6,8,10,-1,-1,-1,-1,-1,12,-1,-1],"split_conditions":[8.73729467391967773e-01,9.70800399780273438e-01,1.80909490585327148e+00,1.79917507171630859e+01,3.19999977946281433e-02,2.84614525735378265e-02,-2.29206308722496033e-01,-2.11869359016418457e-01,3.53356227278709412e-02,-6.21096752583980560e-02,5.16666531562805176e-01,7.08405673503875732e-02,4.07110959291458130e-01],"split_indices":[9,10,6,7,9,0,0,0,0,0,3,0,0],"sum_hessian":[3.57485008239746094e+01,2.68786792755126953e+01,8.86981964111328125e+00,9.32453346252441406e+00,1.75541458129882812e+01,4.25942754745483398e+00,4.61039161682128906e+00,4.24467945098876953e+00,5.07985401153564453e+00,6.34396409988403320e+00,1.12101821899414062e+01,4.06145954132080078e+00,7.14872264862060547e+00],"tree_param":{"num_feature":"13","num_nodes":"13","size_leaf_vector":"0"}},{"base_weights":[-3.34667637944221497e-02,-1.61316946148872375e-01,1.51979580521583557e-01,2.12923693470656872e-03,-4.26727205514907837e-01,5.82507908344268799e-01,-6.00122064352035522e-02,4.18802857398986816e-01,-2.82258331775665283e-01,2.82005250453948975e-01,-3.03389102220535278e-01,-5.93990683555603027e-01,6.55060634016990662e-02],"default_left":[false,false,false,true,false,false,false,false,true,false,false,false,false],"id":27,"leaf_child_counts":[0,1,1,1,0,0,2,0,2,0,0,0,0],"left_children":[1,3,5,7,-1,-1,9,-1,11,-1,-1,-1,-1],"loss_changes":[8.93825888633728027e-01,9.63429272174835205e-01,1.44754409790039062e+00,1.86327815055847168e+00,0.00000000000000000e+00,0.00000000000000000e+00,1.02427244186401367e+00,0.00000000000000000e+00,1.05255508422851562e+00,0.00000000000000000e+00,0.00000000000000000e+00,0.00000000000000000e+00,0.00000000000000000e+00],"parents":[2147483647,0,0,1,1,2,2,3,3,6,6,8,8],"right_children":[2,4,6,8,-1,-1,10,-1,12,-1,-1,-1,-1],"split_conditions":[5.95725536346435547e+00,3.17470014095306396e-01,9.33408737182617188e+00,1.96645431518554688e+01,-2.13363602757453918e-01,2.91253954172134399e-01,2.10640907287597656e-01,2.09401428699493408e-01,1.99110531806945801e+00,1.41002625226974487e-01,-1.51694551110267639e-01,-2.96995341777801514e-01,3.27530317008495331e-02],"split_indices":[10,9,10,0,0,0,4,0,2,0,0,0,0],"sum_hessian":[3.56652412414550781e+01,2.11879711151123047e+01,1.44772682189941406e+01,1.37267055511474609e+01,7.46126604080200195e+00,4.19994020462036133e+00,1.02773284912109375e+01,5.37654781341552734e+00,8.35015773773193359e+00,4.20679807662963867e+00,6.07053041458129883e+00,4.02983236312866211e+00,4.32032537460327148e+00],"tree_param":{"num_feature":"13","num_nodes":"13","size_leaf_vector":"0"}},{"base_weights":[1.08438320457935333e-02,-2.34331801533699036e-01,1.13933622837066650e-01,1.13004356622695923e-01,-4.62853282690048218e-01,4.19020712375640869e-01,-6.27344548702239990e-02,5.91769337654113770e-01,1.48563906550407410e-01,1.87461301684379578e-01,-5.04246056079864502e-01,-6.56251311302185059e-02,3.39573949575424194e-01],"default_left":[true,true,true,false,false,false,true,false,false,true,false,false,false],"id":28,"leaf_child_counts":[0,2,0,0,0,2,1,0,0,2,0,0,0],"left_children":[1,3,5,-1,-1,7,9,-1,-1,11,-1,-1,-1],"loss_changes":[9.29634392261505127e-01,9.17627632617950439e-01,1.41809511184692383e+00,0.00000000000000000e+00,0.00000000000000000e+00,3.60595703125000000e-01,1.99701869487762451e+00,0.00000000000000000e+00,0.00000000000000000e+00,4.73557740449905396e-01,0.00000000000000000e+00,0.00000000000000000e+00,0.00000000000000000e+00],"parents":[2147483647,0,0,1,1,2,2,5,5,6,6,9,9],"right_children":[2,4,6,-1,-1,8,10,-1,-1,12,-1,-1,-1],"split_conditions":[1.94566497802734375e+01,1.12574577331542969e+00,1.97072124481201172e+01,5.65021783113479614e-02,-2.31426641345024109e-01,2.28337936401367188e+01,6.44907504320144653e-02,2.95884668827056885e-01,7.42819532752037048e-02,2.93462967872619629e+00,-2.52123028039932251e-01,-3.28125655651092529e-02,1.69786974787712097e-01],"split_indices":[0,11,1,0,0,11,2,0,0,5,0,0,0],"sum_hessian":[3.47243270874023438e+01,9.90187740325927734e+00,2.48224506378173828e+01,4.13002920150756836e+00,5.77184820175170898e+00,8.59976577758789062e+00,1.62226829528808594e+01,4.52285194396972656e+00,4.07691431045532227e+00,1.07220964431762695e+01,5.50058698654174805e+00,4.23854398727416992e+00,6.48355293273925781e+00],"tree_param":{"num_feature":"13","num_nodes":"13","size_leaf_vector":"0"}},{"base_weights":[-1.69755816459655762e-02,7.04697743058204651e-02,-4.93262022733688354e-01,-7.35551789402961731e-02,2.30566665530204773e-01,1.16205476224422455e-01,-3.57358396053314209e-01,-1.90860629081726074e-01,4.14199620485305786e-01,-2.42581918835639954e-01,4.05154258012771606e-01,6.32682800292968750e-01,1.51449739933013916e-01],"default_left":[true,true,false,true,true,true,false,false,false,false,false,false,false],"id":29,"leaf_child_counts":[1,0,0,1,1,2,0,0,2,0,0,0,0],"left_children":[1,3,-1,5,7,9,-1,-1,11,-1,-1,-1,-1],"loss_changes":[1.46189904212951660e+00,7.04675436019897461e-01,0.00000000000000000e+00,9.27921891212463379e-01,1.19085168838500977e+00,1.19910264015197754e+00,0.00000000000000000e+00,0.00000000000000000e+00,4.96718168258666992e-01,0.00000000000000000e+00,0.00000000000000000e+00,0.00000000000000000e+00,0.00000000000000000e+00],"parents":[2147483647,0,0,1,1,3,3,4,4,5,5,8,8],"right_children":[2,4,-1,6,8,10,-1,-1,12,-1,-1,-1,-1],"split_conditions":[9.18385028839111328e+00,8.07342529296875000e+00,-2.46631011366844177e-01,2.41834491491317749e-01,6.85791134834289551e-01,8.62749993801116943e-01,-1.78679198026657104e-01,-9.54303145408630371e-02,2.03322505950927734e+01,-1.21290959417819977e-01,2.02577129006385803e-01,3.16341400146484375e-01,7.57248699665069580e-02],"split_indices":[10,11,0,11,10,8,0,0,7,0,0,0,0],"sum_hessian":[3.32658309936523438e+01,2.88255538940429688e+01,4.44027805328369141e+00,1.54590120315551758e+01,1.33665418624877930e+01,9.61837577819824219e+00,5.84063673019409180e+00,4.04473781585693359e+00,9.32180404663085938e+00,4.36224603652954102e+00,5.25612926483154297e+00,4.32092142105102539e+00,5.00088310241699219e+00],"tree_param":{"num_feature":"13","num_nodes":"13","size_leaf_vector":"0"}},{"base_weights":[6.28706812858581543e-03,8.40890482068061829e-02,-2.96192497014999390e-01,-2.75899797677993774e-01,1.83076396584510803e-01,3.94362270832061768e-01,-1.03853993117809296e-01,-4.56959865987300873e-02,6.15202009677886963e-01,-3.98278295993804932e-01,2.25969880819320679e-01],"default_left":[true,false,false,false,true,true,true,false,false,false,false],"id":30,"leaf_child_counts":[1,1,0,0,0,2,2,0,0,0,0],"left_children":[1,3,-1,-1,5,7,9,-1,-1,-1,-1],"loss_changes":[8.19300830364227295e-01,1.03503847122192383e+00,0.00000000000000000e+00,0.00000000000000000e+00,1.39112567901611328e+00,1.29485583305358887e+00,1.08403432369232178e+00,0.00000000000000000e+00,0.00000000000000000e+00,0.00000000000000000e+00,0.00000000000000000e+00],"parents":[2147483647,0,0,1,1,4,4,5,5,6,6],"right_children":[2,4,-1,-1,6,8,10,-1,-1,-1,-1],"split_conditions":[1.95093154907226562e-01,-1.08082771301269531e-01,-1.48096248507499695e-01,-1.37949898838996887e-01,1.96987838745117188e+01,1.91351165771484375e+01,2.01814994812011719e+01,-2.28479932993650436e-02,3.07601004838943481e-01,-1.99139147996902466e-01,1.12984940409660339e-01],"split_indices":[4,4,0,0,1,0,0,0,0,0,0],"sum_hessian":[3.27558784484863281e+01,2.66286220550537109e+01,6.12725400924682617e+00,5.35754156112670898e+00,2.12710800170898438e+01,1.20347080230712891e+01,9.23637294769287109e+00,4.28641843795776367e+00,7.74829006195068359e+00,4.77041292190551758e+00,4.46595954895019531e+00],"tree_param":{"num_feature":"13","num_nodes":"11","size_leaf_vector":"0"}},{"base_weights":[3.37689667940139771e-02,1.64579242467880249e-01,-1.62083983421325684e-01,-1.65588051080703735e-01,2.72339820861816406e-01,2.54624217748641968e-01,-3.86850833892822266e-01,1.01543948054313660e-01,5.22639513015747070e-01,8.90363007783889771e-02,-7.90594220161437988e-01,3.49116146564483643e-01,-2.01423481106758118e-01],"default_left":[true,false,true,false,false,false,false,false,false,false,false,false,false],"id":31,"leaf_child_counts":[0,1,1,0,1,0,2,2,0,0,0,0,0],"left_children":[1,3,5,-1,7,-1,9,11,-1,-1,-1,-1,-1],"loss_changes":[8.83051812648773193e-01,7.75793910026550293e-01,1.39940440654754639e+00,0.00000000000000000e+00,6.25025153160095215e-01,0.00000000000000000e+00,1.88023066520690918e+00,8.70595216751098633e-01,0.00000000000000000e+00,0.00000000000000000e+00,0.00000000000000000e+00,0.00000000000000000e+00,0.00000000000000000e+00],"parents":[2147483647,0,0,1,1,2,2,4,4,6,6,7,7],"right_children":[2,4,6,-1,8,-1,10,12,-1,-1,-1,-1,-1],"split_conditions":[1.47388267517089844e+01,6.45311594009399414e-01,8.09000015258789062e-01,-8.27940255403518677e-02,2.08902511596679688e+01,1.27312108874320984e-01,2.18769192695617676e+00,1.93205642700195312e+01,2.61319756507873535e-01,4.45181503891944885e-02,-3.95297110080718994e-01,1.74558073282241821e-01,-1.00711740553379059e-01],"split_indices":[11,6,8,0,7,0,10,12,0,0,0,0,0],"sum_hessian":[3.24266281127929688e+01,1.95373210906982422e+01,1.28893070220947266e+01,4.67548561096191406e+00,1.48618354797363281e+01,4.46974754333496094e+00,8.41955947875976562e+00,9.66943550109863281e+00,5.19239997863769531e+00,4.22228240966796875e+00,4.19727706909179688e+00,5.23736190795898438e+00,4.43207359313964844e+00],"tree_param":{"num_feature":"13","num_nodes":"13","size_leaf_vector":"0"}},{"base_weights":[-1.16695307195186615e-01,8.36264416575431824e-02,-3.01429063081741333e-01,2.20397755503654480e-01,-2.17282697558403015e-01,-8.96654278039932251e-02,-6.83374226093292236e-01,-2.20570210367441177e-02,5.26719331741333008e-01,-3.84972423315048218e-01,1.16802848875522614e-01],"default_left":[false,true,true,true,false,true,false,false,false,false,false],"id":32,"leaf_child_counts":[0,1,1,2,0,2,0,0,0,0,0],"left_children":[1,3,5,7,-1,9,-1,-1,-1,-1,-1],"loss_changes":[1.20700883865356445e+00,7.10661888122558594e-01,1.30006837844848633e+00,8.70770752429962158e-01,0.00000000000000000e+00,7.75337100028991699e-01,0.00000000000000000e+00,0.00000000000000000e+00,0.00000000000000000e+00,0.00000000000000000e+00,0.00000000000000000e+00],"parents":[2147483647,0,0,1,1,2,2,3,3,5,5],"right_children":[2,4,6,8,-1,10,-1,-1,-1,-1,-1],"split_conditions":[6.55822753906250000e-01,2.01965484619140625e+01,6.98095083236694336e-01,1.97840576171875000e+01,-1.08641348779201508e-01,1.01152777671813965e+00,-3.41687113046646118e-01,-1.10285105183720589e-02,2.63359665870666504e-01,-1.92486211657524109e-01,5.84014244377613068e-02],"split_indices":[4,0,3,1,0,2,0,0,0,0,0],"sum_hessian":[3.09352378845214844e+01,1.51040296554565430e+01,1.58312072753906250e+01,1.05681028366088867e+01,4.53592729568481445e+00,1.09788904190063477e+01,4.85231733322143555e+00,6.41700839996337891e+00,4.15109443664550781e+00,4.16180038452148438e+00,6.81709003448486328e+00],"tree_param":{"num_feature":"13","num_nodes":"11","size_leaf_vector":"0"}},{"base_weights":[-1.68068520724773407e-02,5.77427074313163757e-02,-2.53831207752227783e-01,3.38379293680191040e-01,-8.98931697010993958e-02,-3.27270895242691040e-01,2.81085342168807983e-01,-5.89443780481815338e-02,-5.47299087047576904e-01],"default_left":[true,true,false,false,true,false,false,false,false],"id":33,"leaf_child_counts":[1,1,0,0,1,2,0,0,0],"left_children":[1,3,-1,-1,5,7,-1,-1,-1],"loss_changes":[5.79797983169555664e-01,1.07223260402679443e+00,0.00000000000000000e+00,0.00000000000000000e+00,1.61256837844848633e+00,6.16677761077880859e-01,0.00000000000000000e+00,0.00000000000000000e+00,0.00000000000000000e+00],"parents":[2147483647,0,0,1,1,4,4,5,5],"right_children":[2,4,-1,-1,6,8,-1,-1,-1],"split_conditions":[2.01259651184082031e+01,6.98196768760681152e-01,-1.26915603876113892e-01,1.69189646840095520e-01,1.99361495971679688e+01,1.82697982788085938e+01,1.40542671084403992e-01,-2.94721890240907669e-02,-2.73649543523788452e-01],"split_indices":[1,11,0,0,0,12,0,0,0],"sum_hessian":[3.09829711914062500e+01,2.41451549530029297e+01,6.83781623840332031e+00,7.87804031372070312e+00,1.62671146392822266e+01,9.99160861968994141e+00,6.27550601959228516e+00,5.07296895980834961e+00,4.91864013671875000e+00],"tree_param":{"num_feature":"13","num_nodes":"9","size_leaf_vector":"0"}},{"base_weights":[6.55534118413925171e-02,-4.24002371728420258e-02,2.86984473466873169e-01,9.70189645886421204e-02,-2.24855929613113403e-01,5.41189350187778473e-02,5.14070868492126465e-01,-1.18263840675354004e-01,3.43614876270294189e-01,-3.51701617240905762e-01,-6.94784298539161682e-02],"default_left":[true,true,false,true,false,false,false,false,false,false,false],"id":34,"leaf_child_counts":[0,0,2,2,2,0,0,0,0,0,0],"left_children":[1,3,5,7,9,-1,-1,-1,-1,-1,-1],"loss_changes":[7.47526168823242188e-01,5.70041894912719727e-01,5.12140572071075439e-01,7.26276755332946777e-01,1.65488779544830322e-01,0.00000000000000000e+00,0.00000000000000000e+00,0.00000000000000000e+00,0.00000000000000000e+00,0.00000000000000000e+00,0.00000000000000000e+00],"parents":[2147483647,0,0,1,1,2,2,3,3,4,4],"right_children":[2,4,6,8,10,-1,-1,-1,-1,-1,-1],"split_conditions":[1.86668148040771484e+01,1.68169746398925781e+01,2.03932018280029297e+01,9.18250024318695068e-01,1.78597679138183594e+01,2.70594675093889236e-02,2.57035434246063232e-01,-5.91319203376770020e-02,1.71807438135147095e-01,-1.75850808620452881e-01,-3.47392149269580841e-02],"split_indices":[12,12,11,8,12,0,0,0,0,0,0],"sum_hessian":[2.97625885009765625e+01,2.05516300201416016e+01,9.21095943450927734e+00,1.19151840209960938e+01,8.63644599914550781e+00,5.15899276733398438e+00,4.05196666717529297e+00,6.63933515548706055e+00,5.27584886550903320e+00,4.05914640426635742e+00,4.57730007171630859e+00],"tree_param":{"num_feature":"13","num_nodes":"11","size_leaf_vector":"0"}},{"base_weights":[-7.93203338980674744e-02,3.49770784378051758e-02,-3.54730248451232910e-01,1.90729677677154541e-01,-1.59016788005828857e-01,-7.38775357604026794e-02,4.37373787164688110e-01,1.19029268622398376e-01,-4.09047424793243408e-01],"default_left":[true,false,false,false,true,false,false,false,false],"id":35,"leaf_child_counts":[1,0,0,2,2,0,0,0,0],"left_children":[1,3,-1,5,7,-1,-1,-1,-1],"loss_changes":[9.45511043071746826e-01,6.90795242786407471e-01,0.00000000000000000e+00,8.53272616863250732e-01,7.63336181640625000e-01,0.00000000000000000e+00,0.00000000000000000e+00,0.00000000000000000e+00,0.00000000000000000e+00],"parents":[2147483647,0,0,1,1,3,3,4,4],"right_children":[2,4,-1,6,8,-1,-1,-1,-1],"split_conditions":[2.91602420806884766e+00,2.03032493591308594e+01,-1.77365124225616455e-01,1.47543740272521973e+00,5.34999966621398926e-01,-3.69387678802013397e-02,2.18686893582344055e-01,5.95146343111991882e-02,-2.04523712396621704e-01],"split_indices":[2,7,0,6,3,0,0,0,0],"sum_hessian":[2.86424388885498047e+01,2.08588447570800781e+01,7.78359460830688477e+00,1.15791072845458984e+01,9.27973651885986328e+00,5.92406320571899414e+00,5.65504407882690430e+00,4.64178800582885742e+00,4.63794898986816406e+00],"tree_param":{"num_feature":"13","num_nodes":"9","size_leaf_vector":"0"}},{"base_weights":[2.41247080266475677e-02,-2.80571430921554565e-01,1.46904632449150085e-01,-3.71049731969833374e-01,-1.32613614201545715e-01,-1.30841536447405815e-02,3.44592511653900146e-01,2.24935874342918396e-01,-2.64141470193862915e-01,9.97911617159843445e-02,4.98112142086029053e-01],"default_left":[true,true,true,false,false,true,true,false,false,false,false],"id":36,"leaf_child_counts":[0,2,0,0,0,2,2,0,0,0,0],"left_children":[1,3,5,-1,-1,7,9,-1,-1,-1,-1],"loss_changes":[1.18341863155364990e+00,7.27884173393249512e-02,7.13559985160827637e-01,0.00000000000000000e+00,0.00000000000000000e+00,8.57415437698364258e-01,3.28531742095947266e-01,0.00000000000000000e+00,0.00000000000000000e+00,0.00000000000000000e+00,0.00000000000000000e+00],"parents":[2147483647,0,0,1,1,2,2,5,5,6,6],"right_children":[2,4,6,-1,-1,8,10,-1,-1,-1,-1],"split_conditions":[5.11190414428710938e-01,2.93762731552124023e+00,8.74523967504501343e-02,-1.85524865984916687e-01,-6.63068071007728577e-02,7.67413735389709473e-01,6.66666746139526367e-01,1.12467937171459198e-01,-1.32070735096931458e-01,4.98955808579921722e-02,2.49056071043014526e-01],"split_indices":[3,5,9,0,0,10,3,0,0,0,0],"sum_hessian":[2.95315151214599609e+01,8.11293506622314453e+00,2.14185791015625000e+01,4.09870958328247070e+00,4.01422500610351562e+00,1.23541679382324219e+01,9.06441211700439453e+00,6.39515542984008789e+00,5.95901203155517578e+00,4.12952423095703125e+00,4.93488836288452148e+00],"tree_param":{"num_feature":"13","num_nodes":"11","size_leaf_vector":"0"}},{"base_weights":[-7.02184215188026428e-02,2.24614381790161133e-01,-1.51806905865669250e-01,2.61314481496810913e-01,-2.63470292091369629e-01,-3.74863743782043457e-01,3.31317037343978882e-02,-5.17183959484100342e-01,-2.13219076395034790e-02],"default_left":[false,false,true,false,true,true,false,false,false],"id":37,"leaf_child_counts":[1,0,1,0,1,2,0,0,0],"left_children":[1,-1,3,-1,5,7,-1,-1,-1],"loss_changes":[7.37381339073181152e-01,0.00000000000000000e+00,1.15274453163146973e+00,0.00000000000000000e+00,6.39995574951171875e-01,6.87856674194335938e-01,0.00000000000000000e+00,0.00000000000000000e+00,0.00000000000000000e+00],"parents":[2147483647,0,0,2,2,4,4,5,5],"right_children":[2,-1,4,-1,6,8,-1,-1,-1],"split_conditions":[1.84027999639511108e-02,1.12307190895080566e-01,7.27249979972839355e-01,1.30657240748405457e-01,9.79250013828277588e-01,2.23806018829345703e+01,1.65658518671989441e-02,-2.58591979742050171e-01,-1.06609538197517395e-02],"split_indices":[9,0,8,0,8,11,0,0,0],"sum_hessian":[2.82365150451660156e+01,5.74024057388305664e+00,2.24962749481201172e+01,4.50157785415649414e+00,1.79946975708007812e+01,1.28898544311523438e+01,5.10484361648559570e+00,8.86024761199951172e+00,4.02960681915283203e+00],"tree_param":{"num_feature":"13","num_nodes":"9","size_leaf_vector":"0"}},{"base_weights":[-2.16769333928823471e-02,-3.06629687547683716e-01,5.30255287885665894e-02,-4.34951819479465485e-02,3.00664514303207397e-01,-1.92868694663047791e-01,1.63482785224914551e-01,9.88693311810493469e-02,-4.01345878839492798e-01],"default_left":[true,false,true,true,false,false,false,false,false],"id":38,"leaf_child_counts":[1,0,1,1,0,2,0,0,0],"left_children":[1,-1,3,5,-1,7,-1,-1,-1],"loss_changes":[6.49702906608581543e-01,0.00000000000000000e+00,5.96997678279876709e-01,6.02004289627075195e-01,0.00000000000000000e+00,7.19414353370666504e-01,0.00000000000000000e+00,0.00000000000000000e+00,0.00000000000000000e+00],"parents":[2147483647,0,0,2,2,3,3,5,5],"right_children":[2,-1,4,6,-1,8,-1,-1,-1],"split_conditions":[8.62373039126396179e-02,-1.53314843773841858e-01,9.77249979972839355e-01,-2.43097305297851562e-01,1.50332257151603699e-01,3.84970009326934814e-02,8.17413926124572754e-02,4.94346655905246735e-02,-2.00672939419746399e-01],"split_indices":[10,0,8,4,0,9,0,0,0],"sum_hessian":[2.87577590942382812e+01,5.32829189300537109e+00,2.34294662475585938e+01,1.74517612457275391e+01,5.97770452499389648e+00,1.01760187149047852e+01,7.27574253082275391e+00,4.46023130416870117e+00,5.71578741073608398e+00],"tree_param":{"num_feature":"13","num_nodes":"9","size_leaf_vector":"0"}},{"base_weights":[4.80390526354312897e-02,2.45285481214523315e-01,-6.14170357584953308e-02,-9.74614471197128296e-02,4.87408310174942017e-01,9.31092277169227600e-02,-3.58565986156463623e-01,2.64312982559204102e-01,-1.63371890783309937e-01],"default_left":[true,true,true,false,false,false,false,false,false],"id":39,"leaf_child_counts":[0,2,1,0,0,2,0,0,0],"left_children":[1,3,5,-1,-1,7,-1,-1,-1],"loss_changes":[6.54080569744110107e-01,9.40707385540008545e-01,9.44147288799285889e-01,0.00000000000000000e+00,0.00000000000000000e+00,6.51027023792266846e-01,0.00000000000000000e+00,0.00000000000000000e+00,0.00000000000000000e+00],"parents":[2147483647,0,0,1,1,2,2,5,5],"right_children":[2,4,6,-1,-1,8,-1,-1,-1],"split_conditions":[7.99749970436096191e-01,1.99908752441406250e+01,2.97210645675659180e+00,-4.87307235598564148e-02,2.43704155087471008e-01,1.94115982055664062e+01,-1.79282993078231812e-01,1.32156491279602051e-01,-8.16859453916549683e-02],"split_indices":[8,1,5,0,0,12,0,0,0],"sum_hessian":[2.85980129241943359e+01,9.76319694519042969e+00,1.88348140716552734e+01,4.28908157348632812e+00,5.47411537170410156e+00,1.28428239822387695e+01,5.99199104309082031e+00,7.68348407745361328e+00,5.15933942794799805e+00],"tree_param":{"num_feature":"13","num_nodes":"9","size_leaf_vector":"0"}},{"base_weights":[4.27091605961322784e-02,-1.03817321360111237e-01,1.97996512055397034e-01,-3.67991954088211060e-01,1.67637076228857040e-02,4.09307867288589478e-01,1.60660427063703537e-02,-1.28597229719161987e-01,2.15337276458740234e-01,1.27166494727134705e-01,-9.83585789799690247e-02],"default_left":[false,true,false,false,true,false,true,false,false,false,false],"id":40,"leaf_child_counts":[0,1,1,0,2,0,2,0,0,0,0],"left_children":[1,3,5,-1,7,-1,9,-1,-1,-1,-1],"loss_changes":[6.99444353580474854e-01,5.16071379184722900e-01,5.63515305519104004e-01,0.00000000000000000e+00,3.72542113065719604e-01,0.00000000000000000e+00,1.27041101455688477e-01,0.00000000000000000e+00,0.00000000000000000e+00,0.00000000000000000e+00,0.00000000000000000e+00],"parents":[2147483647,0,0,1,1,2,2,4,4,6,6],"right_children":[2,4,6,-1,8,-1,10,-1,-1,-1,-1],"split_conditions":[1.91170806884765625e+01,4.15508970618247986e-02,1.66697931289672852e+00,-1.83995977044105530e-01,1.96081295013427734e+01,2.04653933644294739e-01,1.92834701538085938e+01,-6.42986148595809937e-02,1.07668638229370117e-01,6.35832473635673523e-02,-4.91792894899845123e-02],"split_indices":[12,2,6,0,1,0,12,0,0,0,0],"sum_hessian":[2.88364028930664062e+01,1.50072603225708008e+01,1.38291435241699219e+01,4.06018686294555664e+00,1.09470729827880859e+01,5.81973981857299805e+00,8.00940418243408203e+00,6.52384567260742188e+00,4.42322731018066406e+00,4.00723123550415039e+00,4.00217247009277344e+00],"tree_param":{"num_feature":"13","num_nodes":"11","size_leaf_vector":"0"}},{"base_weights":[-2.19985898584127426e-02,5.12522980570793152e-02,-2.32228323817253113e-01,-1.78616389632225037e-01,1.68504387140274048e-01,3.11253547668457031e-01,-8.43626037240028381e-02,7.58485496044158936e-02,4.85844671726226807e-01],"default_left":[true,true,false,false,false,false,false,false,false],"id":41,"leaf_child_counts":[1,1,0,0,1,2,0,0,0],"left_children":[1,3,-1,-1,5,7,-1,-1,-1],"loss_changes":[4.50442820787429810e-01,6.21389091014862061e-01,0.00000000000000000e+00,0.00000000000000000e+00,5.69236278533935547e-01,3.67073297500610352e-01,0.00000000000000000e+00,0.00000000000000000e+00,0.00000000000000000e+00],"parents":[2147483647,0,0,1,1,4,4,5,5],"right_children":[2,4,-1,-1,6,8,-1,-1,-1],"split_conditions":[2.01259651184082031e+01,9.64983940124511719e-01,-1.16114161908626556e-01,-8.93081948161125183e-02,4.17329597473144531e+00,1.96229991912841797e+01,-4.21813018620014191e-02,3.79242748022079468e-02,2.42922335863113403e-01],"split_indices":[1,6,0,0,6,7,0,0,0],"sum_hessian":[2.74775581359863281e+01,2.09382114410400391e+01,6.53934717178344727e+00,6.89582681655883789e+00,1.40423851013183594e+01,8.82792377471923828e+00,5.21446132659912109e+00,4.37008237838745117e+00,4.45784091949462891e+00],"tree_param":{"num_feature":"13","num_nodes":"9","size_leaf_vector":"0"}},{"base_weights":[-3.15451510250568390e-02,2.40135475993156433e-01,-8.49146768450737000e-02,-3.62268716096878052e-01,-1.49298254400491714e-02,-1.16970509290695190e-01,1.98741629719734192e-01,1.24769553542137146e-01,-2.74498969316482544e-01],"default_left":[false,false,false,false,true,false,false,false,false],"id":42,"leaf_child_counts":[1,0,1,0,1,2,0,0,0],"left_children":[1,-1,3,-1,5,7,-1,-1,-1],"loss_changes":[4.43645179271697998e-01,0.00000000000000000e+00,4.82514202594757080e-01,0.00000000000000000e+00,4.83623743057250977e-01,6.02418661117553711e-01,0.00000000000000000e+00,0.00000000000000000e+00,0.00000000000000000e+00],"parents":[2147483647,0,0,2,2,4,4,5,5],"right_children":[2,-1,4,-1,6,8,-1,-1,-1],"split_conditions":[4.33793038129806519e-01,1.20067737996578217e-01,8.34702849388122559e-01,-1.81134358048439026e-01,2.02432003021240234e+01,1.85254936218261719e+01,9.93708148598670959e-02,6.23847767710685730e-02,-1.37249484658241272e-01],"split_indices":[6,0,6,0,0,12,0,0,0],"sum_hessian":[2.81910171508789062e+01,4.05406761169433594e+00,2.41369495391845703e+01,4.02182722091674805e+00,2.01151218414306641e+01,1.39200496673583984e+01,6.19507360458374023e+00,5.57410001754760742e+00,8.34594917297363281e+00],"tree_param":{"num_feature":"13","num_nodes":"9","size_leaf_vector":"0"}},{"base_weights":[-2.76296082884073257e-02,-2.91583955287933350e-01,5.36293722689151764e-02,-1.58944487571716309e-01,1.74156785011291504e-01,-6.12633787095546722e-02,3.97013217210769653e-01],"default_left":[true,false,true,false,true,false,false],"id":43,"leaf_child_counts":[1,0,1,0,2,0,0],"left_children":[1,-1,3,-1,5,-1,-1],"loss_changes":[6.18453919887542725e-01,0.00000000000000000e+00,5.99903762340545654e-01,0.00000000000000000e+00,7.97133147716522217e-01,0.00000000000000000e+00,0.00000000000000000e+00],"parents":[2147483647,0,0,2,2,4,4],"right_children":[2,-1,4,-1,6,-1,-1],"split_conditions":[6.47312045097351074e-01,-1.45791977643966675e-01,1.41874998807907104e-02,-7.94722437858581543e-02,1.11516252160072327e-01,-3.06316893547773361e-02,1.98506608605384827e-01],"split_indices":[6,0,9,0,2,0,0],"sum_hessian":[2.71050834655761719e+01,5.77094316482543945e+00,2.13341407775878906e+01,7.60408878326416016e+00,1.37300519943237305e+01,7.02943038940429688e+00,6.70062112808227539e+00],"tree_param":{"num_feature":"13","num_nodes":"7","size_leaf_vector":"0"}},{"base_weights":[-8.59399419277906418e-03,1.76175370812416077e-01,-9.27516147494316101e-02,7.00637474656105042e-02,2.50601321458816528e-01,5.07426522672176361e-02,-2.03037977218627930e-01,-2.36693099141120911e-01,3.09860438108444214e-01,2.54282113164663315e-02,-4.00382012128829956e-01],"default_left":[true,true,true,false,false,true,false,false,false,false,false],"id":44,"leaf_child_counts":[0,2,0,0,0,2,2,0,0,0,0],"left_children":[1,3,5,-1,-1,7,9,-1,-1,-1,-1],"loss_changes":[4.55659478902816772e-01,5.49894571304321289e-02,3.27861040830612183e-01,0.00000000000000000e+00,0.00000000000000000e+00,7.82413661479949951e-01,5.30747115612030029e-01,0.00000000000000000e+00,0.00000000000000000e+00,0.00000000000000000e+00,0.00000000000000000e+00],"parents":[2147483647,0,0,1,1,2,2,5,5,6,6],"right_children":[2,4,6,-1,-1,8,10,-1,-1,-1,-1],"split_conditions":[2.41834491491317749e-01,9.01000022888183594e-01,1.93728446960449219e+01,3.50318737328052521e-02,1.25300660729408264e-01,1.91627502441406250e+01,1.85023880004882812e+01,-1.18346549570560455e-01,1.54930219054222107e-01,1.27141056582331657e-02,-2.00191006064414978e-01],"split_indices":[11,8,1,0,0,0,12,0,0,0,0],"sum_hessian":[2.72524776458740234e+01,8.18618392944335938e+00,1.90662937164306641e+01,4.17505455017089844e+00,4.01112937927246094e+00,8.52033519744873047e+00,1.05459585189819336e+01,4.08046913146972656e+00,4.43986558914184570e+00,5.29131889343261719e+00,5.25463914871215820e+00],"tree_param":{"num_feature":"13","num_nodes":"11","size_leaf_vector":"0"}},{"base_weights":[1.01527415215969086e-01,2.10155352950096130e-01,-2.01051205396652222e-01,-1.14266015589237213e-01,3.20040702819824219e-01,4.74414467811584473e-01,5.12350685894489288e-02,2.89054453372955322e-01,5.79284071922302246e-01],"default_left":[true,true,false,false,false,true,false,false,false],"id":45,"leaf_child_counts":[1,1,0,0,1,2,0,0,0],"left_children":[1,3,-1,-1,5,7,-1,-1,-1],"loss_changes":[9.35838520526885986e-01,7.67155110836029053e-01,0.00000000000000000e+00,0.00000000000000000e+00,6.21863722801208496e-01,2.24735736846923828e-02,0.00000000000000000e+00,0.00000000000000000e+00,0.00000000000000000e+00],"parents":[2147483647,0,0,1,1,4,4,5,5],"right_children":[2,4,-1,-1,6,8,-1,-1,-1],"split_conditions":[3.73211503028869629e-01,7.61250019073486328e-01,-1.00525602698326111e-01,-5.71330077946186066e-02,1.85508012771606445e+00,2.95371532440185547e+00,2.56175342947244644e-02,1.44527226686477661e-01,2.89642035961151123e-01],"split_indices":[9,8,0,0,6,5,0,0,0],"sum_hessian":[2.61867179870605469e+01,1.94937667846679688e+01,6.69295215606689453e+00,4.92209434509277344e+00,1.45716714859008789e+01,8.77013111114501953e+00,5.80154085159301758e+00,4.52622413635253906e+00,4.24390649795532227e+00],"tree_param":{"num_feature":"13","num_nodes":"9","size_leaf_vector":"0"}},{"base_weights":[-1.67472921311855316e-02,-1.64035364985466003e-01,2.32296511530876160e-01,-3.99805068969726562e-01,-5.88844493031501770e-02,1.36941308155655861e-02,4.18624550104141235e-01,1.14017732441425323e-01,-2.68352299928665161e-01],"default_left":[false,false,true,false,false,false,false,false,false],"id":46,"leaf_child_counts":[0,1,2,0,2,0,0,0,0],"left_children":[1,3,5,-1,7,-1,-1,-1,-1],"loss_changes":[1.03599452972412109e+00,4.14784550666809082e-01,4.22920346260070801e-01,0.00000000000000000e+00,5.15912652015686035e-01,0.00000000000000000e+00,0.00000000000000000e+00,0.00000000000000000e+00,0.00000000000000000e+00],"parents":[2147483647,0,0,1,1,2,2,4,4],"right_children":[2,4,6,-1,8,-1,-1,-1,-1],"split_conditions":[7.86786699295043945e+00,5.10087966918945312e-01,1.99945602416992188e+01,-1.99902534484863281e-01,2.75023126602172852e+00,6.84706540778279305e-03,2.09312275052070618e-01,5.70088662207126617e-02,-1.34176149964332581e-01],"split_indices":[10,10,1,0,10,0,0,0,0],"sum_hessian":[2.62044067382812500e+01,1.66805992126464844e+01,9.52380657196044922e+00,4.28054571151733398e+00,1.24000539779663086e+01,4.87633037567138672e+00,4.64747667312622070e+00,7.04255723953247070e+00,5.35749721527099609e+00],"tree_param":{"num_feature":"13","num_nodes":"9","size_leaf_vector":"0"}},{"base_weights":[-5.66826295107603073e-03,-8.56554135680198669e-02,2.25294589996337891e-01,3.81339490413665771e-02,-4.37041431665420532e-01,2.08260565996170044e-01,-3.01899969577789307e-01,3.64316999912261963e-01,-6.24785050749778748e-02],"default_left":[true,true,false,true,false,false,false,false,false],"id":47,"leaf_child_counts":[1,1,0,1,0,2,0,0,0],"left_children":[1,3,-1,5,-1,7,-1,-1,-1],"loss_changes":[5.22569775581359863e-01,9.28338289260864258e-01,0.00000000000000000e+00,1.01267457008361816e+00,0.00000000000000000e+00,5.10130882263183594e-01,0.00000000000000000e+00,0.00000000000000000e+00,0.00000000000000000e+00],"parents":[2147483647,0,0,1,1,3,3,5,5],"right_children":[2,4,-1,6,-1,8,-1,-1,-1],"split_conditions":[1.91170806884765625e+01,7.32738256454467773e-01,1.12647294998168945e-01,-4.82368469238281250e-03,-2.18520715832710266e-01,3.25521755218505859e+00,-1.50949984788894653e-01,1.82158499956130981e-01,-3.12392525374889374e-02],"split_indices":[12,3,0,4,0,6,0,0,0],"sum_hessian":[2.62420959472656250e+01,1.99590187072753906e+01,6.28307771682739258e+00,1.54186697006225586e+01,4.54034900665283203e+00,1.05352010726928711e+01,4.88346815109252930e+00,6.46378135681152344e+00,4.07142019271850586e+00],"tree_param":{"num_feature":"13","num_nodes":"9","size_leaf_vector":"0"}},{"base_weights":[5.32866455614566803e-02,-7.29811266064643860e-02,2.68566429615020752e-01,-3.82065862417221069e-01,1.30576580762863159e-01,5.25337994098663330e-01,-1.94536037743091583e-02,3.09770941734313965e-01,-1.27556890249252319e-01],"default_left":[true,true,true,false,true,false,false,false,false],"id":48,"leaf_child_counts":[0,1,2,0,2,0,0,0,0],"left_children":[1,3,5,-1,7,-1,-1,-1,-1],"loss_changes":[7.49187767505645752e-01,1.16374659538269043e+00,7.59847581386566162e-01,0.00000000000000000e+00,5.67725181579589844e-01,0.00000000000000000e+00,0.00000000000000000e+00,0.00000000000000000e+00,0.00000000000000000e+00],"parents":[2147483647,0,0,1,1,2,2,4,4],"right_children":[2,4,6,-1,8,-1,-1,-1,-1],"split_conditions":[6.92499995231628418e-01,1.71834039688110352e+00,9.41250026226043701e-01,-1.91032931208610535e-01,1.65787200927734375e+01,2.62668997049331665e-01,-9.72680188715457916e-03,1.54885470867156982e-01,-6.37784451246261597e-02],"split_indices":[3,6,8,0,11,0,0,0,0],"sum_hessian":[2.58399467468261719e+01,1.67037258148193359e+01,9.13622093200683594e+00,6.28442668914794922e+00,1.04192981719970703e+01,4.39451837539672852e+00,4.74170255661010742e+00,6.03193330764770508e+00,4.38736534118652344e+00],"tree_param":{"num_feature":"13","num_nodes":"9","size_leaf_vector":"0"}},{"base_weights":[8.87203514575958252e-02,1.83632850646972656e-01,-1.06794372200965881e-01,3.38999517261981964e-02,3.90534102916717529e-01,4.46971803903579712e-02,-2.40096241235733032e-01,2.98048466444015503e-01,-1.74247711896896362e-01],"default_left":[false,true,true,true,false,false,false,false,false],"id":49,"leaf_child_counts":[0,1,2,2,0,0,0,0,0],"left_children":[1,3,5,7,-1,-1,-1,-1,-1],"loss_changes":[5.01405835151672363e-01,5.39631962776184082e-01,1.94844514131546021e-01,6.81392967700958252e-01,0.00000000000000000e+00,0.00000000000000000e+00,0.00000000000000000e+00,0.00000000000000000e+00,0.00000000000000000e+00],"parents":[2147483647,0,0,1,1,2,2,3,3],"right_children":[2,4,6,8,-1,-1,-1,-1,-1],"split_conditions":[2.03697547912597656e+01,-1.13627433776855469e-01,-2.50350952148437500e-01,1.92725296020507812e+01,1.95267051458358765e-01,2.23485901951789856e-02,-1.20048120617866516e-01,1.49024233222007751e-01,-8.71238559484481812e-02],"split_indices":[12,4,4,1,0,0,0,0,0],"sum_hessian":[2.49632682800292969e+01,1.68461074829101562e+01,8.11715984344482422e+00,1.04484720230102539e+01,6.39763593673706055e+00,4.11047887802124023e+00,4.00668096542358398e+00,4.41444253921508789e+00,6.03402996063232422e+00],"tree_param":{"num_feature":"13","num_nodes":"9","size_leaf_vector":"0"}},{"base_weights":[-1.97369456291198730e-02,2.96246856451034546e-01,-9.25561338663101196e-02,1.85392573475837708e-01,-1.91178828477859497e-01,-6.47055134177207947e-02,-4.38419193029403687e-01,-2.43298396468162537e-01,2.34463259577751160e-01],"default_left":[false,false,true,false,true,true,false,false,false],"id":50,"leaf_child_counts":[1,0,1,0,1,2,0,0,0],"left_children":[1,-1,3,-1,5,7,-1,-1,-1],"loss_changes":[6.22874617576599121e-01,0.00000000000000000e+00,6.32850646972656250e-01,0.00000000000000000e+00,4.90022420883178711e-01,7.05727636814117432e-01,0.00000000000000000e+00,0.00000000000000000e+00,0.00000000000000000e+00],"parents":[2147483647,0,0,2,2,4,4,5,5],"right_children":[2,-1,4,-1,6,8,-1,-1,-1],"split_conditions":[4.69456315040588379e-01,1.48123428225517273e-01,3.71932499110698700e-02,9.26962867379188538e-02,7.05000102519989014e-01,9.46750044822692871e-01,-2.19209596514701843e-01,-1.21649198234081268e-01,1.17231629788875580e-01],"split_indices":[6,0,2,0,3,8,0,0,0],"sum_hessian":[2.48784580230712891e+01,4.08484840393066406e+00,2.07936096191406250e+01,5.21535062789916992e+00,1.55782585144042969e+01,1.11409368515014648e+01,4.43732213973999023e+00,7.09326648712158203e+00,4.04767036437988281e+00],"tree_param":{"num_feature":"13","num_nodes":"9","size_leaf_vector":"0"}},{"base_weights":[-5.14179468154907227e-02,-1.37022241950035095e-01,7.77250006794929504e-02,-4.37486052513122559e-01,7.49116344377398491e-03,3.07030320167541504e-01,-1.31491526961326599e-01,1.97466120123863220e-01,-2.85581380128860474e-01],"default_left":[true,true,true,false,true,false,false,false,false],"id":51,"leaf_child_counts":[0,1,2,0,2,0,0,0,0],"left_children":[1,3,5,-1,7,-1,-1,-1,-1],"loss_changes":[2.95872688293457031e-01,6.92684650421142578e-01,5.64378917217254639e-01,0.00000000000000000e+00,7.08031654357910156e-01,0.00000000000000000e+00,0.00000000000000000e+00,0.00000000000000000e+00,0.00000000000000000e+00],"parents":[2147483647,0,0,1,1,2,2,4,4],"right_children":[2,4,6,-1,8,-1,-1,-1,-1],"split_conditions":[6.78809642791748047e-01,1.87444992065429688e+01,9.39750075340270996e-01,-2.18743026256561279e-01,5.36547541618347168e-01,1.53515160083770752e-01,-6.57457634806632996e-02,9.87330600619316101e-02,-1.42790690064430237e-01],"split_indices":[3,7,8,0,3,0,0,0,0],"sum_hessian":[2.47998847961425781e+01,1.48772611618041992e+01,9.92262363433837891e+00,4.17322731018066406e+00,1.07040338516235352e+01,4.51097965240478516e+00,5.41164398193359375e+00,6.69222974777221680e+00,4.01180410385131836e+00],"tree_param":{"num_feature":"13","num_nodes":"9","size_leaf_vector":"0"}},{"base_weights":[-9.68191027641296387e-02,-1.13316150382161140e-02,-3.24685990810394287e-01,-2.10747033357620239e-01,1.03082552552223206e-01,2.83093959093093872e-01,-4.24581989645957947e-02],"default_left":[true,true,false,false,true,false,false],"id":52,"leaf_child_counts":[1,1,0,0,2,0,0],"left_children":[1,3,-1,-1,5,-1,-1],"loss_changes":[4.82054948806762695e-01,4.59078103303909302e-01,0.00000000000000000e+00,0.00000000000000000e+00,3.48725646734237671e-01,0.00000000000000000e+00,0.00000000000000000e+00],"parents":[2147483647,0,0,1,1,4,4],"right_children":[2,4,-1,-1,6,-1,-1],"split_conditions":[2.01259651184082031e+01,1.94566497802734375e+01,-1.62342995405197144e-01,-1.05373516678810120e-01,1.73822059631347656e+01,1.41546979546546936e-01,-2.12290994822978973e-02],"split_indices":[1,0,0,0,12,0,0],"sum_hessian":[2.39353160858154297e+01,1.81687736511230469e+01,5.76654291152954102e+00,6.31690645217895508e+00,1.18518667221069336e+01,4.87595081329345703e+00,6.97591543197631836e+00],"tree_param":{"num_feature":"13","num_nodes":"7","size_leaf_vector":"0"}},{"base_weights":[5.93328196555376053e-03,1.03740163147449493e-01,-1.99840426445007324e-01,-2.08676457405090332e-01,2.15422973036766052e-01,-1.74482055008411407e-02,3.84530484676361084e-01],"default_left":[false,true,false,false,false,false,false],"id":53,"leaf_child_counts":[1,1,0,0,2,0,0],"left_children":[1,3,-1,-1,5,-1,-1],"loss_changes":[5.23834109306335449e-01,6.59120857715606689e-01,0.00000000000000000e+00,0.00000000000000000e+00,5.36722183227539062e-01,0.00000000000000000e+00,0.00000000000000000e+00],"parents":[2147483647,0,0,1,1,4,4],"right_children":[2,4,-1,-1,6,-1,-1],"split_conditions":[2.03700866699218750e+01,5.15833377838134766e-01,-9.99202132225036621e-02,-1.04338228702545166e-01,9.66241836547851562e-01,-8.72410275042057037e-03,1.92265242338180542e-01],"split_indices":[12,3,0,0,6,0,0],"sum_hessian":[2.39975395202636719e+01,1.66021690368652344e+01,7.39537096023559570e+00,4.14332818984985352e+00,1.24588413238525391e+01,5.61856412887573242e+00,6.84027719497680664e+00],"tree_param":{"num_feature":"13","num_nodes":"7","size_leaf_vector":"0"}},{"base_weights":[-1.90257467329502106e-02,-2.47711077332496643e-01,7.16529339551925659e-02,1.58498004078865051e-01,-1.72746747732162476e-01,-1.91822275519371033e-02,3.16865593194961548e-01],"default_left":[false,false,true,true,false,false,false],"id":54,"leaf_child_counts":[1,0,1,2,0,0,0],"left_children":[1,-1,3,5,-1,-1,-1],"loss_changes":[5.23538231849670410e-01,0.00000000000000000e+00,4.14544045925140381e-01,3.99462431669235229e-01,0.00000000000000000e+00,0.00000000000000000e+00,0.00000000000000000e+00],"parents":[2147483647,0,0,2,2,3,3],"right_children":[2,-1,4,6,-1,-1,-1],"split_conditions":[1.79025840759277344e+01,-1.23855538666248322e-01,2.93854761123657227e+00,1.98804550170898438e+01,-8.63733738660812378e-02,-9.59111377596855164e-03,1.58432796597480774e-01],"split_indices":[12,0,2,1,0,0,0],"sum_hessian":[2.33907890319824219e+01,6.14976453781127930e+00,1.72410240173339844e+01,1.29801378250122070e+01,4.26088619232177734e+00,6.53126907348632812e+00,6.44886922836303711e+00],"tree_param":{"num_feature":"13","num_nodes":"7","size_leaf_vector":"0"}},{"base_weights":[-3.29445418901741505e-03,5.19264563918113708e-02,-2.22656205296516418e-01,-3.00565436482429504e-02,2.56282776594161987e-01,2.03934744000434875e-01,-1.66688799858093262e-01,9.08198058605194092e-02,-4.17514503002166748e-01],"default_left":[true,true,false,false,false,false,true,false,false],"id":55,"leaf_child_counts":[1,1,0,1,0,0,2,0,0],"left_children":[1,3,-1,5,-1,-1,7,-1,-1],"loss_changes":[3.06427717208862305e-01,3.47095012664794922e-01,0.00000000000000000e+00,5.24829566478729248e-01,0.00000000000000000e+00,0.00000000000000000e+00,6.99516057968139648e-01,0.00000000000000000e+00,0.00000000000000000e+00],"parents":[2147483647,0,0,1,1,3,3,6,6],"right_children":[2,4,-1,6,-1,-1,8,-1,-1],"split_conditions":[1.44092559814453125e-01,-2.10364341735839844e-01,-1.11328102648258209e-01,1.09495043754577637e+00,1.28141388297080994e-01,1.01967372000217438e-01,1.95253105163574219e+01,4.54099029302597046e-02,-2.08757251501083374e-01],"split_indices":[4,4,0,6,0,0,1,0,0],"sum_hessian":[2.33422203063964844e+01,1.92576828002929688e+01,4.08453845977783203e+00,1.43526525497436523e+01,4.90502977371215820e+00,5.10958576202392578e+00,9.24306678771972656e+00,4.87554121017456055e+00,4.36752605438232422e+00],"tree_param":{"num_feature":"13","num_nodes":"9","size_leaf_vector":"0"}},{"base_weights":[4.53172437846660614e-02,-2.13675983250141144e-02,2.61372715234756470e-01,2.00104698538780212e-01,-1.05099856853485107e-01,-3.68749797344207764e-01,2.12420094758272171e-02,-1.46303638815879822e-01,2.09859490394592285e-01],"default_left":[true,true,false,false,true,false,true,false,false],"id":56,"leaf_child_counts":[1,1,0,0,1,0,2,0,0],"left_children":[1,3,-1,-1,5,-1,7,-1,-1],"loss_changes":[3.68447810411453247e-01,3.95068466663360596e-01,0.00000000000000000e+00,0.00000000000000000e+00,5.17207920551300049e-01,0.00000000000000000e+00,3.87284517288208008e-01,0.00000000000000000e+00,0.00000000000000000e+00],"parents":[2147483647,0,0,1,1,4,4,6,6],"right_children":[2,4,-1,-1,6,-1,8,-1,-1],"split_conditions":[9.79250013828277588e-01,1.32578432559967041e-01,1.30686357617378235e-01,1.00052349269390106e-01,1.84929347038269043e+00,-1.84374898672103882e-01,6.84548988938331604e-02,-7.31518194079399109e-02,1.04929745197296143e-01],"split_indices":[8,10,0,0,11,0,2,0,0],"sum_hessian":[2.41854782104492188e+01,1.91698608398437500e+01,5.01561594009399414e+00,4.87792015075683594e+00,1.42919416427612305e+01,4.00845003128051758e+00,1.02834911346435547e+01,5.56475353240966797e+00,4.71873760223388672e+00],"tree_param":{"num_feature":"13","num_nodes":"9","size_leaf_vector":"0"}},{"base_weights":[-5.07493168115615845e-02,-3.07869374752044678e-01,3.34952622652053833e-02,1.54174715280532837e-01,-2.40802973508834839e-01,3.03097367286682129e-01,-3.51334251463413239e-02],"default_left":[true,false,false,true,false,false,false],"id":57,"leaf_child_counts":[1,0,1,2,0,0,0],"left_children":[1,-1,3,5,-1,-1,-1],"loss_changes":[5.21402895450592041e-01,0.00000000000000000e+00,6.55273020267486572e-01,3.93445014953613281e-01,0.00000000000000000e+00,0.00000000000000000e+00,0.00000000000000000e+00],"parents":[2147483647,0,0,2,2,3,3],"right_children":[2,-1,4,6,-1,-1,-1],"split_conditions":[6.86571836471557617e-01,-1.53934687376022339e-01,8.73729467391967773e-01,1.52910766601562500e+01,-1.20401486754417419e-01,1.51548683643341064e-01,-1.75667125731706619e-02],"split_indices":[6,0,9,11,0,0,0],"sum_hessian":[2.25950050354003906e+01,4.92107772827148438e+00,1.76739273071289062e+01,1.25780544281005859e+01,5.09587335586547852e+00,6.70352602005004883e+00,5.87452840805053711e+00],"tree_param":{"num_feature":"13","num_nodes":"7","size_leaf_vector":"0"}},{"base_weights":[5.71957714855670929e-02,1.71450659632682800e-01,-9.01945903897285461e-02,2.85633116960525513e-01,-8.89766141772270203e-02,-2.38497704267501831e-01,8.39317068457603455e-02,9.21652615070343018e-02,4.03551816940307617e-01],"default_left":[false,true,true,false,false,false,false,false,false],"id":58,"leaf_child_counts":[0,1,2,2,0,0,0,0,0],"left_children":[1,3,5,7,-1,-1,-1,-1,-1],"loss_changes":[4.34621632099151611e-01,4.52607303857803345e-01,3.17618250846862793e-01,1.96068823337554932e-01,0.00000000000000000e+00,0.00000000000000000e+00,0.00000000000000000e+00,0.00000000000000000e+00,0.00000000000000000e+00],"parents":[2147483647,0,0,1,1,2,2,3,3],"right_children":[2,4,6,8,-1,-1,-1,-1,-1],"split_conditions":[2.03287506103515625e+01,2.93920135498046875e+00,2.19652500152587891e+01,1.93661379814147949e+00,-4.44883070886135101e-02,-1.19248852133750916e-01,4.19658534228801727e-02,4.60826307535171509e-02,2.01775908470153809e-01],"split_indices":[7,2,7,10,0,0,0,0,0],"sum_hessian":[2.38904953002929688e+01,1.33660688400268555e+01,1.05244274139404297e+01,9.22475624084472656e+00,4.14131355285644531e+00,5.48401594161987305e+00,5.04041099548339844e+00,4.16798734664916992e+00,5.05676841735839844e+00],"tree_param":{"num_feature":"13","num_nodes":"9","size_leaf_vector":"0"}},{"base_weights":[-2.85309515893459320e-02,-2.33087822794914246e-01,3.19430828094482422e-02,2.78316676616668701e-01,-8.21269676089286804e-02,-2.72363454103469849e-01,9.09828096628189087e-02],"default_left":[true,false,false,false,true,false,false],"id":59,"leaf_child_counts":[1,0,1,0,2,0,0],"left_children":[1,-1,3,-1,5,-1,-1],"loss_changes":[3.02448451519012451e-01,0.00000000000000000e+00,5.64854979515075684e-01,0.00000000000000000e+00,4.84322726726531982e-01,0.00000000000000000e+00,0.00000000000000000e+00],"parents":[2147483647,0,0,2,2,4,4],"right_children":[2,-1,4,-1,6,-1,-1],"split_conditions":[8.62373039126396179e-02,-1.16543911397457123e-01,7.48481631278991699e-01,1.39158338308334351e-01,1.99361495971679688e+01,-1.36181727051734924e-01,4.54914048314094543e-02],"split_indices":[10,0,10,0,0,0,0],"sum_hessian":[2.28475227355957031e+01,4.56198883056640625e+00,1.82855339050292969e+01,5.33116674423217773e+00,1.29543666839599609e+01,5.89870882034301758e+00,7.05565786361694336e+00],"tree_param":{"num_feature":"13","num_nodes":"7","size_leaf_vector":"0"}},{"base_weights":[7.64607544988393784e-03,8.85967463254928589e-02,-1.99209898710250854e-01,-4.98307123780250549e-02,2.41119354963302612e-01,-2.91240215301513672e-01,2.05734401941299438e-01],"default_left":[true,true,false,true,false,false,false],"id":60,"leaf_child_counts":[1,1,0,2,0,0,0],"left_children":[1,3,-1,5,-1,-1,-1],"loss_changes":[4.12003099918365479e-01,3.84001582860946655e-01,0.00000000000000000e+00,6.80873513221740723e-01,0.00000000000000000e+00,0.00000000000000000e+00,0.00000000000000000e+00],"parents":[2147483647,0,0,1,1,3,3],"right_children":[2,4,-1,6,-1,-1,-1],"split_conditions":[2.00424842834472656e+01,9.92193341255187988e-01,-9.96049493551254272e-02,2.95380783081054688e+00,1.20559677481651306e-01,-1.45620107650756836e-01,1.02867200970649719e-01],