{"learner":{"attributes":{"scikit_learn":"{\"n_estimators\": 100, \"objective\": \"binary:logistic\", \"max_depth\": 4, \"learning_rate\": 0.5, \"verbosity\": null, \"booster\": null, \"tree_method\": null, \"gamma\": null, \"min_child_weight\": 4, \"max_delta_step\": null, \"subsample\": 0.9, \"colsample_bytree\": null, \"colsample_bylevel\": null, \"colsample_bynode\": null, \"reg_alpha\": null, \"reg_lambda\": null, \"scale_pos_weight\": null, \"base_score\": null, \"missing\": NaN, \"num_parallel_tree\": null, \"kwargs\": {}, \"random_state\": 42, \"n_jobs\": null, \"monotone_constraints\": null, \"interaction_constraints\": null, \"importance_type\": \"gain\", \"gpu_id\": null, \"validate_parameters\": false, \"classes_\": [false, true], \"n_classes_\": 2, \"_le\": {\"classes_\": [false, true]}, \"_features_count\": 13, \"type\": \"XGBClassifier\"}"},"gradient_booster":{"model":{"gbtree_model_param":{"num_trees":"100","size_leaf_vector":"0"},"tree_info":[0,0,0,0,0,0,0,0,0,0,0,0,0,0,0,0,0,0,0,0,0,0,0,0,0,0,0,0,0,0,0,0,0,0,0,0,0,0,0,0,0,0,0,0,0,0,0,0,0,0,0,0,0,0,0,0,0,0,0,0,0,0,0,0,0,0,0,0,0,0,0,0,0,0,0,0,0,0,0,0,0,0,0,0,0,0,0,0,0,0,0,0,0,0,0,0,0,0,0,0],"trees":[{"base_weights":[-4.69657003879547119e-01,-1.47826087474822998e+00,4.72361803054809570e-01,-1.83673465251922607e+00,-1.02222228050231934e+00,-1.45098042488098145e+00,1.10526311397552490e+00,-2.72727280855178833e-01,-1.60000002384185791e+00,-1.77142858505249023e+00,-6.00000023841857910e-01,-1.17241382598876953e+00,1.59055113792419434e+00,6.08695626258850098e-01,-1.03999996185302734e+00,5.00000000000000000e-01,1.77570092678070068e+00],"default_left":[true,true,true,false,true,false,false,false,false,false,false,false,true,false,false,false,false],"id":0,"leaf_child_counts":[0,1,0,0,1,2,1,2,0,0,0,0,2,0,0,0,0],"left_children":[1,3,5,-1,7,9,11,13,-1,-1,-1,-1,15,-1,-1,-1,-1],"loss_changes":[9.07225036621093750e+01,5.64243316650390625e+00,6.21636886596679688e+01,0.00000000000000000e+00,9.30706977844238281e+00,2.41400527954101562e+00,4.38673019409179688e+01,8.07225322723388672e+00,0.00000000000000000e+00,0.00000000000000000e+00,0.00000000000000000e+00,0.00000000000000000e+00,5.52295684814453125e+00,0.00000000000000000e+00,0.00000000000000000e+00,0.00000000000000000e+00,0.00000000000000000e+00],"parents":[2147483647,0,0,1,1,2,2,4,4,5,5,6,6,7,7,12,12],"right_children":[2,4,6,-1,8,10,12,14,-1,-1,-1,-1,16,-1,-1,-1,-1],"split_conditions":[9.25500035285949707e-01,8.77713203430175781e+00,1.84321002960205078e+01,-9.18367326259613037e-01,2.01031169891357422e+01,1.62988197803497314e+00,3.23637127876281738e-01,4.05769824981689453e-01,-8.00000011920928955e-01,-8.85714292526245117e-01,-3.00000011920928955e-01,-5.86206912994384766e-01,5.40714263916015625e-01,3.04347813129425049e-01,-5.19999980926513672e-01,2.50000000000000000e-01,8.87850463390350342e-01],"split_indices":[8,11,0,0,1,10,10,4,0,0,0,0,3,0,0,0,0],"sum_hessian":[9.37500000000000000e+01,4.50000000000000000e+01,4.87500000000000000e+01,2.35000000000000000e+01,2.15000000000000000e+01,1.17500000000000000e+01,3.70000000000000000e+01,1.00000000000000000e+01,1.15000000000000000e+01,7.75000000000000000e+00,4.00000000000000000e+00,6.25000000000000000e+00,3.07500000000000000e+01,4.75000000000000000e+00,5.25000000000000000e+00,5.00000000000000000e+00,2.57500000000000000e+01],"tree_param":{"num_feature":"13","num_nodes":"17","size_leaf_vector":"0"}},{"base_weights":[-3.22189509868621826e-01,1.67578056454658508e-01,-1.22401785850524902e+00,-1.28167569637298584e+00,7.39058911800384521e-01,-8.21560621261596680e-01,-1.44143033027648926e+00,-5.41685461997985840e-01,9.91850852966308594e-01,-1.20243333280086517e-01,-1.14858591556549072e+00,1.07143394649028778e-01,1.21602487564086914e+00],"default_left":[true,true,true,false,true,true,false,false,false,false,false,false,false],"id":1,"leaf_child_counts":[0,1,1,0,1,2,0,0,2,0,0,0,0],"left_children":[1,3,5,-1,7,9,-1,-1,11,-1,-1,-1,-1],"loss_changes":[3.64315643310546875e+01,4.56976165771484375e+01,1.35208129882812500e+00,0.00000000000000000e+00,1.32887954711914062e+01,2.72693347930908203e+00,0.00000000000000000e+00,0.00000000000000000e+00,6.46340560913085938e+00,0.00000000000000000e+00,0.00000000000000000e+00,0.00000000000000000e+00,0.00000000000000000e+00],"parents":[2147483647,0,0,1,1,2,2,4,4,5,5,8,8],"right_children":[2,4,6,-1,8,10,-1,-1,12,-1,-1,-1,-1],"split_conditions":[1.97896995544433594e+01,1.65594997406005859e+01,2.99940967559814453e+00,-6.40837848186492920e-01,1.84847507476806641e+01,2.00854644775390625e+01,-7.20715165138244629e-01,-2.70842730998992920e-01,6.76100015640258789e-01,-6.01216666400432587e-02,-5.74292957782745361e-01,5.35716973245143890e-02,6.08012437820434570e-01],"split_indices":[1,7,2,0,0,1,0,0,10,0,0,0,0],"sum_hessian":[8.10185089111328125e+01,5.30319442749023438e+01,2.79865646362304688e+01,1.46464290618896484e+01,3.83855171203613281e+01,1.14920930862426758e+01,1.64944705963134766e+01,6.13918018341064453e+00,3.22463378906250000e+01,4.08956527709960938e+00,7.40252733230590820e+00,6.81777906417846680e+00,2.54285583496093750e+01],"tree_param":{"num_feature":"13","num_nodes":"13","size_leaf_vector":"0"}},{"base_weights":[-2.51180887222290039e-01,-6.99104011058807373e-01,2.33049824833869934e-01,-9.71310675144195557e-01,-4.76991049945354462e-02,5.97613334655761719e-01,-1.03411912918090820e+00,-4.59263414144515991e-01,-1.11735224723815918e+00,5.60525059700012207e-01,-6.44863247871398926e-01,8.76881897449493408e-01,-3.43193352222442627e-01,-1.21184790134429932e+00,-6.44373118877410889e-01,-2.80478391796350479e-02,1.15131747722625732e+00],"default_left":[true,true,true,false,true,true,false,false,true,false,false,true,false,false,false,false,false],"id":2,"leaf_child_counts":[0,0,1,1,2,1,0,0,2,0,0,2,0,0,0,0,0],"left_children":[1,3,5,7,9,11,-1,-1,13,-1,-1,15,-1,-1,-1,-1,-1],"loss_changes":[1.42091808319091797e+01,5.96312141418457031e+00,1.53401470184326172e+01,1.27042770385742188e+00,4.37130069732666016e+00,6.96981716156005859e+00,0.00000000000000000e+00,0.00000000000000000e+00,1.73702239990234375e-02,0.00000000000000000e+00,0.00000000000000000e+00,4.96285343170166016e+00,0.00000000000000000e+00,0.00000000000000000e+00,0.00000000000000000e+00,0.00000000000000000e+00,0.00000000000000000e+00],"parents":[2147483647,0,0,1,1,2,2,3,3,4,4,5,5,8,8,11,11],"right_children":[2,4,6,8,10,12,-1,-1,14,-1,-1,16,-1,-1,-1,-1,-1],"split_conditions":[9.40999984741210938e-01,1.95964980125427246e+00,5.87669491767883301e-01,3.73207569122314453e-01,3.00334477424621582e+00,2.10914993286132812e+01,-5.17059564590454102e-01,-2.29631707072257996e-01,2.05633506774902344e+01,2.80262529850006104e-01,-3.22431623935699463e-01,1.79659996032714844e+01,-1.71596676111221313e-01,-6.05923950672149658e-01,-3.22186559438705444e-01,-1.40239195898175240e-02,5.75658738613128662e-01],"split_indices":[8,10,9,4,2,7,0,0,0,0,0,7,0,0,0,0,0],"sum_hessian":[6.37596855163574219e+01,3.28910560607910156e+01,3.08686275482177734e+01,2.28510456085205078e+01,1.00400123596191406e+01,2.43822574615478516e+01,6.48636913299560547e+00,5.99084520339965820e+00,1.68602008819580078e+01,5.00434112548828125e+00,5.03567123413085938e+00,1.88536872863769531e+01,5.52857160568237305e+00,1.27506189346313477e+01,4.10958147048950195e+00,4.59612464904785156e+00,1.42575616836547852e+01],"tree_param":{"num_feature":"13","num_nodes":"17","size_leaf_vector":"0"}},{"base_weights":[-1.82486757636070251e-01,1.55118376016616821e-01,-8.27809512615203857e-01,-4.98381257057189941e-01,7.29891657829284668e-01,-1.96319401264190674e-01,-1.02487802505493164e+00,-9.17966485023498535e-01,3.27279478311538696e-01,1.10899460315704346e+00,3.36864948272705078e-01,-1.19653260707855225e+00,-6.65626823902130127e-01,-1.05112493038177490e+00,-5.15663266181945801e-01,6.59470200538635254e-01,-1.45088329911231995e-01],"default_left":[true,true,false,true,true,false,true,true,false,false,false,false,false,false,false,false,false],"id":3,"leaf_child_counts":[0,0,1,1,1,0,2,2,0,0,2,0,0,0,0,0,0],"left_children":[1,3,5,7,9,-1,11,13,-1,-1,15,-1,-1,-1,-1,-1,-1],"loss_changes":[1.24769763946533203e+01,1.46575469970703125e+01,2.24114799499511719e+00,6.67549610137939453e+00,2.70359516143798828e+00,0.00000000000000000e+00,1.11348152160644531e-01,1.25682830810546875e-01,0.00000000000000000e+00,0.00000000000000000e+00,1.89557683467864990e+00,0.00000000000000000e+00,0.00000000000000000e+00,0.00000000000000000e+00,0.00000000000000000e+00,0.00000000000000000e+00,0.00000000000000000e+00],"parents":[2147483647,0,0,1,1,2,2,3,3,4,4,6,6,7,7,10,10],"right_children":[2,4,6,8,10,-1,12,14,-1,-1,16,-1,-1,-1,-1,-1,-1],"split_conditions":[1.97897148132324219e+01,1.92257995605468750e+01,8.70833545923233032e-03,1.93683171272277832e+00,4.12291996181011200e-02,-9.81597006320953369e-02,6.55714273452758789e-01,1.84811000823974609e+01,1.63639739155769348e-01,5.54497301578521729e-01,1.91557807922363281e+01,-5.98266303539276123e-01,-3.32813411951065063e-01,-5.25562465190887451e-01,-2.57831633090972900e-01,3.29735100269317627e-01,-7.25441649556159973e-02],"split_indices":[1,0,9,10,9,0,3,0,0,0,12,0,0,0,0,0,0],"sum_hessian":[5.56800918579101562e+01,3.70544319152832031e+01,1.86256599426269531e+01,1.74019069671630859e+01,1.96525249481201172e+01,4.90480613708496094e+00,1.37208538055419922e+01,1.14642133712768555e+01,5.93769311904907227e+00,9.07619667053222656e+00,1.05763292312622070e+01,7.70749282836914062e+00,6.01336050033569336e+00,7.40159082412719727e+00,4.06262254714965820e+00,6.11488103866577148e+00,4.46144866943359375e+00],"tree_param":{"num_feature":"13","num_nodes":"17","size_leaf_vector":"0"}},{"base_weights":[-1.99766814708709717e-01,3.18698361515998840e-02,-8.08340370655059814e-01,-8.15598130226135254e-01,2.70505696535110474e-01,-1.05622637271881104e+00,-3.16064238548278809e-01,4.62018787860870361e-01,-6.67405605316162109e-01,7.27508425712585449e-01,-2.21979811787605286e-01],"default_left":[true,false,true,false,true,false,false,true,false,false,false],"id":4,"leaf_child_counts":[0,1,2,0,1,0,0,2,0,0,0],"left_children":[1,3,5,-1,7,-1,-1,9,-1,-1,-1],"loss_changes":[6.68644475936889648e+00,7.33640861511230469e+00,1.26035976409912109e+00,0.00000000000000000e+00,5.37470388412475586e+00,0.00000000000000000e+00,0.00000000000000000e+00,4.52226209640502930e+00,0.00000000000000000e+00,0.00000000000000000e+00,0.00000000000000000e+00],"parents":[2147483647,0,0,1,1,2,2,4,4,7,7],"right_children":[2,4,6,-1,8,-1,-1,10,-1,-1,-1],"split_conditions":[1.99403724670410156e+01,1.90426206588745117e+00,1.95964980125427246e+00,-4.07799065113067627e-01,6.91273510456085205e-01,-5.28113186359405518e-01,-1.58032119274139404e-01,1.94634475708007812e+01,-3.33702802658081055e-01,3.63754212856292725e-01,-1.10989905893802643e-01],"split_indices":[1,11,10,0,9,0,0,12,0,0,0],"sum_hessian":[4.62496337890625000e+01,3.41855049133300781e+01,1.20641317367553711e+01,6.97992658615112305e+00,2.72055778503417969e+01,7.26183319091796875e+00,4.80229854583740234e+00,2.30137691497802734e+01,4.19180917739868164e+00,1.65329856872558594e+01,6.48078346252441406e+00],"tree_param":{"num_feature":"13","num_nodes":"11","size_leaf_vector":"0"}},{"base_weights":[-1.58277675509452820e-01,-6.18658304214477539e-01,9.11593511700630188e-02,9.62777137756347656e-02,-9.14283454418182373e-01,3.23923468589782715e-01,-6.06010258197784424e-01,-5.53989559412002563e-02,5.69368541240692139e-01,-4.73457574844360352e-01,3.81453812122344971e-01,8.35877299308776855e-01,8.22333339601755142e-03],"default_left":[true,true,false,false,false,true,false,false,true,false,false,false,false],"id":5,"leaf_child_counts":[0,2,1,0,0,0,0,2,2,0,0,0,0],"left_children":[1,3,5,-1,-1,7,-1,9,11,-1,-1,-1,-1],"loss_changes":[4.67307567596435547e+00,3.10106182098388672e+00,4.56906270980834961e+00,0.00000000000000000e+00,0.00000000000000000e+00,1.97304940223693848e+00,0.00000000000000000e+00,1.84321951866149902e+00,1.89983272552490234e+00,0.00000000000000000e+00,0.00000000000000000e+00,0.00000000000000000e+00,0.00000000000000000e+00],"parents":[2147483647,0,0,1,1,2,2,5,5,7,7,8,8],"right_children":[2,4,6,-1,-1,8,-1,10,12,-1,-1,-1,-1],"split_conditions":[6.76100015640258789e-01,8.24999995529651642e-03,6.98779463768005371e-01,4.81388568878173828e-02,-4.57141727209091187e-01,9.25999999046325684e-01,-3.03005129098892212e-01,1.92036018371582031e+01,2.04780006408691406e+01,-2.36728787422180176e-01,1.90726906061172485e-01,4.17938649654388428e-01,4.11166669800877571e-03],"split_indices":[10,9,9,0,0,8,0,12,7,0,0,0,0],"sum_hessian":[3.92023773193359375e+01,1.32559432983398438e+01,2.59464340209960938e+01,4.07509946823120117e+00,9.18084335327148438e+00,1.98533630371093750e+01,6.09307193756103516e+00,8.10374355316162109e+00,1.17496185302734375e+01,4.09813022613525391e+00,4.00561380386352539e+00,7.63424158096313477e+00,4.11537742614746094e+00],"tree_param":{"num_feature":"13","num_nodes":"13","size_leaf_vector":"0"}},{"base_weights":[-6.99036493897438049e-02,-2.77210593223571777e-01,2.92094409465789795e-01,-3.08867394924163818e-02,-6.47201538085937500e-01,-1.77461192011833191e-01,5.59923589229583740e-01,-3.56024920940399170e-01,7.04834699630737305e-01,-2.10140645503997803e-01,-9.40312147140502930e-01,9.12836611270904541e-01,1.05625040829181671e-01,-8.48873317241668701e-01,1.42204582691192627e-01],"default_left":[true,true,false,true,true,false,false,true,false,false,false,false,false,false,false],"id":6,"leaf_child_counts":[0,0,1,1,2,0,2,2,0,0,0,0,0,0,0],"left_children":[1,3,5,7,9,-1,11,13,-1,-1,-1,-1,-1,-1,-1],"loss_changes":[2.85390639305114746e+00,2.16807460784912109e+00,1.85272979736328125e+00,3.94986081123352051e+00,1.02523112297058105e+00,0.00000000000000000e+00,1.36557388305664062e+00,2.91710853576660156e+00,0.00000000000000000e+00,0.00000000000000000e+00,0.00000000000000000e+00,0.00000000000000000e+00,0.00000000000000000e+00,0.00000000000000000e+00,0.00000000000000000e+00],"parents":[2147483647,0,0,1,1,2,2,3,3,4,4,6,6,7,7],"right_children":[2,4,6,8,10,-1,12,14,-1,-1,-1,-1,-1,-1,-1],"split_conditions":[1.98098773956298828e+01,1.94530448913574219e+01,2.07187175750732422e-01,1.96628456115722656e+01,2.99015045166015625e+00,-8.87305960059165955e-02,3.53803558349609375e+01,9.81500029563903809e-01,3.52417349815368652e-01,-1.05070322751998901e-01,-4.70156073570251465e-01,4.56418305635452271e-01,5.28125204145908356e-02,-4.24436658620834351e-01,7.11022913455963135e-02],"split_indices":[11,1,4,0,2,0,11,8,0,0,0,0,0,0,0],"sum_hessian":[3.59504356384277344e+01,2.30083599090576172e+01,1.29420738220214844e+01,1.44630022048950195e+01,8.54535770416259766e+00,4.82330656051635742e+00,8.11876678466796875e+00,1.03882150650024414e+01,4.07478761672973633e+00,4.11956167221069336e+00,4.42579650878906250e+00,4.00118923187255859e+00,4.11757755279541016e+00,4.86850881576538086e+00,5.51970624923706055e+00],"tree_param":{"num_feature":"13","num_nodes":"15","size_leaf_vector":"0"}},{"base_weights":[-8.39661732316017151e-02,-6.52858197689056396e-01,6.46511465311050415e-02,7.10858404636383057e-01,-2.58561134338378906e-01,3.55603218078613281e-01,8.96062076091766357e-01,1.02611705660820007e-01,-9.31717991828918457e-01,4.00279313325881958e-01,-4.63537245988845825e-01],"default_left":[true,false,true,true,true,false,false,true,false,false,false],"id":7,"leaf_child_counts":[1,0,0,2,1,0,0,2,0,0,0],"left_children":[1,-1,3,5,7,-1,-1,9,-1,-1,-1],"loss_changes":[3.04819369316101074e+00,0.00000000000000000e+00,6.26159620285034180e+00,3.37246894836425781e-01,4.98992919921875000e+00,0.00000000000000000e+00,0.00000000000000000e+00,2.54525780677795410e+00,0.00000000000000000e+00,0.00000000000000000e+00,0.00000000000000000e+00],"parents":[2147483647,0,0,2,2,3,3,4,4,7,7],"right_children":[2,-1,4,6,8,-1,-1,10,-1,-1,-1],"split_conditions":[1.84321002960205078e+01,-3.26429098844528198e-01,1.90041694641113281e+01,6.56666636466979980e-01,3.07269668579101562e+00,1.77801609039306641e-01,4.48031038045883179e-01,2.12049999237060547e+01,-4.65858995914459229e-01,2.00139656662940979e-01,-2.31768622994422913e-01],"split_indices":[0,0,1,3,2,0,0,7,0,0,0],"sum_hessian":[3.45539321899414062e+01,6.45437145233154297e+00,2.80995597839355469e+01,8.96874523162841797e+00,1.91308155059814453e+01,4.07404088973999023e+00,4.89470434188842773e+00,1.30022220611572266e+01,6.12859296798706055e+00,8.71372985839843750e+00,4.28849220275878906e+00],"tree_param":{"num_feature":"13","num_nodes":"11","size_leaf_vector":"0"}},{"base_weights":[-7.78649374842643738e-02,-7.81270682811737061e-01,6.30816668272018433e-02,-8.17282125353813171e-02,7.32018530368804932e-01,-7.01364755630493164e-01,1.69191807508468628e-01,3.57704728841781616e-01,-3.56478929519653320e-01],"default_left":[true,false,true,true,false,false,true,false,false],"id":8,"leaf_child_counts":[1,0,1,1,0,0,2,0,0],"left_children":[1,-1,3,5,-1,-1,7,-1,-1],"loss_changes":[3.23313951492309570e+00,0.00000000000000000e+00,2.74100065231323242e+00,3.79613852500915527e+00,0.00000000000000000e+00,0.00000000000000000e+00,1.87564301490783691e+00,0.00000000000000000e+00,0.00000000000000000e+00],"parents":[2147483647,0,0,2,2,3,3,6,6],"right_children":[2,-1,4,6,-1,-1,8,-1,-1],"split_conditions":[1.98895835876464844e+00,-3.90635341405868530e-01,2.05897483825683594e+01,8.79999995231628418e-01,3.66009265184402466e-01,-3.50682377815246582e-01,1.95570793151855469e+01,1.78852364420890808e-01,-1.78239464759826660e-01],"split_indices":[2,0,0,8,0,0,1,0,0],"sum_hessian":[3.11138820648193359e+01,4.43543720245361328e+00,2.66784458160400391e+01,2.26525077819824219e+01,4.02593755722045898e+00,6.01169776916503906e+00,1.66408100128173828e+01,1.24835577011108398e+01,4.15725231170654297e+00],"tree_param":{"num_feature":"13","num_nodes":"9","size_leaf_vector":"0"}},{"base_weights":[-9.37463808804750443e-03,-3.00948798656463623e-01,2.66353517770767212e-01,4.35215048491954803e-02,-7.10383474826812744e-01,-2.60542005300521851e-01,4.67770755290985107e-01,-5.02495110034942627e-01,5.66632032394409180e-01,1.96101486682891846e-01,8.45464348793029785e-01],"default_left":[false,false,true,false,false,false,true,false,false,false,false],"id":9,"leaf_child_counts":[0,1,1,2,0,0,2,0,0,0,0],"left_children":[1,3,5,7,-1,-1,9,-1,-1,-1,-1],"loss_changes":[2.66141390800476074e+00,2.29805326461791992e+00,1.92945599555969238e+00,3.04736304283142090e+00,0.00000000000000000e+00,0.00000000000000000e+00,1.13524866104125977e+00,0.00000000000000000e+00,0.00000000000000000e+00,0.00000000000000000e+00,0.00000000000000000e+00],"parents":[2147483647,0,0,1,1,2,2,3,3,6,6],"right_children":[2,4,6,8,-1,-1,10,-1,-1,-1,-1],"split_conditions":[1.98534355163574219e+01,1.91208305358886719e+01,7.68379688262939453e-01,1.77211952209472656e+01,-3.55191737413406372e-01,-1.30271002650260925e-01,9.62499976158142090e-01,-2.51247555017471313e-01,2.83316016197204590e-01,9.80507433414459229e-02,4.22732174396514893e-01],"split_indices":[11,12,6,12,0,0,8,0,0,0,0],"sum_hessian":[3.11070766448974609e+01,1.50746374130249023e+01,1.60324401855468750e+01,8.67217063903808594e+00,6.40246677398681641e+00,4.35264253616333008e+00,1.16797981262207031e+01,4.26246690750122070e+00,4.40970325469970703e+00,7.67703294754028320e+00,4.00276517868041992e+00],"tree_param":{"num_feature":"13","num_nodes":"11","size_leaf_vector":"0"}},{"base_weights":[-7.86426384001970291e-03,1.38759553432464600e-01,-6.10258698463439941e-01,-3.04515957832336426e-02,7.96066761016845703e-01,2.29949548840522766e-01,-6.00330352783203125e-01,-1.72911882400512695e-01,6.64908289909362793e-01],"default_left":[true,true,false,true,false,true,false,false,false],"id":10,"leaf_child_counts":[1,1,0,1,0,2,0,0,0],"left_children":[1,3,-1,5,-1,7,-1,-1,-1],"loss_changes":[2.68315577507019043e+00,2.74645638465881348e+00,0.00000000000000000e+00,3.16943502426147461e+00,0.00000000000000000e+00,2.69851517677307129e+00,0.00000000000000000e+00,0.00000000000000000e+00,0.00000000000000000e+00],"parents":[2147483647,0,0,1,1,3,3,5,5],"right_children":[2,4,-1,6,-1,8,-1,-1,-1],"split_conditions":[2.01031169891357422e+01,2.02420005798339844e+01,-3.05129349231719971e-01,2.10914993286132812e+01,3.98033380508422852e-01,6.91666841506958008e-01,-3.00165176391601562e-01,-8.64559412002563477e-02,3.32454144954681396e-01],"split_indices":[1,0,0,7,0,3,0,0,0],"sum_hessian":[2.84193668365478516e+01,2.34751338958740234e+01,4.94423341751098633e+00,1.94275531768798828e+01,4.04757928848266602e+00,1.37438945770263672e+01,5.68365907669067383e+00,7.44798755645751953e+00,6.29590702056884766e+00],"tree_param":{"num_feature":"13","num_nodes":"9","size_leaf_vector":"0"}},{"base_weights":[5.57667426764965057e-02,-2.05532208085060120e-01,3.35580766201019287e-01,7.89591446518898010e-02,-6.09223723411560059e-01,7.83787667751312256e-01,3.23424674570560455e-02,-4.62072163820266724e-01,5.59788584709167480e-01,2.56790697574615479e-01,-2.01695784926414490e-01],"default_left":[true,true,true,true,false,false,true,false,false,false,false],"id":11,"leaf_child_counts":[0,1,1,2,0,0,2,0,0,0,0],"left_children":[1,3,5,7,-1,-1,9,-1,-1,-1,-1],"loss_changes":[2.05291414260864258e+00,1.73079705238342285e+00,1.80715239048004150e+00,2.72482299804687500e+00,0.00000000000000000e+00,0.00000000000000000e+00,5.29024958610534668e-01,0.00000000000000000e+00,0.00000000000000000e+00,0.00000000000000000e+00,0.00000000000000000e+00],"parents":[2147483647,0,0,1,1,2,2,3,3,6,6],"right_children":[2,4,6,8,-1,-1,10,-1,-1,-1,-1],"split_conditions":[1.95964980125427246e+00,1.99864997863769531e+01,2.15245008468627930e+00,1.91669254302978516e+01,-3.04611861705780029e-01,3.91893833875656128e-01,1.94246349334716797e+01,-2.31036081910133362e-01,2.79894292354583740e-01,1.28395348787307739e-01,-1.00847892463207245e-01],"split_indices":[10,0,6,0,0,0,1,0,0,0,0],"sum_hessian":[2.61344928741455078e+01,1.36516399383544922e+01,1.24828529357910156e+01,8.47999000549316406e+00,5.17165040969848633e+00,4.39783191680908203e+00,8.08502101898193359e+00,4.00855588912963867e+00,4.47143363952636719e+00,4.07744169235229492e+00,4.00757980346679688e+00],"tree_param":{"num_feature":"13","num_nodes":"11","size_leaf_vector":"0"}},{"base_weights":[-4.25770841538906097e-02,3.69020670652389526e-01,-2.12501421570777893e-01,-5.63846230506896973e-01,9.70688462257385254e-02,-2.31155499815940857e-01,4.86689656972885132e-01],"default_left":[true,false,false,false,false,false,false],"id":12,"leaf_child_counts":[1,0,1,0,2,0,0],"left_children":[1,-1,3,-1,5,-1,-1],"loss_changes":[1.76777052879333496e+00,0.00000000000000000e+00,1.98323202133178711e+00,0.00000000000000000e+00,1.42699205875396729e+00,0.00000000000000000e+00,0.00000000000000000e+00],"parents":[2147483647,0,0,2,2,4,4],"right_children":[2,-1,4,-1,6,-1,-1],"split_conditions":[8.70833545923233032e-03,1.84510335326194763e-01,2.10815489292144775e-01,-2.81923115253448486e-01,3.47271060943603516e+00,-1.15577749907970428e-01,2.43344828486442566e-01],"split_indices":[9,0,9,0,4,0,0],"sum_hessian":[2.31541557312011719e+01,6.42341566085815430e+00,1.67307395935058594e+01,7.45188570022583008e+00,9.27885437011718750e+00,5.25698328018188477e+00,4.02187061309814453e+00],"tree_param":{"num_feature":"13","num_nodes":"7","size_leaf_vector":"0"}},{"base_weights":[3.19358184933662415e-02,-4.19734597206115723e-01,1.78650259971618652e-01,4.92433309555053711e-01,-1.36366054415702820e-01,3.11994608491659164e-02,7.88155794143676758e-01,-5.17186999320983887e-01,2.28562667965888977e-01],"default_left":[false,false,false,false,false,false,false,false,false],"id":13,"leaf_child_counts":[1,0,0,2,2,0,0,0,0],"left_children":[1,-1,3,5,7,-1,-1,-1,-1],"loss_changes":[1.75913846492767334e+00,0.00000000000000000e+00,2.03271508216857910e+00,1.36377620697021484e+00,1.60606467723846436e+00,0.00000000000000000e+00,0.00000000000000000e+00,0.00000000000000000e+00,0.00000000000000000e+00],"parents":[2147483647,0,0,2,2,3,3,4,4],"right_children":[2,-1,4,6,8,-1,-1,-1,-1],"split_conditions":[7.01519536972045898e+00,-2.09867298603057861e-01,1.94634475708007812e+01,1.77944946289062500e+01,2.98225998878479004e-01,1.55997304245829582e-02,3.94077897071838379e-01,-2.58593499660491943e-01,1.14281333982944489e-01],"split_indices":[11,0,12,12,9,0,0,0,0],"sum_hessian":[2.44148178100585938e+01,5.52986288070678711e+00,1.88849544525146484e+01,9.17884445190429688e+00,9.70611000061035156e+00,4.01781797409057617e+00,5.16102695465087891e+00,4.54546642303466797e+00,5.16064405441284180e+00],"tree_param":{"num_feature":"13","num_nodes":"9","size_leaf_vector":"0"}},{"base_weights":[1.82310082018375397e-02,1.69202178716659546e-01,-4.48821723461151123e-01,-3.02560180425643921e-01,3.02265316247940063e-01,7.27016180753707886e-02,5.71272790431976318e-01,4.07662689685821533e-01,-2.38857969641685486e-01],"default_left":[true,true,false,false,true,true,false,false,false],"id":14,"leaf_child_counts":[1,1,0,0,1,2,0,0,0],"left_children":[1,3,-1,-1,5,7,-1,-1,-1],"loss_changes":[1.93644797801971436e+00,1.38877820968627930e+00,0.00000000000000000e+00,0.00000000000000000e+00,9.84830141067504883e-01,1.15280079841613770e+00,0.00000000000000000e+00,0.00000000000000000e+00,0.00000000000000000e+00],"parents":[2147483647,0,0,1,1,4,4,5,5],"right_children":[2,4,-1,-1,6,8,-1,-1,-1],"split_conditions":[2.99323511123657227e+00,1.89327011108398438e+01,-2.24410861730575562e-01,-1.51280090212821960e-01,2.89704847335815430e+00,3.67916524410247803e-02,2.85636395215988159e-01,2.03831344842910767e-01,-1.19428984820842743e-01],"split_indices":[5,0,0,0,5,9,0,0,0],"sum_hessian":[2.53858604431152344e+01,1.96665306091308594e+01,5.71932983398437500e+00,4.04644584655761719e+00,1.56200857162475586e+01,9.11330032348632812e+00,6.50678539276123047e+00,4.24307060241699219e+00,4.87022924423217773e+00],"tree_param":{"num_feature":"13","num_nodes":"9","size_leaf_vector":"0"}},{"base_weights":[-2.17116288840770721e-02,3.13012778759002686e-01,-1.75894752144813538e-01,-4.89825487136840820e-01,6.63531720638275146e-02,-2.78206318616867065e-01,4.44207668304443359e-01],"default_left":[false,false,true,false,true,false,false],"id":15,"leaf_child_counts":[1,0,1,0,2,0,0],"left_children":[1,-1,3,-1,5,-1,-1],"loss_changes":[1.36832857131958008e+00,0.00000000000000000e+00,1.40609550476074219e+00,0.00000000000000000e+00,1.56555354595184326e+00,0.00000000000000000e+00,0.00000000000000000e+00],"parents":[2147483647,0,0,2,2,4,4],"right_children":[2,-1,4,-1,6,-1,-1],"split_conditions":[4.08720485866069794e-02,1.56506389379501343e-01,1.78950634002685547e+01,-2.44912743568420410e-01,-3.82052421569824219e-01,-1.39103159308433533e-01,2.22103834152221680e-01],"split_indices":[9,0,12,0,4,0,0],"sum_hessian":[2.44466247558593750e+01,7.38468360900878906e+00,1.70619411468505859e+01,6.98632049560546875e+00,1.00756216049194336e+01,5.40793371200561523e+00,4.66768741607666016e+00],"tree_param":{"num_feature":"13","num_nodes":"7","size_leaf_vector":"0"}},{"base_weights":[3.53375859558582306e-02,1.49537637829780579e-01,-4.18088167905807495e-01,2.92525291442871094e-01,-2.26237893104553223e-01,5.11242508888244629e-01,-2.44984686374664307e-01,9.40944254398345947e-02,7.89878666400909424e-01],"default_left":[true,true,false,true,false,true,false,false,false],"id":16,"leaf_child_counts":[1,1,0,1,0,2,0,0,0],"left_children":[1,3,-1,5,-1,7,-1,-1,-1],"loss_changes":[1.32047843933105469e+00,1.14846944808959961e+00,0.00000000000000000e+00,1.89183700084686279e+00,0.00000000000000000e+00,1.20477843284606934e+00,0.00000000000000000e+00,0.00000000000000000e+00,0.00000000000000000e+00],"parents":[2147483647,0,0,1,1,3,3,5,5],"right_children":[2,4,-1,6,-1,8,-1,-1,-1],"split_conditions":[2.01031169891357422e+01,7.35000014305114746e-01,-2.09044083952903748e-01,-2.43830680847167969e-02,-1.13118946552276611e-01,5.74523806571960449e-01,-1.22492343187332153e-01,4.70472127199172974e-02,3.94939333200454712e-01],"split_indices":[1,3,0,4,0,3,0,0,0],"sum_hessian":[2.32937068939208984e+01,1.91426372528076172e+01,4.15107011795043945e+00,1.40267953872680664e+01,5.11584138870239258e+00,1.00046787261962891e+01,4.02211666107177734e+00,4.54220724105834961e+00,5.46247196197509766e+00],"tree_param":{"num_feature":"13","num_nodes":"9","size_leaf_vector":"0"}},{"base_weights":[-2.24300511181354523e-02,9.56264287233352661e-02,-2.78068602085113525e-01,-3.93850535154342651e-01,3.12112629413604736e-01,5.13993144035339355e-01,-2.18217559158802032e-02],"default_left":[true,true,false,false,true,false,false],"id":17,"leaf_child_counts":[1,1,0,0,2,0,0],"left_children":[1,3,-1,-1,5,-1,-1],"loss_changes":[7.26940274238586426e-01,1.88394594192504883e+00,0.00000000000000000e+00,0.00000000000000000e+00,8.25623631477355957e-01,0.00000000000000000e+00,0.00000000000000000e+00],"parents":[2147483647,0,0,1,1,4,4],"right_children":[2,4,-1,-1,6,-1,-1],"split_conditions":[2.12880001068115234e+01,8.47000002861022949e-01,-1.39034301042556763e-01,-1.96925267577171326e-01,3.07314229011535645e+00,2.56996572017669678e-01,-1.09108779579401016e-02],"split_indices":[7,8,0,0,2,0,0],"sum_hessian":[2.22059116363525391e+01,1.56188840866088867e+01,6.58702802658081055e+00,4.53835105895996094e+00,1.10805330276489258e+01,6.56964254379272461e+00,4.51089096069335938e+00],"tree_param":{"num_feature":"13","num_nodes":"7","size_leaf_vector":"0"}},{"base_weights":[-1.51294621173292398e-03,-1.18332386016845703e-01,4.21284258365631104e-01,2.74715479463338852e-02,-5.31963527202606201e-01,2.13186815381050110e-01,-3.83630305528640747e-01,-6.05616495013237000e-02,5.46606302261352539e-01],"default_left":[true,false,false,true,false,true,false,false,false],"id":18,"leaf_child_counts":[1,1,0,1,0,2,0,0,0],"left_children":[1,3,-1,5,-1,7,-1,-1,-1],"loss_changes":[1.21860218048095703e+00,1.17985773086547852e+00,0.00000000000000000e+00,1.24505746364593506e+00,0.00000000000000000e+00,1.04970645904541016e+00,0.00000000000000000e+00,0.00000000000000000e+00,0.00000000000000000e+00],"parents":[2147483647,0,0,1,1,3,3,5,5],"right_children":[2,4,-1,6,-1,8,-1,-1,-1],"split_conditions":[7.01866817474365234e+00,5.08434534072875977e-01,2.10642129182815552e-01,1.94634475708007812e+01,-2.65981763601303101e-01,1.81259613037109375e+01,-1.91815152764320374e-01,-3.02808247506618500e-02,2.73303151130676270e-01],"split_indices":[10,9,0,12,0,12,0,0,0],"sum_hessian":[2.26632633209228516e+01,1.83212089538574219e+01,4.34205436706542969e+00,1.42364730834960938e+01,4.08473587036132812e+00,1.01380395889282227e+01,4.09843349456787109e+00,6.01658535003662109e+00,4.12145376205444336e+00],"tree_param":{"num_feature":"13","num_nodes":"9","size_leaf_vector":"0"}},{"base_weights":[-5.45410662889480591e-02,1.45683035254478455e-01,-3.95050913095474243e-01,-1.57237723469734192e-01,4.76388216018676758e-01],"default_left":[true,false,false,false,false],"id":19,"leaf_child_counts":[1,2,0,0,0],"left_children":[1,3,-1,-1,-1],"loss_changes":[1.53364288806915283e+00,1.51388156414031982e+00,0.00000000000000000e+00,0.00000000000000000e+00,0.00000000000000000e+00],"parents":[2147483647,0,0,1,1],"right_children":[2,4,-1,-1,-1],"split_conditions":[1.96767215728759766e+01,1.81933326721191406e+01,-1.97525456547737122e-01,-7.86188617348670959e-02,2.38194108009338379e-01],"split_indices":[1,11,0,0,0],"sum_hessian":[2.06504535675048828e+01,1.33642616271972656e+01,7.28619337081909180e+00,7.24891090393066406e+00,6.11535024642944336e+00],"tree_param":{"num_feature":"13","num_nodes":"5","size_leaf_vector":"0"}},{"base_weights":[-1.17485458031296730e-02,-3.45314651727676392e-01,9.04081761837005615e-02,2.88347661495208740e-01,-1.60404458642005920e-01,5.65191209316253662e-01,-5.24373576045036316e-02],"default_left":[true,false,true,false,false,false,false],"id":20,"leaf_child_counts":[1,0,1,2,0,0,0],"left_children":[1,-1,3,5,-1,-1,-1],"loss_changes":[7.45309233665466309e-01,0.00000000000000000e+00,8.82045269012451172e-01,9.51077401638031006e-01,0.00000000000000000e+00,0.00000000000000000e+00,0.00000000000000000e+00],"parents":[2147483647,0,0,2,2,3,3],"right_children":[2,-1,4,6,-1,-1,-1],"split_conditions":[1.75475006103515625e+01,-1.72657325863838196e-01,6.72142863273620605e-01,2.30315818786621094e+01,-8.02022293210029602e-02,2.82595604658126831e-01,-2.62186788022518158e-02],"split_indices":[7,0,3,11,0,0,0],"sum_hessian":[1.99557933807373047e+01,4.12064838409423828e+00,1.58351449966430664e+01,8.76679897308349609e+00,7.06834650039672852e+00,4.47386598587036133e+00,4.29293251037597656e+00],"tree_param":{"num_feature":"13","num_nodes":"7","size_leaf_vector":"0"}},{"base_weights":[2.59597860276699066e-02,-8.50429981946945190e-02,3.43896001577377319e-01,-2.41662353277206421e-01,2.41701722145080566e-01,1.02447055280208588e-01,-5.40049433708190918e-01],"default_left":[true,true,false,true,false,false,false],"id":21,"leaf_child_counts":[1,1,0,2,0,0,0],"left_children":[1,3,-1,5,-1,-1,-1],"loss_changes":[7.82200217247009277e-01,9.08708214759826660e-01,0.00000000000000000e+00,1.25993156433105469e+00,0.00000000000000000e+00,0.00000000000000000e+00,0.00000000000000000e+00],"parents":[2147483647,0,0,1,1,3,3],"right_children":[2,4,-1,6,-1,-1,-1],"split_conditions":[2.03435001373291016e+01,-8.58364105224609375e-02,1.71948000788688660e-01,1.89446125030517578e+01,1.20850861072540283e-01,5.12235276401042938e-02,-2.70024716854095459e-01],"split_indices":[0,4,0,1,0,0,0],"sum_hessian":[2.03351039886474609e+01,1.56156444549560547e+01,4.71945858001708984e+00,1.07318935394287109e+01,4.88375091552734375e+00,5.28905391693115234e+00,5.44283962249755859e+00],"tree_param":{"num_feature":"13","num_nodes":"7","size_leaf_vector":"0"}},{"base_weights":[-1.75597686320543289e-02,1.12710021436214447e-01,-3.01649361848831177e-01,3.64907443523406982e-01,-7.74149820208549500e-02,2.13256761431694031e-01,-3.84679764509201050e-01],"default_left":[true,true,false,false,true,false,false],"id":22,"leaf_child_counts":[1,1,0,0,2,0,0],"left_children":[1,3,-1,-1,5,-1,-1],"loss_changes":[8.23026061058044434e-01,7.64047503471374512e-01,0.00000000000000000e+00,0.00000000000000000e+00,9.37158048152923584e-01,0.00000000000000000e+00,0.00000000000000000e+00],"parents":[2147483647,0,0,1,1,4,4],"right_children":[2,4,-1,-1,6,-1,-1],"split_conditions":[2.12880001068115234e+01,1.90041694641113281e+01,-1.50824680924415588e-01,1.82453721761703491e-01,3.05588555335998535e+00,1.06628380715847015e-01,-1.92339882254600525e-01],"split_indices":[7,1,0,0,2,0,0],"sum_hessian":[2.03202819824218750e+01,1.43454217910766602e+01,5.97485971450805664e+00,5.77099561691284180e+00,8.57442569732666016e+00,4.56340599060058594e+00,4.01102018356323242e+00],"tree_param":{"num_feature":"13","num_nodes":"7","size_leaf_vector":"0"}},{"base_weights":[-3.23728919029235840e-02,-2.32434511184692383e-01,1.97290122509002686e-01,-6.21804952621459961e-01,9.96867492794990540e-02,-8.78853276371955872e-02,4.20107215642929077e-01],"default_left":[true,true,true,false,false,false,false],"id":23,"leaf_child_counts":[0,2,2,0,0,0,0],"left_children":[1,3,5,-1,-1,-1,-1],"loss_changes":[9.38706934452056885e-01,1.46438169479370117e+00,6.46144926548004150e-01,0.00000000000000000e+00,0.00000000000000000e+00,0.00000000000000000e+00,0.00000000000000000e+00],"parents":[2147483647,0,0,1,1,2,2],"right_children":[2,4,6,-1,-1,-1,-1],"split_conditions":[1.82525491714477539e+00,6.36666834354400635e-01,2.07536995410919189e-01,-3.10902476310729980e-01,4.98433746397495270e-02,-4.39426638185977936e-02,2.10053607821464539e-01],"split_indices":[6,3,9,0,0,0,0],"sum_hessian":[1.84322738647460938e+01,9.84453678131103516e+00,8.58773708343505859e+00,4.13018798828125000e+00,5.71434879302978516e+00,4.03239488601684570e+00,4.55534267425537109e+00],"tree_param":{"num_feature":"13","num_nodes":"7","size_leaf_vector":"0"}},{"base_weights":[7.15171545743942261e-02,-3.24894368648529053e-01,1.97570323944091797e-01,4.48177576065063477e-01,-1.99512213468551636e-01,6.43743097782135010e-01,1.38216510415077209e-01],"default_left":[true,false,true,true,false,false,false],"id":24,"leaf_child_counts":[1,0,1,2,0,0,0],"left_children":[1,-1,3,5,-1,-1,-1],"loss_changes":[1.04607760906219482e+00,0.00000000000000000e+00,1.63492834568023682e+00,5.06876230239868164e-01,0.00000000000000000e+00,0.00000000000000000e+00,0.00000000000000000e+00],"parents":[2147483647,0,0,2,2,3,3],"right_children":[2,-1,4,6,-1,-1,-1],"split_conditions":[1.89201278686523438e+01,-1.62447184324264526e-01,1.97896995544433594e+01,1.90738277435302734e+01,-9.97561067342758179e-02,3.21871548891067505e-01,6.91082552075386047e-02],"split_indices":[0,0,1,12,0,0,0],"sum_hessian":[1.86499710083007812e+01,4.11902856826782227e+00,1.45309429168701172e+01,8.82967281341552734e+00,5.70127058029174805e+00,4.75360345840454102e+00,4.07606935501098633e+00],"tree_param":{"num_feature":"13","num_nodes":"7","size_leaf_vector":"0"}},{"base_weights":[-1.78792662918567657e-02,-1.37947186827659607e-01,3.15738797187805176e-01,2.02038809657096863e-01,-3.17604899406433105e-01,-2.75688599795103073e-02,-5.47354102134704590e-01],"default_left":[true,true,false,false,true,false,false],"id":25,"leaf_child_counts":[1,1,0,0,2,0,0],"left_children":[1,3,-1,-1,5,-1,-1],"loss_changes":[8.24281454086303711e-01,9.82111096382141113e-01,0.00000000000000000e+00,0.00000000000000000e+00,6.66012287139892578e-01,0.00000000000000000e+00,0.00000000000000000e+00],"parents":[2147483647,0,0,1,1,4,4],"right_children":[2,4,-1,-1,6,-1,-1],"split_conditions":[2.03435001373291016e+01,3.95625010132789612e-02,1.57869398593902588e-01,1.01019404828548431e-01,1.87421722412109375e+01,-1.37844299897551537e-02,-2.73677051067352295e-01],"split_indices":[0,9,0,0,1,0,0],"sum_hessian":[1.84904651641845703e+01,1.40282583236694336e+01,4.46220731735229492e+00,4.80695438385009766e+00,9.22130298614501953e+00,4.57093620300292969e+00,4.65036725997924805e+00],"tree_param":{"num_feature":"13","num_nodes":"7","size_leaf_vector":"0"}},{"base_weights":[3.77381257712841034e-02,-2.13586732745170593e-01,1.79528892040252686e-01,-1.40063673257827759e-01,3.58902603387832642e-01],"default_left":[true,false,false,false,false],"id":26,"leaf_child_counts":[1,0,2,0,0],"left_children":[1,-1,3,-1,-1],"loss_changes":[7.19510912895202637e-01,0.00000000000000000e+00,7.81967282295227051e-01,0.00000000000000000e+00,0.00000000000000000e+00],"parents":[2147483647,0,0,2,2],"right_children":[2,-1,4,-1,-1],"split_conditions":[8.99505424499511719e+00,-1.06793366372585297e-01,3.19910496473312378e-02,-7.00318366289138794e-02,1.79451301693916321e-01],"split_indices":[11,0,9,0,0],"sum_hessian":[1.81147899627685547e+01,6.35109281539916992e+00,1.17636966705322266e+01,4.30772209167480469e+00,7.45597457885742188e+00],"tree_param":{"num_feature":"13","num_nodes":"5","size_leaf_vector":"0"}},{"base_weights":[7.48610310256481171e-03,9.39143896102905273e-02,-2.52718687057495117e-01,2.34798759222030640e-01,-1.38325199484825134e-01,-4.14309762418270111e-02,4.52004402875900269e-01],"default_left":[false,true,false,false,false,false,false],"id":27,"leaf_child_counts":[1,1,0,2,0,0,0],"left_children":[1,3,-1,5,-1,-1,-1],"loss_changes":[4.54254508018493652e-01,5.26516079902648926e-01,0.00000000000000000e+00,6.04848206043243408e-01,0.00000000000000000e+00,0.00000000000000000e+00,0.00000000000000000e+00],"parents":[2147483647,0,0,1,1,3,3],"right_children":[2,4,-1,6,-1,-1,-1],"split_conditions":[6.03843986988067627e-01,2.15245008468627930e+00,-1.26359343528747559e-01,1.12798619270324707e+00,-6.91625997424125671e-02,-2.07154881209135056e-02,2.26002201437950134e-01],"split_indices":[9,6,0,10,0,0,0],"sum_hessian":[1.81435623168945312e+01,1.40994386672973633e+01,4.04412221908569336e+00,8.76890563964843750e+00,5.33053350448608398e+00,4.21621656417846680e+00,4.55268907546997070e+00],"tree_param":{"num_feature":"13","num_nodes":"7","size_leaf_vector":"0"}},{"base_weights":[-8.57566669583320618e-03,1.05034597218036652e-01,-3.08422476053237915e-01,-2.64273822307586670e-01,2.79393106698989868e-01,4.74031746387481689e-01,2.27589234709739685e-02],"default_left":[true,false,false,false,true,false,false],"id":28,"leaf_child_counts":[1,1,0,0,2,0,0],"left_children":[1,3,-1,-1,5,-1,-1],"loss_changes":[6.63772225379943848e-01,9.87382411956787109e-01,0.00000000000000000e+00,0.00000000000000000e+00,4.94883596897125244e-01,0.00000000000000000e+00,0.00000000000000000e+00],"parents":[2147483647,0,0,1,1,4,4],"right_children":[2,4,-1,-1,6,-1,-1],"split_conditions":[1.99403724670410156e+01,2.81214714050292969e-02,-1.54211238026618958e-01,-1.32136911153793335e-01,3.04222822189331055e+00,2.37015873193740845e-01,1.13794617354869843e-02],"split_indices":[1,4,0,0,2,0,0],"sum_hessian":[1.75341167449951172e+01,1.31872482299804688e+01,4.34686803817749023e+00,4.06387329101562500e+00,9.12337493896484375e+00,4.70662546157836914e+00,4.41674947738647461e+00],"tree_param":{"num_feature":"13","num_nodes":"7","size_leaf_vector":"0"}},{"base_weights":[3.76562681049108505e-03,-1.98738113045692444e-01,1.54044523835182190e-01,4.47536230087280273e-01,-2.03519612550735474e-01],"default_left":[true,false,true,false,false],"id":29,"leaf_child_counts":[1,0,2,0,0],"left_children":[1,-1,3,-1,-1],"loss_changes":[5.85449695587158203e-01,0.00000000000000000e+00,1.24846971035003662e+00,0.00000000000000000e+00,0.00000000000000000e+00],"parents":[2147483647,0,0,2,2],"right_children":[2,-1,4,-1,-1],"split_conditions":[1.96628456115722656e+01,-9.93690565228462219e-02,6.61428511142730713e-01,2.23768115043640137e-01,-1.01759806275367737e-01],"split_indices":[0,0,3,0,0],"sum_hessian":[1.72319431304931641e+01,7.20312738418579102e+00,1.00288162231445312e+01,5.36969709396362305e+00,4.65911865234375000e+00],"tree_param":{"num_feature":"13","num_nodes":"5","size_leaf_vector":"0"}},{"base_weights":[-6.35485649108886719e-02,-2.29280129075050354e-01,1.08301110565662384e-01,-1.90850161015987396e-02,-3.82296949625015259e-01,-1.90788686275482178e-01,3.73940557241439819e-01],"default_left":[false,true,false,false,false,false,false],"id":30,"leaf_child_counts":[0,2,2,0,0,0,0],"left_children":[1,3,5,-1,-1,-1,-1],"loss_changes":[5.39111256599426270e-01,2.98672378063201904e-01,8.29619586467742920e-01,0.00000000000000000e+00,0.00000000000000000e+00,0.00000000000000000e+00,0.00000000000000000e+00],"parents":[2147483647,0,0,1,1,2,2],"right_children":[2,4,6,-1,-1,-1,-1],"split_conditions":[2.10815489292144775e-01,1.54150998592376709e+00,2.72488880157470703e+00,-9.54250805079936981e-03,-1.91148474812507629e-01,-9.53943431377410889e-02,1.86970278620719910e-01],"split_indices":[9,6,10,0,0,0,0],"sum_hessian":[1.70570030212402344e+01,8.51294326782226562e+00,8.54405975341796875e+00,4.06023359298706055e+00,4.45270967483520508e+00,4.15152931213378906e+00,4.39253044128417969e+00],"tree_param":{"num_feature":"13","num_nodes":"7","size_leaf_vector":"0"}},{"base_weights":[-1.75732362549751997e-03,1.17000289261341095e-01,-2.91982084512710571e-01,-2.00728580355644226e-01,3.57523888349533081e-01],"default_left":[true,false,false,false,false],"id":31,"leaf_child_counts":[1,2,0,0,0],"left_children":[1,3,-1,-1,-1],"loss_changes":[6.42163038253784180e-01,1.08297324180603027e+00,0.00000000000000000e+00,0.00000000000000000e+00,0.00000000000000000e+00],"parents":[2147483647,0,0,1,1],"right_children":[2,4,-1,-1,-1],"split_conditions":[-2.22311019897460938e-02,1.93099231719970703e+01,-1.45991042256355286e-01,-1.00364290177822113e-01,1.78761944174766541e-01],"split_indices":[4,12,0,0,0],"sum_hessian":[1.66403980255126953e+01,1.22320194244384766e+01,4.40837955474853516e+00,5.34146165847778320e+00,6.89055728912353516e+00],"tree_param":{"num_feature":"13","num_nodes":"5","size_leaf_vector":"0"}},{"base_weights":[-3.82616161368787289e-03,-1.44999459385871887e-01,1.87609791755676270e-01,7.76442661881446838e-02,-2.92431294918060303e-01],"default_left":[true,true,false,false,false],"id":32,"leaf_child_counts":[1,2,0,0,0],"left_children":[1,3,-1,-1,-1],"loss_changes":[5.15275239944458008e-01,3.82412523031234741e-01,0.00000000000000000e+00,0.00000000000000000e+00,0.00000000000000000e+00],"parents":[2147483647,0,0,1,1],"right_children":[2,4,-1,-1,-1],"split_conditions":[9.70499992370605469e-01,1.47542343139648438e+01,9.38048958778381348e-02,3.88221330940723419e-02,-1.46215647459030151e-01],"split_indices":[8,11,0,0,0],"sum_hessian":[1.70595874786376953e+01,9.95839595794677734e+00,7.10119056701660156e+00,4.15583276748657227e+00,5.80256319046020508e+00],"tree_param":{"num_feature":"13","num_nodes":"5","size_leaf_vector":"0"}},{"base_weights":[-1.44055066630244255e-02,1.55056610703468323e-01,-2.28956356644630432e-01,3.19611191749572754e-01,-3.25728170573711395e-02],"default_left":[false,true,false,false,false],"id":33,"leaf_child_counts":[1,2,0,0,0],"left_children":[1,3,-1,-1,-1],"loss_changes":[6.78268551826477051e-01,3.33781510591506958e-01,0.00000000000000000e+00,0.00000000000000000e+00,0.00000000000000000e+00],"parents":[2147483647,0,0,1,1],"right_children":[2,4,-1,-1,-1],"split_conditions":[1.94634475708007812e+01,1.43384528160095215e+00,-1.14478178322315216e-01,1.59805595874786377e-01,-1.62864085286855698e-02],"split_indices":[12,6,0,0,0],"sum_hessian":[1.66787261962890625e+01,9.47345352172851562e+00,7.20527219772338867e+00,4.67232131958007812e+00,4.80113267898559570e+00],"tree_param":{"num_feature":"13","num_nodes":"5","size_leaf_vector":"0"}},{"base_weights":[2.59563419967889786e-02,-9.68792885541915894e-02,3.35274785757064819e-01,1.39066964387893677e-01,-2.57168948650360107e-01],"default_left":[true,true,false,false,false],"id":34,"leaf_child_counts":[1,2,0,0,0],"left_children":[1,3,-1,-1,-1],"loss_changes":[6.86313927173614502e-01,5.30929565429687500e-01,0.00000000000000000e+00,0.00000000000000000e+00,0.00000000000000000e+00],"parents":[2147483647,0,0,1,1],"right_children":[2,4,-1,-1,-1],"split_conditions":[2.95298748016357422e+01,4.12291996181011200e-02,1.67637392878532410e-01,6.95334821939468384e-02,-1.28584474325180054e-01],"split_indices":[11,9,0,0,0],"sum_hessian":[1.62082405090332031e+01,1.20927867889404297e+01,4.11545419692993164e+00,4.94546651840209961e+00,7.14732027053833008e+00],"tree_param":{"num_feature":"13","num_nodes":"5","size_leaf_vector":"0"}},{"base_weights":[3.36193442344665527e-02,-5.09919524192810059e-02,2.11456879973411560e-01,2.08570510149002075e-01,-2.89519757032394409e-01],"default_left":[false,true,false,false,false],"id":35,"leaf_child_counts":[1,2,0,0,0],"left_children":[1,3,-1,-1,-1],"loss_changes":[2.64857202768325806e-01,8.18653464317321777e-01,0.00000000000000000e+00,0.00000000000000000e+00,0.00000000000000000e+00],"parents":[2147483647,0,0,1,1],"right_children":[2,4,-1,-1,-1],"split_conditions":[2.01642684936523438e+01,1.93121643066406250e+01,1.05728439986705780e-01,1.04285255074501038e-01,-1.44759878516197205e-01],"split_indices":[12,1,0,0,0],"sum_hessian":[1.58853244781494141e+01,1.12473449707031250e+01,4.63797998428344727e+00,5.44632577896118164e+00,5.80101966857910156e+00],"tree_param":{"num_feature":"13","num_nodes":"5","size_leaf_vector":"0"}},{"base_weights":[-7.58910644799470901e-03,-2.33276203274726868e-01,1.39941141009330750e-01,3.41653794050216675e-01,-6.68825954198837280e-02],"default_left":[true,false,true,false,false],"id":36,"leaf_child_counts":[1,0,2,0,0],"left_children":[1,-1,3,-1,-1],"loss_changes":[6.13341271877288818e-01,0.00000000000000000e+00,4.88913595676422119e-01,0.00000000000000000e+00,0.00000000000000000e+00],"parents":[2147483647,0,0,2,2],"right_children":[2,-1,4,-1,-1],"split_conditions":[1.95868244171142578e+01,-1.16638101637363434e-01,2.99949645996093750e+00,1.70826897025108337e-01,-3.34412977099418640e-02],"split_indices":[0,0,2,0,0],"sum_hessian":[1.64405956268310547e+01,6.26910591125488281e+00,1.01714887619018555e+01,4.81933879852294922e+00,5.35214996337890625e+00],"tree_param":{"num_feature":"13","num_nodes":"5","size_leaf_vector":"0"}},{"base_weights":[-9.09977685660123825e-03,-1.67312264442443848e-01,1.63595393300056458e-01,3.46398875117301941e-02,-3.31341385841369629e-01],"default_left":[true,true,false,false,false],"id":37,"leaf_child_counts":[1,2,0,0,0],"left_children":[1,3,-1,-1,-1],"loss_changes":[4.92623299360275269e-01,3.22235643863677979e-01,0.00000000000000000e+00,0.00000000000000000e+00,0.00000000000000000e+00],"parents":[2147483647,0,0,1,1],"right_children":[2,4,-1,-1,-1],"split_conditions":[1.82525491714477539e+00,5.97648508846759796e-02,8.17976966500282288e-02,1.73199437558650970e-02,-1.65670692920684814e-01],"split_indices":[6,9,0,0,0],"sum_hessian":[1.60281333923339844e+01,8.38108158111572266e+00,7.64705181121826172e+00,4.10985660552978516e+00,4.27122497558593750e+00],"tree_param":{"num_feature":"13","num_nodes":"5","size_leaf_vector":"0"}},{"base_weights":[3.79644669592380524e-02,1.48607134819030762e-01,-1.69913098216056824e-01,-6.30830004811286926e-02,4.00245726108551025e-01],"default_left":[true,true,false,false,false],"id":38,"leaf_child_counts":[1,2,0,0,0],"left_children":[1,3,-1,-1,-1],"loss_changes":[4.22248035669326782e-01,6.53740882873535156e-01,0.00000000000000000e+00,0.00000000000000000e+00,0.00000000000000000e+00],"parents":[2147483647,0,0,1,1],"right_children":[2,4,-1,-1,-1],"split_conditions":[2.10955009460449219e+01,1.95964980125427246e+00,-8.49565491080284119e-02,-3.15415002405643463e-02,2.00122863054275513e-01],"split_indices":[7,10,0,0,0],"sum_hessian":[1.62606735229492188e+01,1.07983713150024414e+01,5.46230220794677734e+00,6.27166461944580078e+00,4.52670621871948242e+00],"tree_param":{"num_feature":"13","num_nodes":"5","size_leaf_vector":"0"}},{"base_weights":[-1.80093608796596527e-02,1.50954738259315491e-01,-2.72744029760360718e-01,-8.63107964396476746e-02,3.48542630672454834e-01],"default_left":[true,true,false,false,false],"id":39,"leaf_child_counts":[1,2,0,0,0],"left_children":[1,3,-1,-1,-1],"loss_changes":[7.51922190189361572e-01,5.25697588920593262e-01,0.00000000000000000e+00,0.00000000000000000e+00,0.00000000000000000e+00],"parents":[2147483647,0,0,1,1],"right_children":[2,4,-1,-1,-1],"split_conditions":[1.96788272857666016e+01,3.02054405212402344e+00,-1.36372014880180359e-01,-4.31553982198238373e-02,1.74271315336227417e-01],"split_indices":[1,2,0,0,0],"sum_hessian":[1.55133237838745117e+01,9.57180309295654297e+00,5.94152069091796875e+00,4.60511350631713867e+00,4.96669006347656250e+00],"tree_param":{"num_feature":"13","num_nodes":"5","size_leaf_vector":"0"}},{"base_weights":[7.86503329873085022e-02,-1.52172952890396118e-01,2.47630491852760315e-01,4.16609913110733032e-01,3.24142090976238251e-02],"default_left":[true,false,true,false,false],"id":40,"leaf_child_counts":[1,0,2,0,0],"left_children":[1,-1,3,-1,-1],"loss_changes":[6.25943720340728760e-01,0.00000000000000000e+00,3.17000508308410645e-01,0.00000000000000000e+00,0.00000000000000000e+00],"parents":[2147483647,0,0,2,2],"right_children":[2,-1,4,-1,-1],"split_conditions":[1.96628456115722656e+01,-7.60864764451980591e-02,1.98402938842773438e+01,2.08304956555366516e-01,1.62071045488119125e-02],"split_indices":[0,0,1,0,0],"sum_hessian":[1.40818548202514648e+01,5.99384832382202148e+00,8.08800601959228516e+00,4.00649213790893555e+00,4.08151388168334961e+00],"tree_param":{"num_feature":"13","num_nodes":"5","size_leaf_vector":"0"}},{"base_weights":[-4.82770279049873352e-02,2.28446692228317261e-01,-2.01422870159149170e-01,-4.78590518236160278e-01,7.28027820587158203e-02],"default_left":[true,false,true,false,false],"id":41,"leaf_child_counts":[1,0,2,0,0],"left_children":[1,-1,3,-1,-1],"loss_changes":[7.44403541088104248e-01,0.00000000000000000e+00,8.81552875041961670e-01,0.00000000000000000e+00,0.00000000000000000e+00],"parents":[2147483647,0,0,2,2],"right_children":[2,-1,4,-1,-1],"split_conditions":[2.97924184799194336e+00,1.14223346114158630e-01,9.43499982357025146e-01,-2.39295259118080139e-01,3.64013910293579102e-02],"split_indices":[2,0,8,0,0],"sum_hessian":[1.54795703887939453e+01,5.33959865570068359e+00,1.01399717330932617e+01,4.67230081558227539e+00,5.46767091751098633e+00],"tree_param":{"num_feature":"13","num_nodes":"5","size_leaf_vector":"0"}},{"base_weights":[1.59399081021547318e-02,1.76944121718406677e-01,-3.19078981876373291e-01,-3.16444449126720428e-02,3.13978016376495361e-01],"default_left":[true,true,false,false,false],"id":42,"leaf_child_counts":[1,2,0,0,0],"left_children":[1,3,-1,-1,-1],"loss_changes":[9.00893628597259521e-01,3.30558270215988159e-01,0.00000000000000000e+00,0.00000000000000000e+00,0.00000000000000000e+00],"parents":[2147483647,0,0,1,1],"right_children":[2,4,-1,-1,-1],"split_conditions":[3.17994499206542969e+00,1.12798619270324707e+00,-1.59539490938186646e-01,-1.58222224563360214e-02,1.56989008188247681e-01],"split_indices":[6,10,0,0,0],"sum_hessian":[1.46552286148071289e+01,1.02169704437255859e+01,4.43825817108154297e+00,4.35579538345336914e+00,5.86117458343505859e+00],"tree_param":{"num_feature":"13","num_nodes":"5","size_leaf_vector":"0"}},{"base_weights":[-6.71957284212112427e-02,7.95265659689903259e-02,-3.50110262632369995e-01,2.86969304084777832e-01,-1.01857483386993408e-01],"default_left":[true,true,false,false,false],"id":43,"leaf_child_counts":[1,2,0,0,0],"left_children":[1,3,-1,-1,-1],"loss_changes":[6.67260706424713135e-01,4.41558748483657837e-01,0.00000000000000000e+00,0.00000000000000000e+00,0.00000000000000000e+00],"parents":[2147483647,0,0,1,1],"right_children":[2,4,-1,-1,-1],"split_conditions":[1.94634475708007812e+01,4.12291996181011200e-02,-1.75055131316184998e-01,1.43484652042388916e-01,-5.09287416934967041e-02],"split_indices":[12,9,0,0,0],"sum_hessian":[1.44039907455444336e+01,9.95837879180908203e+00,4.44561195373535156e+00,4.37394189834594727e+00,5.58443641662597656e+00],"tree_param":{"num_feature":"13","num_nodes":"5","size_leaf_vector":"0"}},{"base_weights":[9.89376381039619446e-02,-1.50796353816986084e-01,2.48170137405395508e-01,4.03173774480819702e-01,5.35969845950603485e-02],"default_left":[true,false,false,false,false],"id":44,"leaf_child_counts":[1,0,2,0,0],"left_children":[1,-1,3,-1,-1],"loss_changes":[6.04515075683593750e-01,0.00000000000000000e+00,2.77052521705627441e-01,0.00000000000000000e+00,0.00000000000000000e+00],"parents":[2147483647,0,0,2,2],"right_children":[2,-1,4,-1,-1],"split_conditions":[8.90269851684570312e+00,-7.53981769084930420e-02,2.28803901672363281e+01,2.01586887240409851e-01,2.67984922975301743e-02],"split_indices":[11,0,11,0,0],"sum_hessian":[1.42164154052734375e+01,5.31369781494140625e+00,8.90271759033203125e+00,4.35849666595458984e+00,4.54422092437744141e+00],"tree_param":{"num_feature":"13","num_nodes":"5","size_leaf_vector":"0"}},{"base_weights":[6.71179266646504402e-03,1.63230180740356445e-01,-3.09992671012878418e-01,-1.15286735817790031e-02,3.42947125434875488e-01],"default_left":[true,false,false,false,false],"id":45,"leaf_child_counts":[1,2,0,0,0],"left_children":[1,3,-1,-1,-1],"loss_changes":[7.69415736198425293e-01,3.29327255487442017e-01,0.00000000000000000e+00,0.00000000000000000e+00,0.00000000000000000e+00],"parents":[2147483647,0,0,1,1],"right_children":[2,4,-1,-1,-1],"split_conditions":[2.12880001068115234e+01,1.95964980125427246e+00,-1.54996335506439209e-01,-5.76433679088950157e-03,1.71473562717437744e-01],"split_indices":[7,10,0,0,0],"sum_hessian":[1.35009994506835938e+01,9.35986328125000000e+00,4.14113664627075195e+00,5.21986055374145508e+00,4.14000272750854492e+00],"tree_param":{"num_feature":"13","num_nodes":"5","size_leaf_vector":"0"}},{"base_weights":[4.97670695185661316e-02,-7.44194164872169495e-02,2.24146902561187744e-01,1.91381335258483887e-01,-3.43140631914138794e-01],"default_left":[true,false,false,false,false],"id":46,"leaf_child_counts":[1,2,0,0,0],"left_children":[1,3,-1,-1,-1],"loss_changes":[3.37115198373794556e-01,7.36573278903961182e-01,0.00000000000000000e+00,0.00000000000000000e+00,0.00000000000000000e+00],"parents":[2147483647,0,0,1,1],"right_children":[2,4,-1,-1,-1],"split_conditions":[1.98534355163574219e+01,1.16915111541748047e+01,1.12073451280593872e-01,9.56906676292419434e-02,-1.71570315957069397e-01],"split_indices":[11,11,0,0,0],"sum_hessian":[1.37968206405639648e+01,8.39293479919433594e+00,5.40388536453247070e+00,4.36408567428588867e+00,4.02884912490844727e+00],"tree_param":{"num_feature":"13","num_nodes":"5","size_leaf_vector":"0"}},{"base_weights":[-5.33877126872539520e-02,-1.51345938444137573e-01,1.76765233278274536e-01,1.23049214482307434e-01,-3.41617316007614136e-01],"default_left":[false,true,false,false,false],"id":47,"leaf_child_counts":[1,2,0,0,0],"left_children":[1,3,-1,-1,-1],"loss_changes":[3.78198355436325073e-01,6.41044616699218750e-01,0.00000000000000000e+00,0.00000000000000000e+00,0.00000000000000000e+00],"parents":[2147483647,0,0,1,1],"right_children":[2,4,-1,-1,-1],"split_conditions":[2.01777343750000000e+01,1.91633491516113281e+01,8.83826166391372681e-02,6.15246072411537170e-02,-1.70808658003807068e-01],"split_indices":[12,1,0,0,0],"sum_hessian":[1.45883684158325195e+01,1.04731664657592773e+01,4.11520195007324219e+00,4.43321371078491211e+00,6.03995275497436523e+00],"tree_param":{"num_feature":"13","num_nodes":"5","size_leaf_vector":"0"}},{"base_weights":[-2.87505406886339188e-02,1.33691415190696716e-01,-1.54865846037864685e-01,-3.39201956987380981e-01,5.92312365770339966e-02],"default_left":[true,false,false,false,false],"id":48,"leaf_child_counts":[1,0,2,0,0],"left_children":[1,-1,3,-1,-1],"loss_changes":[3.34905028343200684e-01,0.00000000000000000e+00,3.79120588302612305e-01,0.00000000000000000e+00,0.00000000000000000e+00],"parents":[2147483647,0,0,2,2],"right_children":[2,-1,4,-1,-1],"split_conditions":[1.31423139572143555e+00,6.68457075953483582e-02,1.53732001781463623e-01,-1.69600978493690491e-01,2.96156182885169983e-02],"split_indices":[6,0,9,0,0],"sum_hessian":[1.43370294570922852e+01,6.23981094360351562e+00,8.09721851348876953e+00,4.03702783584594727e+00,4.06019020080566406e+00],"tree_param":{"num_feature":"13","num_nodes":"5","size_leaf_vector":"0"}},{"base_weights":[-5.16417361795902252e-02,7.91466012597084045e-02,-3.04146856069564819e-01,-1.30622178316116333e-01,2.45655506849288940e-01],"default_left":[true,true,false,false,false],"id":49,"leaf_child_counts":[1,2,0,0,0],"left_children":[1,3,-1,-1,-1],"loss_changes":[5.08862793445587158e-01,3.97582590579986572e-01,0.00000000000000000e+00,0.00000000000000000e+00,0.00000000000000000e+00],"parents":[2147483647,0,0,1,1],"right_children":[2,4,-1,-1,-1],"split_conditions":[1.94634475708007812e+01,9.30500030517578125e-01,-1.52073428034782410e-01,-6.53110891580581665e-02,1.22827753424644470e-01],"split_indices":[12,8,0,0,0],"sum_hessian":[1.36796264648437500e+01,9.46411705017089844e+00,4.21550941467285156e+00,4.28339624404907227e+00,5.18072080612182617e+00],"tree_param":{"num_feature":"13","num_nodes":"5","size_leaf_vector":"0"}},{"base_weights":[6.06142282485961914e-02,2.26499184966087341e-01,-2.46643573045730591e-01,5.61640672385692596e-02,3.70403677225112915e-01],"default_left":[true,true,false,false,false],"id":50,"leaf_child_counts":[1,2,0,0,0],"left_children":[1,3,-1,-1,-1],"loss_changes":[7.68898069858551025e-01,2.14658558368682861e-01,0.00000000000000000e+00,0.00000000000000000e+00,0.00000000000000000e+00],"parents":[2147483647,0,0,1,1],"right_children":[2,4,-1,-1,-1],"split_conditions":[2.97368049621582031e+00,1.89982681274414062e+01,-1.23321786522865295e-01,2.80820336192846298e-02,1.85201838612556458e-01],"split_indices":[5,12,0,0,0],"sum_hessian":[1.29894285202026367e+01,8.60598945617675781e+00,4.38343858718872070e+00,4.57774591445922852e+00,4.02824401855468750e+00],"tree_param":{"num_feature":"13","num_nodes":"5","size_leaf_vector":"0"}},{"base_weights":[-2.57567390799522400e-02,1.17590978741645813e-01,-2.06249430775642395e-01],"default_left":[true,false,false],"id":51,"leaf_child_counts":[2,0,0],"left_children":[1,-1,-1],"loss_changes":[3.93380790948867798e-01,0.00000000000000000e+00,0.00000000000000000e+00],"parents":[2147483647,0,0],"right_children":[2,-1,-1],"split_conditions":[1.99864997863769531e+01,5.87954893708229065e-02,-1.03124715387821198e-01],"split_indices":[0,0,0],"sum_hessian":[1.32667875289916992e+01,7.58849048614501953e+00,5.67829704284667969e+00],"tree_param":{"num_feature":"13","num_nodes":"3","size_leaf_vector":"0"}},{"base_weights":[-3.25579680502414703e-02,-2.20449760556221008e-01,1.14432141184806824e-01],"default_left":[true,false,false],"id":52,"leaf_child_counts":[2,0,0],"left_children":[1,-1,-1],"loss_changes":[4.21820282936096191e-01,0.00000000000000000e+00,0.00000000000000000e+00],"parents":[2147483647,0,0],"right_children":[2,-1,-1],"split_conditions":[1.96628456115722656e+01,-1.10224880278110504e-01,5.72160705924034119e-02],"split_indices":[0,0,0],"sum_hessian":[1.33598499298095703e+01,5.64469480514526367e+00,7.71515512466430664e+00],"tree_param":{"num_feature":"13","num_nodes":"3","size_leaf_vector":"0"}},{"base_weights":[1.37600554153323174e-02,-9.07918214797973633e-02,1.75611585378646851e-01,7.86030888557434082e-02,-2.33567491173744202e-01],"default_left":[false,true,false,false,false],"id":53,"leaf_child_counts":[1,2,0,0,0],"left_children":[1,3,-1,-1,-1],"loss_changes":[2.62519240379333496e-01,2.48409733176231384e-01,0.00000000000000000e+00,0.00000000000000000e+00,0.00000000000000000e+00],"parents":[2147483647,0,0,1,1],"right_children":[2,4,-1,-1,-1],"split_conditions":[3.08364372253417969e+01,9.62000012397766113e-01,8.78057926893234253e-02,3.93015444278717041e-02,-1.16783745586872101e-01],"split_indices":[11,8,0,0,0],"sum_hessian":[1.35713787078857422e+01,8.51193332672119141e+00,5.05944538116455078e+00,4.09862327575683594e+00,4.41331052780151367e+00],"tree_param":{"num_feature":"13","num_nodes":"5","size_leaf_vector":"0"}},{"base_weights":[-2.60628620162606239e-03,-1.27975687384605408e-01,1.66426524519920349e-01],"default_left":[true,false,false],"id":54,"leaf_child_counts":[2,0,0],"left_children":[1,-1,-1],"loss_changes":[3.30390393733978271e-01,0.00000000000000000e+00,0.00000000000000000e+00],"parents":[2147483647,0,0],"right_children":[2,-1,-1],"split_conditions":[1.93084831237792969e+01,-6.39878436923027039e-02,8.32132622599601746e-02],"split_indices":[12,0,0],"sum_hessian":[1.35856237411499023e+01,7.93972730636596680e+00,5.64589595794677734e+00],"tree_param":{"num_feature":"13","num_nodes":"3","size_leaf_vector":"0"}},{"base_weights":[-1.55628118664026260e-02,-2.60653287172317505e-01,1.13720647990703583e-01,-1.68885439634323120e-01,4.14065062999725342e-01],"default_left":[true,false,true,false,false],"id":55,"leaf_child_counts":[1,0,2,0,0],"left_children":[1,-1,3,-1,-1],"loss_changes":[4.79173034429550171e-01,0.00000000000000000e+00,9.17363762855529785e-01,0.00000000000000000e+00,0.00000000000000000e+00],"parents":[2147483647,0,0,2,2],"right_children":[2,-1,4,-1,-1],"split_conditions":[2.02660322189331055e+00,-1.30326643586158752e-01,-2.11677551269531250e-01,-8.44427198171615601e-02,2.07032531499862671e-01],"split_indices":[5,0,4,0,0],"sum_hessian":[1.31870021820068359e+01,4.20299434661865234e+00,8.98400783538818359e+00,4.85419559478759766e+00,4.12981271743774414e+00],"tree_param":{"num_feature":"13","num_nodes":"5","size_leaf_vector":"0"}},{"base_weights":[5.14473393559455872e-02,1.93373277783393860e-01,-1.38490363955497742e-01],"default_left":[true,false,false],"id":56,"leaf_child_counts":[2,0,0],"left_children":[1,-1,-1],"loss_changes":[3.97442400455474854e-01,0.00000000000000000e+00,0.00000000000000000e+00],"parents":[2147483647,0,0],"right_children":[2,-1,-1],"split_conditions":[-3.15157890319824219e-01,9.66866388916969299e-02,-6.92451819777488708e-02],"split_indices":[4,0,0],"sum_hessian":[1.27500801086425781e+01,7.28698492050170898e+00,5.46309471130371094e+00],"tree_param":{"num_feature":"13","num_nodes":"3","size_leaf_vector":"0"}},{"base_weights":[2.88445279002189636e-02,1.82507038116455078e-01,-6.19506649672985077e-02,-3.37406516075134277e-01,1.73476949334144592e-01],"default_left":[true,false,true,false,false],"id":57,"leaf_child_counts":[1,0,2,0,0],"left_children":[1,-1,3,-1,-1],"loss_changes":[2.21077591180801392e-01,0.00000000000000000e+00,7.19846487045288086e-01,0.00000000000000000e+00,0.00000000000000000e+00],"parents":[2147483647,0,0,2,2],"right_children":[2,-1,4,-1,-1],"split_conditions":[2.97924184799194336e+00,9.12535190582275391e-02,1.95755004882812500e+01,-1.68703258037567139e-01,8.67384746670722961e-02],"split_indices":[2,0,7,0,0],"sum_hessian":[1.40354003906250000e+01,4.83779001235961914e+00,9.19761085510253906e+00,4.03887128829956055e+00,5.15873908996582031e+00],"tree_param":{"num_feature":"13","num_nodes":"5","size_leaf_vector":"0"}},{"base_weights":[2.66073667444288731e-03,-9.22227501869201660e-02,1.17592945694923401e-01],"default_left":[true,false,false],"id":58,"leaf_child_counts":[2,0,0],"left_children":[1,-1,-1],"loss_changes":[1.65986970067024231e-01,0.00000000000000000e+00,0.00000000000000000e+00],"parents":[2147483647,0,0],"right_children":[2,-1,-1],"split_conditions":[1.82525491714477539e+00,-4.61113750934600830e-02,5.87964728474617004e-02],"split_indices":[6,0,0],"sum_hessian":[1.32264852523803711e+01,7.35339975357055664e+00,5.87308549880981445e+00],"tree_param":{"num_feature":"13","num_nodes":"3","size_leaf_vector":"0"}},{"base_weights":[-4.25250642001628876e-02,-1.47653266787528992e-01,9.74409803748130798e-02],"default_left":[true,false,false],"id":59,"leaf_child_counts":[2,0,0],"left_children":[1,-1,-1],"loss_changes":[2.20187366008758545e-01,0.00000000000000000e+00,0.00000000000000000e+00],"parents":[2147483647,0,0],"right_children":[2,-1,-1],"split_conditions":[9.70499992370605469e-01,-7.38266333937644958e-02,4.87204901874065399e-02],"split_indices":[8,0,0],"sum_hessian":[1.29863128662109375e+01,7.38473320007324219e+00,5.60157966613769531e+00],"tree_param":{"num_feature":"13","num_nodes":"3","size_leaf_vector":"0"}},{"base_weights":[-2.74278800934553146e-02,-2.13239371776580811e-01,7.23446533083915710e-02,2.82225430011749268e-01,-1.42158895730972290e-01],"default_left":[true,false,true,false,false],"id":60,"leaf_child_counts":[1,0,2,0,0],"left_children":[1,-1,3,-1,-1],"loss_changes":[2.77711451053619385e-01,0.00000000000000000e+00,4.88151222467422485e-01,0.00000000000000000e+00,0.00000000000000000e+00],"parents":[2147483647,0,0,2,2],"right_children":[2,-1,4,-1,-1],"split_conditions":[7.01519536972045898e+00,-1.06619685888290405e-01,9.17500019073486328e-01,1.41112715005874634e-01,-7.10794478654861450e-02],"split_indices":[11,0,8,0,0],"sum_hessian":[1.31478176116943359e+01,4.19604778289794922e+00,8.95176982879638672e+00,4.36506366729736328e+00,4.58670616149902344e+00],"tree_param":{"num_feature":"13","num_nodes":"5","size_leaf_vector":"0"}},{"base_weights":[-6.19018450379371643e-02,9.46676433086395264e-02,-3.01515311002731323e-01],"default_left":[true,false,false],"id":61,"leaf_child_counts":[2,0,0],"left_children":[1,-1,-1],"loss_changes":[5.36881804466247559e-01,0.00000000000000000e+00,0.00000000000000000e+00],"parents":[2147483647,0,0],"right_children":[2,-1,-1],"split_conditions":[1.96788272857666016e+01,4.73338216543197632e-02,-1.50757655501365662e-01],"split_indices":[1,0,0],"sum_hessian":[1.25498437881469727e+01,7.95606517791748047e+00,4.59377908706665039e+00],"tree_param":{"num_feature":"13","num_nodes":"3","size_leaf_vector":"0"}},{"base_weights":[-1.26903839409351349e-02,-1.67230412364006042e-01,1.09909020364284515e-01],"default_left":[true,false,false],"id":62,"leaf_child_counts":[2,0,0],"left_children":[1,-1,-1],"loss_changes":[2.73784309625625610e-01,0.00000000000000000e+00,0.00000000000000000e+00],"parents":[2147483647,0,0],"right_children":[2,-1,-1],"split_conditions":[9.25500035285949707e-01,-8.36152061820030212e-02,5.49545101821422577e-02],"split_indices":[8,0,0],"sum_hessian":[1.24802722930908203e+01,5.35991191864013672e+00,7.12036037445068359e+00],"tree_param":{"num_feature":"13","num_nodes":"3","size_leaf_vector":"0"}},{"base_weights":[6.55956864356994629e-02,1.87155023217201233e-01,-4.36988323926925659e-02],"default_left":[true,false,false],"id":63,"leaf_child_counts":[2,0,0],"left_children":[1,-1,-1],"loss_changes":[1.93803846836090088e-01,0.00000000000000000e+00,0.00000000000000000e+00],"parents":[2147483647,0,0],"right_children":[2,-1,-1],"split_conditions":[1.17625141143798828e+01,9.35775116086006165e-02,-2.18494161963462830e-02],"split_indices":[11,0,0],"sum_hessian":[1.29717445373535156e+01,5.80401849746704102e+00,7.16772603988647461e+00],"tree_param":{"num_feature":"13","num_nodes":"3","size_leaf_vector":"0"}},{"base_weights":[2.36949883401393890e-02,-2.09696426987648010e-01,1.38204351067543030e-01,2.52542614936828613e-01,-1.98641829192638397e-02],"default_left":[true,false,true,false,false],"id":64,"leaf_child_counts":[1,0,2,0,0],"left_children":[1,-1,3,-1,-1],"loss_changes":[4.03705149888992310e-01,0.00000000000000000e+00,1.85911521315574646e-01,0.00000000000000000e+00,0.00000000000000000e+00],"parents":[2147483647,0,0,2,2],"right_children":[2,-1,4,-1,-1],"split_conditions":[1.92257995605468750e+01,-1.04848213493824005e-01,9.16499972343444824e-01,1.26271307468414307e-01,-9.93209145963191986e-03],"split_indices":[0,0,8,0,0],"sum_hessian":[1.30212211608886719e+01,4.01224946975708008e+00,9.00897216796875000e+00,4.88079214096069336e+00,4.12817955017089844e+00],"tree_param":{"num_feature":"13","num_nodes":"5","size_leaf_vector":"0"}},{"base_weights":[2.12740823626518250e-02,1.69092386960983276e-01,-9.79787707328796387e-02],"default_left":[true,false,false],"id":65,"leaf_child_counts":[2,0,0],"left_children":[1,-1,-1],"loss_changes":[2.69642740488052368e-01,0.00000000000000000e+00,0.00000000000000000e+00],"parents":[2147483647,0,0],"right_children":[2,-1,-1],"split_conditions":[1.31423139572143555e+00,8.45461934804916382e-02,-4.89893853664398193e-02],"split_indices":[6,0,0],"sum_hessian":[1.33566360473632812e+01,5.77740192413330078e+00,7.57923460006713867e+00],"tree_param":{"num_feature":"13","num_nodes":"3","size_leaf_vector":"0"}},{"base_weights":[4.19993735849857330e-02,1.90114021301269531e-01,-9.04980227351188660e-02],"default_left":[true,false,false],"id":66,"leaf_child_counts":[2,0,0],"left_children":[1,-1,-1],"loss_changes":[2.78659760951995850e-01,0.00000000000000000e+00,0.00000000000000000e+00],"parents":[2147483647,0,0],"right_children":[2,-1,-1],"split_conditions":[1.86876544952392578e+01,9.50570106506347656e-02,-4.52490113675594330e-02],"split_indices":[12,0,0],"sum_hessian":[1.23226718902587891e+01,5.61310625076293945e+00,6.70956516265869141e+00],"tree_param":{"num_feature":"13","num_nodes":"3","size_leaf_vector":"0"}},{"base_weights":[-4.40158918499946594e-02,-1.99442461133003235e-01,9.47730541229248047e-02],"default_left":[false,false,false],"id":67,"leaf_child_counts":[2,0,0],"left_children":[1,-1,-1],"loss_changes":[3.00093650817871094e-01,0.00000000000000000e+00,0.00000000000000000e+00],"parents":[2147483647,0,0],"right_children":[2,-1,-1],"split_conditions":[1.93084831237792969e+01,-9.97212305665016174e-02,4.73865270614624023e-02],"split_indices":[12,0,0],"sum_hessian":[1.20353488922119141e+01,5.47122716903686523e+00,6.56412220001220703e+00],"tree_param":{"num_feature":"13","num_nodes":"3","size_leaf_vector":"0"}},{"base_weights":[-8.78462567925453186e-03,-1.27370536327362061e-01,1.31280452013015747e-01],"default_left":[true,false,false],"id":68,"leaf_child_counts":[2,0,0],"left_children":[1,-1,-1],"loss_changes":[2.42825284600257874e-01,0.00000000000000000e+00,0.00000000000000000e+00],"parents":[2147483647,0,0],"right_children":[2,-1,-1],"split_conditions":[1.82525491714477539e+00,-6.36852681636810303e-02,6.56402260065078735e-02],"split_indices":[6,0,0],"sum_hessian":[1.26127338409423828e+01,6.87914609909057617e+00,5.73358774185180664e+00],"tree_param":{"num_feature":"13","num_nodes":"3","size_leaf_vector":"0"}},{"base_weights":[2.86095011979341507e-02,1.70537576079368591e-01,-9.12420898675918579e-02],"default_left":[true,false,false],"id":69,"leaf_child_counts":[2,0,0],"left_children":[1,-1,-1],"loss_changes":[2.51215994358062744e-01,0.00000000000000000e+00,0.00000000000000000e+00],"parents":[2147483647,0,0],"right_children":[2,-1,-1],"split_conditions":[1.31423139572143555e+00,8.52687880396842957e-02,-4.56210449337959290e-02],"split_indices":[6,0,0],"sum_hessian":[1.28537073135375977e+01,5.69124126434326172e+00,7.16246604919433594e+00],"tree_param":{"num_feature":"13","num_nodes":"3","size_leaf_vector":"0"}},{"base_weights":[-8.73843114823102951e-03,-1.72142148017883301e-01,9.03828442096710205e-02,1.73676297068595886e-01,-1.17705827578902245e-02],"default_left":[true,false,false,false,false],"id":70,"leaf_child_counts":[1,0,2,0,0],"left_children":[1,-1,3,-1,-1],"loss_changes":[2.34318509697914124e-01,0.00000000000000000e+00,7.91544839739799500e-02,0.00000000000000000e+00,0.00000000000000000e+00],"parents":[2147483647,0,0,2,2],"right_children":[2,-1,4,-1,-1],"split_conditions":[1.16675186157226562e+00,-8.60710740089416504e-02,4.38021373748779297e+00,8.68381485342979431e-02,-5.88529137894511223e-03],"split_indices":[10,0,10,0,0],"sum_hessian":[1.25063714981079102e+01,4.44386863708496094e+00,8.06250286102294922e+00,4.05555152893066406e+00,4.00695085525512695e+00],"tree_param":{"num_feature":"13","num_nodes":"5","size_leaf_vector":"0"}},{"base_weights":[-3.25280404649674892e-03,1.27661272883415222e-01,-1.03620074689388275e-01],"default_left":[true,false,false],"id":71,"leaf_child_counts":[2,0,0],"left_children":[1,-1,-1],"loss_changes":[1.93052679300308228e-01,0.00000000000000000e+00,0.00000000000000000e+00],"parents":[2147483647,0,0],"right_children":[2,-1,-1],"split_conditions":[2.88141202926635742e+00,6.38306364417076111e-02,-5.18100373446941376e-02],"split_indices":[5,0,0],"sum_hessian":[1.26857986450195312e+01,5.38713979721069336e+00,7.29865837097167969e+00],"tree_param":{"num_feature":"13","num_nodes":"3","size_leaf_vector":"0"}},{"base_weights":[4.15848661214113235e-03,1.58744633197784424e-01,-8.04258063435554504e-02,-1.78868904709815979e-01,3.20110954344272614e-02],"default_left":[false,false,true,false,false],"id":72,"leaf_child_counts":[1,0,2,0,0],"left_children":[1,-1,3,-1,-1],"loss_changes":[1.87144905328750610e-01,0.00000000000000000e+00,1.08481064438819885e-01,0.00000000000000000e+00,0.00000000000000000e+00],"parents":[2147483647,0,0,2,2],"right_children":[2,-1,4,-1,-1],"split_conditions":[4.08720485866069794e-02,7.93723165988922119e-02,1.28968715667724609e+01,-8.94344523549079895e-02,1.60055477172136307e-02],"split_indices":[9,0,11,0,0],"sum_hessian":[1.23361587524414062e+01,4.05269575119018555e+00,8.28346347808837891e+00,4.10155057907104492e+00,4.18191289901733398e+00],"tree_param":{"num_feature":"13","num_nodes":"5","size_leaf_vector":"0"}},{"base_weights":[-6.47779256105422974e-02,-1.77396535873413086e-01,6.68524205684661865e-02],"default_left":[true,false,false],"id":73,"leaf_child_counts":[2,0,0],"left_children":[1,-1,-1],"loss_changes":[2.07728713750839233e-01,0.00000000000000000e+00,0.00000000000000000e+00],"parents":[2147483647,0,0],"right_children":[2,-1,-1],"split_conditions":[2.94967603683471680e+00,-8.86982679367065430e-02,3.34262102842330933e-02],"split_indices":[5,0,0],"sum_hessian":[1.22129640579223633e+01,6.39442014694213867e+00,5.81854343414306641e+00],"tree_param":{"num_feature":"13","num_nodes":"3","size_leaf_vector":"0"}},{"base_weights":[4.79745641350746155e-02,1.25177741050720215e-01,-9.33172628283500671e-02],"default_left":[false,false,false],"id":74,"leaf_child_counts":[2,0,0],"left_children":[1,-1,-1],"loss_changes":[1.56058490276336670e-01,0.00000000000000000e+00,0.00000000000000000e+00],"parents":[2147483647,0,0],"right_children":[2,-1,-1],"split_conditions":[3.09443416595458984e+01,6.25888705253601074e-02,-4.66586314141750336e-02],"split_indices":[11,0,0],"sum_hessian":[1.22356891632080078e+01,7.98607254028320312e+00,4.24961614608764648e+00],"tree_param":{"num_feature":"13","num_nodes":"3","size_leaf_vector":"0"}},{"base_weights":[1.27618806436657906e-02,1.63569867610931396e-01,-1.80745095014572144e-01],"default_left":[true,false,false],"id":75,"leaf_child_counts":[2,0,0],"left_children":[1,-1,-1],"loss_changes":[4.12346541881561279e-01,0.00000000000000000e+00,0.00000000000000000e+00],"parents":[2147483647,0,0],"right_children":[2,-1,-1],"split_conditions":[1.99864997863769531e+01,8.17849338054656982e-02,-9.03725475072860718e-02],"split_indices":[0,0,0],"sum_hessian":[1.21168832778930664e+01,6.89670467376708984e+00,5.22017860412597656e+00],"tree_param":{"num_feature":"13","num_nodes":"3","size_leaf_vector":"0"}},{"base_weights":[-2.03707367181777954e-02,-1.19920514523983002e-01,1.13622330129146576e-01],"default_left":[true,false,false],"id":76,"leaf_child_counts":[2,0,0],"left_children":[1,-1,-1],"loss_changes":[1.87270134687423706e-01,0.00000000000000000e+00,0.00000000000000000e+00],"parents":[2147483647,0,0],"right_children":[2,-1,-1],"split_conditions":[1.83931427001953125e+01,-5.99602572619915009e-02,5.68111650645732880e-02],"split_indices":[11,0,0],"sum_hessian":[1.20178241729736328e+01,6.95537328720092773e+00,5.06245088577270508e+00],"tree_param":{"num_feature":"13","num_nodes":"3","size_leaf_vector":"0"}},{"base_weights":[-9.71161648631095886e-02,4.70530800521373749e-02,-2.09044009447097778e-01],"default_left":[true,false,false],"id":77,"leaf_child_counts":[2,0,0],"left_children":[1,-1,-1],"loss_changes":[2.19165921211242676e-01,0.00000000000000000e+00,0.00000000000000000e+00],"parents":[2147483647,0,0],"right_children":[2,-1,-1],"split_conditions":[1.17625141143798828e+01,2.35265400260686874e-02,-1.04522004723548889e-01],"split_indices":[11,0,0],"sum_hessian":[1.19723949432373047e+01,5.48588466644287109e+00,6.48651027679443359e+00],"tree_param":{"num_feature":"13","num_nodes":"3","size_leaf_vector":"0"}},{"base_weights":[2.32450459152460098e-02,-1.31508544087409973e-01,1.03256739675998688e-01,-8.29705297946929932e-02,2.61060148477554321e-01],"default_left":[true,false,false,false,false],"id":78,"leaf_child_counts":[1,0,2,0,0],"left_children":[1,-1,3,-1,-1],"loss_changes":[1.81025251746177673e-01,0.00000000000000000e+00,3.00089627504348755e-01,0.00000000000000000e+00,0.00000000000000000e+00],"parents":[2147483647,0,0,2,2],"right_children":[2,-1,4,-1,-1],"split_conditions":[1.88290748596191406e+01,-6.57542720437049866e-02,1.93031845092773438e+01,-4.14852648973464966e-02,1.30530074238777161e-01],"split_indices":[1,0,12,0,0],"sum_hessian":[1.25232419967651367e+01,4.04876279830932617e+00,8.47447967529296875e+00,4.10467624664306641e+00,4.36980295181274414e+00],"tree_param":{"num_feature":"13","num_nodes":"5","size_leaf_vector":"0"}},{"base_weights":[6.85569047927856445e-02,1.68872624635696411e-01,-1.13407932221889496e-01],"default_left":[true,false,false],"id":79,"leaf_child_counts":[2,0,0],"left_children":[1,-1,-1],"loss_changes":[2.58246779441833496e-01,0.00000000000000000e+00,0.00000000000000000e+00],"parents":[2147483647,0,0],"right_children":[2,-1,-1],"split_conditions":[1.94634475708007812e+01,8.44363123178482056e-02,-5.67039661109447479e-02],"split_indices":[12,0,0],"sum_hessian":[1.20982875823974609e+01,7.84522724151611328e+00,4.25306034088134766e+00],"tree_param":{"num_feature":"13","num_nodes":"3","size_leaf_vector":"0"}},{"base_weights":[-9.28555428981781006e-03,-1.78641065955162048e-01,1.11460678279399872e-01],"default_left":[true,false,false],"id":80,"leaf_child_counts":[2,0,0],"left_children":[1,-1,-1],"loss_changes":[2.86066383123397827e-01,0.00000000000000000e+00,0.00000000000000000e+00],"parents":[2147483647,0,0],"right_children":[2,-1,-1],"split_conditions":[1.96628456115722656e+01,-8.93205329775810242e-02,5.57303391396999359e-02],"split_indices":[0,0,0],"sum_hessian":[1.20155210494995117e+01,4.80153608322143555e+00,7.21398448944091797e+00],"tree_param":{"num_feature":"13","num_nodes":"3","size_leaf_vector":"0"}},{"base_weights":[4.03574071824550629e-02,2.06897661089897156e-01,-9.41278934478759766e-02],"default_left":[true,false,false],"id":81,"leaf_child_counts":[2,0,0],"left_children":[1,-1,-1],"loss_changes":[3.04185450077056885e-01,0.00000000000000000e+00,0.00000000000000000e+00],"parents":[2147483647,0,0],"right_children":[2,-1,-1],"split_conditions":[1.91633491516113281e+01,1.03448830544948578e-01,-4.70639467239379883e-02],"split_indices":[1,0,0],"sum_hessian":[1.17118749618530273e+01,4.99181079864501953e+00,6.72006368637084961e+00],"tree_param":{"num_feature":"13","num_nodes":"3","size_leaf_vector":"0"}},{"base_weights":[-3.59137840569019318e-02,5.16518987715244293e-02,-1.67100429534912109e-01],"default_left":[true,false,false],"id":82,"leaf_child_counts":[2,0,0],"left_children":[1,-1,-1],"loss_changes":[1.60694986581802368e-01,0.00000000000000000e+00,0.00000000000000000e+00],"parents":[2147483647,0,0],"right_children":[2,-1,-1],"split_conditions":[2.15192985534667969e+00,2.58259493857622147e-02,-8.35502147674560547e-02],"split_indices":[6,0,0],"sum_hessian":[1.22373991012573242e+01,7.70240068435668945e+00,4.53499794006347656e+00],"tree_param":{"num_feature":"13","num_nodes":"3","size_leaf_vector":"0"}},{"base_weights":[1.54820624738931656e-02,-9.06659290194511414e-02,1.36231288313865662e-01],"default_left":[true,false,false],"id":83,"leaf_child_counts":[2,0,0],"left_children":[1,-1,-1],"loss_changes":[1.80438756942749023e-01,0.00000000000000000e+00,0.00000000000000000e+00],"parents":[2147483647,0,0],"right_children":[2,-1,-1],"split_conditions":[2.10815489292144775e-01,-4.53329645097255707e-02,6.81156441569328308e-02],"split_indices":[9,0,0],"sum_hessian":[1.21141023635864258e+01,6.57941865921020508e+00,5.53468370437622070e+00],"tree_param":{"num_feature":"13","num_nodes":"3","size_leaf_vector":"0"}},{"base_weights":[-4.68279719352722168e-02,7.89960473775863647e-02,-2.02228084206581116e-01],"default_left":[false,false,false],"id":84,"leaf_child_counts":[2,0,0],"left_children":[1,-1,-1],"loss_changes":[2.64798820018768311e-01,0.00000000000000000e+00,0.00000000000000000e+00],"parents":[2147483647,0,0],"right_children":[2,-1,-1],"split_conditions":[1.94634475708007812e+01,3.94980236887931824e-02,-1.01114042103290558e-01],"split_indices":[12,0,0],"sum_hessian":[1.17255525588989258e+01,6.75104331970214844e+00,4.97450971603393555e+00],"tree_param":{"num_feature":"13","num_nodes":"3","size_leaf_vector":"0"}},{"base_weights":[-1.15136972453910857e-04,-1.29673391580581665e-01,1.90843105316162109e-01],"default_left":[false,false,false],"id":85,"leaf_child_counts":[2,0,0],"left_children":[1,-1,-1],"loss_changes":[3.35582196712493896e-01,0.00000000000000000e+00,0.00000000000000000e+00],"parents":[2147483647,0,0],"right_children":[2,-1,-1],"split_conditions":[3.50318145751953125e+00,-6.48366957902908325e-02,9.54215526580810547e-02],"split_indices":[10,0,0],"sum_hessian":[1.15639553070068359e+01,7.08081340789794922e+00,4.48314189910888672e+00],"tree_param":{"num_feature":"13","num_nodes":"3","size_leaf_vector":"0"}},{"base_weights":[5.97334280610084534e-02,-1.33350104093551636e-01,1.74032911658287048e-01],"default_left":[true,false,false],"id":86,"leaf_child_counts":[2,0,0],"left_children":[1,-1,-1],"loss_changes":[3.07847380638122559e-01,0.00000000000000000e+00,0.00000000000000000e+00],"parents":[2147483647,0,0],"right_children":[2,-1,-1],"split_conditions":[8.99505424499511719e+00,-6.66750520467758179e-02,8.70164558291435242e-02],"split_indices":[11,0,0],"sum_hessian":[1.18975305557250977e+01,4.36208534240722656e+00,7.53544521331787109e+00],"tree_param":{"num_feature":"13","num_nodes":"3","size_leaf_vector":"0"}},{"base_weights":[-3.08570358902215958e-02,8.22829604148864746e-02,-2.09403604269027710e-01],"default_left":[true,false,false],"id":87,"leaf_child_counts":[2,0,0],"left_children":[1,-1,-1],"loss_changes":[2.84862130880355835e-01,0.00000000000000000e+00,0.00000000000000000e+00],"parents":[2147483647,0,0],"right_children":[2,-1,-1],"split_conditions":[2.15192985534667969e+00,4.11414802074432373e-02,-1.04701802134513855e-01],"split_indices":[6,0,0],"sum_hessian":[1.22486028671264648e+01,7.82761287689208984e+00,4.42098951339721680e+00],"tree_param":{"num_feature":"13","num_nodes":"3","size_leaf_vector":"0"}},{"base_weights":[-5.85232079029083252e-02,-2.23386794328689575e-01,1.25814929604530334e-01],"default_left":[true,false,false],"id":88,"leaf_child_counts":[2,0,0],"left_children":[1,-1,-1],"loss_changes":[4.09450978040695190e-01,0.00000000000000000e+00,0.00000000000000000e+00],"parents":[2147483647,0,0],"right_children":[2,-1,-1],"split_conditions":[1.82525491714477539e+00,-1.11693397164344788e-01,6.29074648022651672e-02],"split_indices":[6,0,0],"sum_hessian":[1.15481233596801758e+01,5.98425149917602539e+00,5.56387186050415039e+00],"tree_param":{"num_feature":"13","num_nodes":"3","size_leaf_vector":"0"}},{"base_weights":[1.06544559821486473e-02,1.63147985935211182e-01,-1.18658788502216339e-01],"default_left":[true,false,false],"id":89,"leaf_child_counts":[2,0,0],"left_children":[1,-1,-1],"loss_changes":[2.72539198398590088e-01,0.00000000000000000e+00,0.00000000000000000e+00],"parents":[2147483647,0,0],"right_children":[2,-1,-1],"split_conditions":[1.45525527000427246e+00,8.15739929676055908e-02,-5.93293942511081696e-02],"split_indices":[10,0,0],"sum_hessian":[1.18391237258911133e+01,5.31257915496826172e+00,6.52654457092285156e+00],"tree_param":{"num_feature":"13","num_nodes":"3","size_leaf_vector":"0"}},{"base_weights":[7.32331350445747375e-02,1.63459300994873047e-01,-1.00248239934444427e-01],"default_left":[true,false,false],"id":90,"leaf_child_counts":[2,0,0],"left_children":[1,-1,-1],"loss_changes":[2.17896968126296997e-01,0.00000000000000000e+00,0.00000000000000000e+00],"parents":[2147483647,0,0],"right_children":[2,-1,-1],"split_conditions":[2.09734992980957031e+01,8.17296504974365234e-02,-5.01241199672222137e-02],"split_indices":[7,0,0],"sum_hessian":[1.18739643096923828e+01,7.84935331344604492e+00,4.02461051940917969e+00],"tree_param":{"num_feature":"13","num_nodes":"3","size_leaf_vector":"0"}},{"base_weights":[-1.49267911911010742e-02,-1.46796733140945435e-01,9.77450981736183167e-02],"default_left":[false,false,false],"id":91,"leaf_child_counts":[2,0,0],"left_children":[1,-1,-1],"loss_changes":[2.12937369942665100e-01,0.00000000000000000e+00,0.00000000000000000e+00],"parents":[2147483647,0,0],"right_children":[2,-1,-1],"split_conditions":[1.95964980125427246e+00,-7.33983665704727173e-02,4.88725490868091583e-02],"split_indices":[10,0,0],"sum_hessian":[1.23657445907592773e+01,5.55793190002441406e+00,6.80781221389770508e+00],"tree_param":{"num_feature":"13","num_nodes":"3","size_leaf_vector":"0"}},{"base_weights":[-2.11507510393857956e-02,9.12171602249145508e-02,-1.20915196835994720e-01],"default_left":[true,false,false],"id":92,"leaf_child_counts":[2,0,0],"left_children":[1,-1,-1],"loss_changes":[1.54338076710700989e-01,0.00000000000000000e+00,0.00000000000000000e+00],"parents":[2147483647,0,0],"right_children":[2,-1,-1],"split_conditions":[1.18136844635009766e+01,4.56085801124572754e-02,-6.04575984179973602e-02],"split_indices":[11,0,0],"sum_hessian":[1.17836236953735352e+01,5.58205270767211914e+00,6.20157098770141602e+00],"tree_param":{"num_feature":"13","num_nodes":"3","size_leaf_vector":"0"}},{"base_weights":[-1.08162872493267059e-02,1.54968991875648499e-01,-1.14276878535747528e-01],"default_left":[false,false,false],"id":93,"leaf_child_counts":[2,0,0],"left_children":[1,-1,-1],"loss_changes":[2.28420674800872803e-01,0.00000000000000000e+00,0.00000000000000000e+00],"parents":[2147483647,0,0],"right_children":[2,-1,-1],"split_conditions":[1.27655971050262451e+00,7.74844959378242493e-02,-5.71384392678737640e-02],"split_indices":[10,0,0],"sum_hessian":[1.12847661972045898e+01,4.14498519897460938e+00,7.13978052139282227e+00],"tree_param":{"num_feature":"13","num_nodes":"3","size_leaf_vector":"0"}},{"base_weights":[3.56843322515487671e-02,-4.96926493942737579e-02,1.78408533334732056e-01],"default_left":[true,false,false],"id":94,"leaf_child_counts":[2,0,0],"left_children":[1,-1,-1],"loss_changes":[1.65512040257453918e-01,0.00000000000000000e+00,0.00000000000000000e+00],"parents":[2147483647,0,0],"right_children":[2,-1,-1],"split_conditions":[3.50318145751953125e+00,-2.48463246971368790e-02,8.92042666673660278e-02],"split_indices":[10,0,0],"sum_hessian":[1.18552970886230469e+01,7.82577896118164062e+00,4.02951860427856445e+00],"tree_param":{"num_feature":"13","num_nodes":"3","size_leaf_vector":"0"}},{"base_weights":[2.81153619289398193e-02,-7.37147927284240723e-02,1.69726610183715820e-01],"default_left":[false,false,false],"id":95,"leaf_child_counts":[2,0,0],"left_children":[1,-1,-1],"loss_changes":[1.93127453327178955e-01,0.00000000000000000e+00,0.00000000000000000e+00],"parents":[2147483647,0,0],"right_children":[2,-1,-1],"split_conditions":[2.87527561187744141e+01,-3.68573963642120361e-02,8.48633050918579102e-02],"split_indices":[11,0,0],"sum_hessian":[1.15251331329345703e+01,6.98313808441162109e+00,4.54199457168579102e+00],"tree_param":{"num_feature":"13","num_nodes":"3","size_leaf_vector":"0"}},{"base_weights":[-1.73976123332977295e-02,-1.86183452606201172e-01,1.43933147192001343e-01],"default_left":[true,false,false],"id":96,"leaf_child_counts":[2,0,0],"left_children":[1,-1,-1],"loss_changes":[3.49286824464797974e-01,0.00000000000000000e+00,0.00000000000000000e+00],"parents":[2147483647,0,0],"right_children":[2,-1,-1],"split_conditions":[1.95964980125427246e+00,-9.30917263031005859e-02,7.19665735960006714e-02],"split_indices":[10,0,0],"sum_hessian":[1.08429937362670898e+01,5.22377777099609375e+00,5.61921596527099609e+00],"tree_param":{"num_feature":"13","num_nodes":"3","size_leaf_vector":"0"}},{"base_weights":[-2.05765366554260254e-02,-1.80540055036544800e-01,1.17144718766212463e-01],"default_left":[true,false,false],"id":97,"leaf_child_counts":[2,0,0],"left_children":[1,-1,-1],"loss_changes":[2.96286940574645996e-01,0.00000000000000000e+00,0.00000000000000000e+00],"parents":[2147483647,0,0],"right_children":[2,-1,-1],"split_conditions":[9.40999984741210938e-01,-9.02700275182723999e-02,5.85723593831062317e-02],"split_indices":[8,0,0],"sum_hessian":[1.14890117645263672e+01,5.17145109176635742e+00,6.31756019592285156e+00],"tree_param":{"num_feature":"13","num_nodes":"3","size_leaf_vector":"0"}},{"base_weights":[-1.18592232465744019e-02,9.86827462911605835e-02,-1.47711262106895447e-01],"default_left":[false,false,false],"id":98,"leaf_child_counts":[2,0,0],"left_children":[1,-1,-1],"loss_changes":[2.01915815472602844e-01,0.00000000000000000e+00,0.00000000000000000e+00],"parents":[2147483647,0,0],"right_children":[2,-1,-1],"split_conditions":[3.05798673629760742e+00,4.93413731455802917e-02,-7.38556310534477234e-02],"split_indices":[10,0,0],"sum_hessian":[1.14748525619506836e+01,6.47763919830322266e+00,4.99721384048461914e+00],"tree_param":{"num_feature":"13","num_nodes":"3","size_leaf_vector":"0"}},{"base_weights":[6.45835325121879578e-02,-9.40468460321426392e-02,1.54251530766487122e-01],"default_left":[true,false,false],"id":99,"leaf_child_counts":[2,0,0],"left_children":[1,-1,-1],"loss_changes":[1.93639293313026428e-01,0.00000000000000000e+00,0.00000000000000000e+00],"parents":[2147483647,0,0],"right_children":[2,-1,-1],"split_conditions":[1.79113121032714844e+01,-4.70234230160713196e-02,7.71257653832435608e-02],"split_indices":[12,0,0],"sum_hessian":[1.15936155319213867e+01,4.16916704177856445e+00,7.42444801330566406e+00],"tree_param":{"num_feature":"13","num_nodes":"3","size_leaf_vector":"0"}}]},"name":"gbtree"},"learner_model_param":{"base_score":"0.500000","num_class":"0","num_feature":"13"},"objective":{"name":"binary:logistic","reg_loss_param":{"scale_pos_weight":"1"}}},"version":[1,0,2]}